<?xml version="1.0"?>
<opencv_storage>
<stage8>
  <maxWeakCount>6</maxWeakCount>
  <stageThreshold>-1.3420821428298950e+00</stageThreshold>
  <weakClassifiers>
    <_>
      <internalNodes>
        0 -1 114494 1.9652522169053555e-03</internalNodes>
      <leafValues>
        -6.7253249883651733e-01 4.5547074079513550e-01</leafValues></_>
    <_>
      <internalNodes>
        0 -1 87983 9.1877887025475502e-03</internalNodes>
      <leafValues>
        -6.0292130708694458e-01 4.8740780353546143e-01</leafValues></_>
    <_>
      <internalNodes>
        0 -1 32423 2.2018412128090858e-02</internalNodes>
      <leafValues>
        -8.5285645723342896e-01 3.2291093468666077e-01</leafValues></_>
    <_>
      <internalNodes>
        0 -1 95926 -4.0234941989183426e-03</internalNodes>
      <leafValues>
        -7.9734128713607788e-01 2.7816659212112427e-01</leafValues></_>
    <_>
      <internalNodes>
        0 -1 89745 3.2195644453167915e-03</internalNodes>
      <leafValues>
        -8.8606208562850952e-01 2.5376191735267639e-01</leafValues></_>
    <_>
      <internalNodes>
        0 -1 88720 3.2169826328754425e-02</internalNodes>
      <leafValues>
        -9.2146778106689453e-01 2.6550343632698059e-01</leafValues></_></weakClassifiers></stage8>
</opencv_storage>
