<?xml version="1.0"?>
<opencv_storage>
<cascade>
  <stageType>BOOST</stageType>
  <featureType>HAAR</featureType>
  <height>14</height>
  <width>20</width>
  <stageParams>
    <boostType>GAB</boostType>
    <minHitRate>9.9500000476837158e-01</minHitRate>
    <maxFalseAlarm>5.0000000000000000e-01</maxFalseAlarm>
    <weightTrimRate>9.4999999999999996e-01</weightTrimRate>
    <maxDepth>1</maxDepth>
    <maxWeakCount>100</maxWeakCount></stageParams>
  <featureParams>
    <maxCatCount>0</maxCatCount>
    <featSize>1</featSize>
    <mode>ALL</mode></featureParams>
  <stageNum>17</stageNum>
  <stages>
    <!-- stage 0 -->
    <_>
      <maxWeakCount>10</maxWeakCount>
      <stageThreshold>-1.8361260890960693e+00</stageThreshold>
      <weakClassifiers>
        <_>
          <internalNodes>
            0 -1 307 3.2418181654065847e-03</internalNodes>
          <leafValues>
            -7.3709940910339355e-01 3.0802416801452637e-01</leafValues></_>
        <_>
          <internalNodes>
            0 -1 185 3.1727203167974949e-03</internalNodes>
          <leafValues>
            -5.5869519710540771e-01 3.8796904683113098e-01</leafValues></_>
        <_>
          <internalNodes>
            0 -1 241 1.0491888970136642e-02</internalNodes>
          <leafValues>
            -3.3740669488906860e-01 5.7151722908020020e-01</leafValues></_>
        <_>
          <internalNodes>
            0 -1 174 -1.0452391579747200e-03</internalNodes>
          <leafValues>
            5.1337355375289917e-01 -2.9408499598503113e-01</leafValues></_>
        <_>
          <internalNodes>
            0 -1 226 6.4851820934563875e-04</internalNodes>
          <leafValues>
            -4.8202908039093018e-01 2.8776550292968750e-01</leafValues></_>
        <_>
          <internalNodes>
            0 -1 296 -5.4638250730931759e-04</internalNodes>
          <leafValues>
            4.0525248646736145e-01 -3.2857638597488403e-01</leafValues></_>
        <_>
          <internalNodes>
            0 -1 187 1.6240213066339493e-02</internalNodes>
          <leafValues>
            1.6671659052371979e-01 -8.0328577756881714e-01</leafValues></_>
        <_>
          <internalNodes>
            0 -1 518 -8.3777599502354860e-04</internalNodes>
          <leafValues>
            4.2020472884178162e-01 -3.0206099152565002e-01</leafValues></_>
        <_>
          <internalNodes>
            0 -1 452 2.0286805927753448e-02</internalNodes>
          <leafValues>
            1.6365079581737518e-01 -6.5207862854003906e-01</leafValues></_>
        <_>
          <internalNodes>
            0 -1 227 -3.6740908399224281e-03</internalNodes>
          <leafValues>
            -8.7512052059173584e-01 1.0366467386484146e-01</leafValues></_></weakClassifiers></_>
    <!-- stage 1 -->
    <_>
      <maxWeakCount>18</maxWeakCount>
      <stageThreshold>-1.5173512697219849e+00</stageThreshold>
      <weakClassifiers>
        <_>
          <internalNodes>
            0 -1 346 8.7750109378248453e-04</internalNodes>
          <leafValues>
            -6.9351667165756226e-01 4.0054310113191605e-02</leafValues></_>
        <_>
          <internalNodes>
            0 -1 243 1.4064991846680641e-02</internalNodes>
          <leafValues>
            -3.7162861227989197e-01 3.8554412126541138e-01</leafValues></_>
        <_>
          <internalNodes>
            0 -1 265 6.5684365108609200e-04</internalNodes>
          <leafValues>
            -3.4139049053192139e-01 3.0730026960372925e-01</leafValues></_>
        <_>
          <internalNodes>
            0 -1 305 -8.4565905854105949e-03</internalNodes>
          <leafValues>
            -8.0172550678253174e-01 1.2540088593959808e-01</leafValues></_>
        <_>
          <internalNodes>
            0 -1 227 1.0700063779950142e-02</internalNodes>
          <leafValues>
            1.0729624330997467e-01 -9.0367573499679565e-01</leafValues></_>
        <_>
          <internalNodes>
            0 -1 170 -4.0405690670013428e-03</internalNodes>
          <leafValues>
            2.6246589422225952e-01 -3.8496521115303040e-01</leafValues></_>
        <_>
          <internalNodes>
            0 -1 536 1.4098003506660461e-02</internalNodes>
          <leafValues>
            -2.0353466272354126e-01 4.9528056383132935e-01</leafValues></_>
        <_>
          <internalNodes>
            0 -1 227 2.1767470752820373e-04</internalNodes>
          <leafValues>
            -4.4717884063720703e-01 2.1843802928924561e-01</leafValues></_>
        <_>
          <internalNodes>
            0 -1 451 2.2852793335914612e-02</internalNodes>
          <leafValues>
            9.1787554323673248e-02 -7.9271936416625977e-01</leafValues></_>
        <_>
          <internalNodes>
            0 -1 6 8.1100426614284515e-03</internalNodes>
          <leafValues>
            -2.5708371400833130e-01 2.8380230069160461e-01</leafValues></_>
        <_>
          <internalNodes>
            0 -1 267 6.5100835636258125e-03</internalNodes>
          <leafValues>
            8.1771641969680786e-02 -8.1119894981384277e-01</leafValues></_>
        <_>
          <internalNodes>
            0 -1 211 1.6497981268912554e-03</internalNodes>
          <leafValues>
            -2.0153494179248810e-01 3.4369105100631714e-01</leafValues></_>
        <_>
          <internalNodes>
            0 -1 397 -5.4755522869527340e-03</internalNodes>
          <leafValues>
            -6.6502100229263306e-01 1.0676369071006775e-01</leafValues></_>
        <_>
          <internalNodes>
            0 -1 441 2.2938789799809456e-02</internalNodes>
          <leafValues>
            -1.2864209711551666e-01 5.7649922370910645e-01</leafValues></_>
        <_>
          <internalNodes>
            0 -1 457 -3.9661908522248268e-03</internalNodes>
          <leafValues>
            3.5597771406173706e-01 -1.8280923366546631e-01</leafValues></_>
        <_>
          <internalNodes>
            0 -1 121 4.0743560530245304e-03</internalNodes>
          <leafValues>
            -1.6492857038974762e-01 3.6971297860145569e-01</leafValues></_>
        <_>
          <internalNodes>
            0 -1 45 3.3707579132169485e-03</internalNodes>
          <leafValues>
            -1.8093368411064148e-01 4.2279580235481262e-01</leafValues></_>
        <_>
          <internalNodes>
            0 -1 144 -8.0117769539356232e-04</internalNodes>
          <leafValues>
            2.8792628645896912e-01 -2.4474164843559265e-01</leafValues></_></weakClassifiers></_>
    <!-- stage 2 -->
    <_>
      <maxWeakCount>17</maxWeakCount>
      <stageThreshold>-1.3573269844055176e+00</stageThreshold>
      <weakClassifiers>
        <_>
          <internalNodes>
            0 -1 178 3.3757379278540611e-03</internalNodes>
          <leafValues>
            -5.9685862064361572e-01 1.2844036519527435e-01</leafValues></_>
        <_>
          <internalNodes>
            0 -1 225 1.9816905260086060e-03</internalNodes>
          <leafValues>
            -5.0094389915466309e-01 2.3016743361949921e-01</leafValues></_>
        <_>
          <internalNodes>
            0 -1 32 9.9830105900764465e-03</internalNodes>
          <leafValues>
            -2.2954270243644714e-01 4.3412920832633972e-01</leafValues></_>
        <_>
          <internalNodes>
            0 -1 513 2.0869009196758270e-02</internalNodes>
          <leafValues>
            -1.2801595032215118e-01 5.9103834629058838e-01</leafValues></_>
        <_>
          <internalNodes>
            0 -1 321 2.8881886973977089e-03</internalNodes>
          <leafValues>
            1.5063035488128662e-01 -5.8027046918869019e-01</leafValues></_>
        <_>
          <internalNodes>
            0 -1 74 1.1441216338425875e-03</internalNodes>
          <leafValues>
            -2.0167639851570129e-01 3.7053957581520081e-01</leafValues></_>
        <_>
          <internalNodes>
            0 -1 422 5.5282907560467720e-03</internalNodes>
          <leafValues>
            1.2569218873977661e-01 -6.0648816823959351e-01</leafValues></_>
        <_>
          <internalNodes>
            0 -1 136 -7.8136689262464643e-04</internalNodes>
          <leafValues>
            3.4570676088333130e-01 -1.9352769851684570e-01</leafValues></_>
        <_>
          <internalNodes>
            0 -1 529 -2.0496193319559097e-03</internalNodes>
          <leafValues>
            3.4456950426101685e-01 -1.8241050839424133e-01</leafValues></_>
        <_>
          <internalNodes>
            0 -1 423 -4.4892832636833191e-02</internalNodes>
          <leafValues>
            -8.0673491954803467e-01 1.0793460160493851e-01</leafValues></_>
        <_>
          <internalNodes>
            0 -1 334 2.8655525296926498e-02</internalNodes>
          <leafValues>
            -1.8415994942188263e-01 4.3858033418655396e-01</leafValues></_>
        <_>
          <internalNodes>
            0 -1 401 -1.0509001091122627e-02</internalNodes>
          <leafValues>
            -8.6481642723083496e-01 7.1335278451442719e-02</leafValues></_>
        <_>
          <internalNodes>
            0 -1 187 1.6132308170199394e-02</internalNodes>
          <leafValues>
            7.0296838879585266e-02 -7.7775901556015015e-01</leafValues></_>
        <_>
          <internalNodes>
            0 -1 435 1.4379469212144613e-03</internalNodes>
          <leafValues>
            -1.5610352158546448e-01 3.9945861697196960e-01</leafValues></_>
        <_>
          <internalNodes>
            0 -1 435 -1.4860556693747640e-03</internalNodes>
          <leafValues>
            3.8898065686225891e-01 -1.7143365740776062e-01</leafValues></_>
        <_>
          <internalNodes>
            0 -1 223 -3.0829953029751778e-03</internalNodes>
          <leafValues>
            -9.0204882621765137e-01 8.9490659534931183e-02</leafValues></_>
        <_>
          <internalNodes>
            0 -1 366 -3.5368770360946655e-02</internalNodes>
          <leafValues>
            -8.5605603456497192e-01 4.4985964894294739e-02</leafValues></_></weakClassifiers></_>
    <!-- stage 3 -->
    <_>
      <maxWeakCount>22</maxWeakCount>
      <stageThreshold>-1.4825452566146851e+00</stageThreshold>
      <weakClassifiers>
        <_>
          <internalNodes>
            0 -1 278 -1.5120445750653744e-02</internalNodes>
          <leafValues>
            2.6285713911056519e-01 -5.1478260755538940e-01</leafValues></_>
        <_>
          <internalNodes>
            0 -1 306 1.4600884169340134e-03</internalNodes>
          <leafValues>
            -4.8226833343505859e-01 1.9601023197174072e-01</leafValues></_>
        <_>
          <internalNodes>
            0 -1 48 4.0655646473169327e-02</internalNodes>
          <leafValues>
            1.2648527324199677e-01 -6.2052452564239502e-01</leafValues></_>
        <_>
          <internalNodes>
            0 -1 395 5.4446887224912643e-04</internalNodes>
          <leafValues>
            -2.7217844128608704e-01 3.0375507473945618e-01</leafValues></_>
        <_>
          <internalNodes>
            0 -1 174 -6.2751432415097952e-04</internalNodes>
          <leafValues>
            2.9001188278198242e-01 -2.6772511005401611e-01</leafValues></_>
        <_>
          <internalNodes>
            0 -1 246 -2.8292518109083176e-03</internalNodes>
          <leafValues>
            3.3474123477935791e-01 -2.3451842367649078e-01</leafValues></_>
        <_>
          <internalNodes>
            0 -1 299 1.8357150256633759e-03</internalNodes>
          <leafValues>
            1.2815830111503601e-01 -5.0004941225051880e-01</leafValues></_>
        <_>
          <internalNodes>
            0 -1 534 4.1419193148612976e-03</internalNodes>
          <leafValues>
            -1.5048423409461975e-01 4.5839810371398926e-01</leafValues></_>
        <_>
          <internalNodes>
            0 -1 426 -1.3924930244684219e-02</internalNodes>
          <leafValues>
            -6.2176436185836792e-01 1.1588166654109955e-01</leafValues></_>
        <_>
          <internalNodes>
            0 -1 160 1.4814733294770122e-03</internalNodes>
          <leafValues>
            -2.0359198749065399e-01 3.2835957407951355e-01</leafValues></_>
        <_>
          <internalNodes>
            0 -1 472 -1.0900955647230148e-02</internalNodes>
          <leafValues>
            3.5930237174034119e-01 -1.8531800806522369e-01</leafValues></_>
        <_>
          <internalNodes>
            0 -1 379 -4.9106758087873459e-03</internalNodes>
          <leafValues>
            3.7754881381988525e-01 -1.8068304657936096e-01</leafValues></_>
        <_>
          <internalNodes>
            0 -1 125 5.4875072091817856e-03</internalNodes>
          <leafValues>
            -1.1793240904808044e-01 5.4112201929092407e-01</leafValues></_>
        <_>
          <internalNodes>
            0 -1 217 3.3367581665515900e-02</internalNodes>
          <leafValues>
            8.0435156822204590e-02 -8.0071091651916504e-01</leafValues></_>
        <_>
          <internalNodes>
            0 -1 254 3.8374744355678558e-02</internalNodes>
          <leafValues>
            4.4053364545106888e-02 -8.7586468458175659e-01</leafValues></_>
        <_>
          <internalNodes>
            0 -1 439 -1.0446300730109215e-02</internalNodes>
          <leafValues>
            3.1361508369445801e-01 -1.7750887572765350e-01</leafValues></_>
        <_>
          <internalNodes>
            0 -1 298 -1.1102252174168825e-03</internalNodes>
          <leafValues>
            2.5011256337165833e-01 -2.2215229272842407e-01</leafValues></_>
        <_>
          <internalNodes>
            0 -1 300 -8.6515825241804123e-03</internalNodes>
          <leafValues>
            -6.8133926391601562e-01 9.7352020442485809e-02</leafValues></_>
        <_>
          <internalNodes>
            0 -1 517 4.0132189169526100e-03</internalNodes>
          <leafValues>
            -1.4660240709781647e-01 3.7539148330688477e-01</leafValues></_>
        <_>
          <internalNodes>
            0 -1 63 5.9933710843324661e-02</internalNodes>
          <leafValues>
            -7.5042940676212311e-02 6.2957102060317993e-01</leafValues></_>
        <_>
          <internalNodes>
            0 -1 27 2.2275032475590706e-02</internalNodes>
          <leafValues>
            -1.3728678226470947e-01 3.8539314270019531e-01</leafValues></_>
        <_>
          <internalNodes>
            0 -1 141 1.6560666263103485e-02</internalNodes>
          <leafValues>
            -1.0176288336515427e-01 5.3741294145584106e-01</leafValues></_></weakClassifiers></_>
    <!-- stage 4 -->
    <_>
      <maxWeakCount>24</maxWeakCount>
      <stageThreshold>-1.3547556400299072e+00</stageThreshold>
      <weakClassifiers>
        <_>
          <internalNodes>
            0 -1 309 3.9121578447520733e-03</internalNodes>
          <leafValues>
            -6.4882224798202515e-01 -5.6910570710897446e-02</leafValues></_>
        <_>
          <internalNodes>
            0 -1 192 1.7737390473484993e-02</internalNodes>
          <leafValues>
            -2.7677568793296814e-01 2.8637051582336426e-01</leafValues></_>
        <_>
          <internalNodes>
            0 -1 226 9.4027549494057894e-04</internalNodes>
          <leafValues>
            -4.2428538203239441e-01 1.5393948554992676e-01</leafValues></_>
        <_>
          <internalNodes>
            0 -1 471 1.8577796872705221e-03</internalNodes>
          <leafValues>
            -1.8836650252342224e-01 3.1974253058433533e-01</leafValues></_>
        <_>
          <internalNodes>
            0 -1 223 8.3668921142816544e-03</internalNodes>
          <leafValues>
            1.1109439283609390e-01 -6.8498909473419189e-01</leafValues></_>
        <_>
          <internalNodes>
            0 -1 52 -8.9085788931697607e-04</internalNodes>
          <leafValues>
            2.8260496258735657e-01 -2.1837233006954193e-01</leafValues></_>
        <_>
          <internalNodes>
            0 -1 13 6.1050360091030598e-03</internalNodes>
          <leafValues>
            -1.9434040784835815e-01 2.5222626328468323e-01</leafValues></_>
        <_>
          <internalNodes>
            0 -1 467 1.8714672187343240e-03</internalNodes>
          <leafValues>
            -2.1861930191516876e-01 2.3248775303363800e-01</leafValues></_>
        <_>
          <internalNodes>
            0 -1 460 1.7497088760137558e-02</internalNodes>
          <leafValues>
            9.7934231162071228e-02 -7.3356473445892334e-01</leafValues></_>
        <_>
          <internalNodes>
            0 -1 350 -9.8347906023263931e-03</internalNodes>
          <leafValues>
            -8.6517196893692017e-01 3.9977472275495529e-02</leafValues></_>
        <_>
          <internalNodes>
            0 -1 458 -4.8673304263502359e-04</internalNodes>
          <leafValues>
            2.2066468000411987e-01 -2.1388670802116394e-01</leafValues></_>
        <_>
          <internalNodes>
            0 -1 391 -1.7700694501399994e-02</internalNodes>
          <leafValues>
            -9.0013432502746582e-01 4.9921274185180664e-02</leafValues></_>
        <_>
          <internalNodes>
            0 -1 415 2.6603201404213905e-02</internalNodes>
          <leafValues>
            -9.9241934716701508e-02 5.1911348104476929e-01</leafValues></_>
        <_>
          <internalNodes>
            0 -1 519 -4.1866200044751167e-03</internalNodes>
          <leafValues>
            3.8165163993835449e-01 -1.1727353930473328e-01</leafValues></_>
        <_>
          <internalNodes>
            0 -1 210 -2.6277354918420315e-03</internalNodes>
          <leafValues>
            3.1774431467056274e-01 -1.4046327769756317e-01</leafValues></_>
        <_>
          <internalNodes>
            0 -1 274 2.8163883835077286e-03</internalNodes>
          <leafValues>
            -1.7244513332843781e-01 2.7110776305198669e-01</leafValues></_>
        <_>
          <internalNodes>
            0 -1 325 -5.5554602295160294e-03</internalNodes>
          <leafValues>
            3.1702840328216553e-01 -1.4001724123954773e-01</leafValues></_>
        <_>
          <internalNodes>
            0 -1 365 -2.3947732523083687e-02</internalNodes>
          <leafValues>
            -6.9645416736602783e-01 6.3695549964904785e-02</leafValues></_>
        <_>
          <internalNodes>
            0 -1 270 1.6287988051772118e-02</internalNodes>
          <leafValues>
            5.5229175835847855e-02 -7.0019626617431641e-01</leafValues></_>
        <_>
          <internalNodes>
            0 -1 227 -3.9776759222149849e-03</internalNodes>
          <leafValues>
            -7.9524391889572144e-01 4.1424479335546494e-02</leafValues></_>
        <_>
          <internalNodes>
            0 -1 328 1.2585269287228584e-03</internalNodes>
          <leafValues>
            -1.6014954447746277e-01 2.5744983553886414e-01</leafValues></_>
        <_>
          <internalNodes>
            0 -1 173 -1.2140965554863214e-03</internalNodes>
          <leafValues>
            2.6466464996337891e-01 -1.5589788556098938e-01</leafValues></_>
        <_>
          <internalNodes>
            0 -1 81 -2.8283935040235519e-02</internalNodes>
          <leafValues>
            2.4057088792324066e-01 -1.8015643954277039e-01</leafValues></_>
        <_>
          <internalNodes>
            0 -1 189 9.1464281082153320e-02</internalNodes>
          <leafValues>
            8.2532845437526703e-02 -6.6123300790786743e-01</leafValues></_></weakClassifiers></_>
    <!-- stage 5 -->
    <_>
      <maxWeakCount>34</maxWeakCount>
      <stageThreshold>-1.4784168004989624e+00</stageThreshold>
      <weakClassifiers>
        <_>
          <internalNodes>
            0 -1 98 -1.0589060373604298e-02</internalNodes>
          <leafValues>
            1.6305916011333466e-01 -4.8244473338127136e-01</leafValues></_>
        <_>
          <internalNodes>
            0 -1 248 -8.9668035507202148e-03</internalNodes>
          <leafValues>
            2.8346785902976990e-01 -2.0526771247386932e-01</leafValues></_>
        <_>
          <internalNodes>
            0 -1 298 -7.3015398811548948e-04</internalNodes>
          <leafValues>
            2.1502031385898590e-01 -2.6774537563323975e-01</leafValues></_>
        <_>
          <internalNodes>
            0 -1 233 1.9631893374025822e-03</internalNodes>
          <leafValues>
            -2.7518135309219360e-01 2.1001058816909790e-01</leafValues></_>
        <_>
          <internalNodes>
            0 -1 359 7.4613122269511223e-03</internalNodes>
          <leafValues>
            1.0851124674081802e-01 -7.1877187490463257e-01</leafValues></_>
        <_>
          <internalNodes>
            0 -1 351 4.7437538160011172e-04</internalNodes>
          <leafValues>
            -4.2076221108436584e-01 9.1105811297893524e-02</leafValues></_>
        <_>
          <internalNodes>
            0 -1 346 4.7932472079992294e-03</internalNodes>
          <leafValues>
            8.1791527569293976e-02 -6.6416925191879272e-01</leafValues></_>
        <_>
          <internalNodes>
            0 -1 191 9.4238519668579102e-03</internalNodes>
          <leafValues>
            -1.2431922554969788e-01 3.8730314373970032e-01</leafValues></_>
        <_>
          <internalNodes>
            0 -1 326 4.6773985959589481e-03</internalNodes>
          <leafValues>
            -1.7407375574111938e-01 3.6303278803825378e-01</leafValues></_>
        <_>
          <internalNodes>
            0 -1 180 2.7440341189503670e-02</internalNodes>
          <leafValues>
            2.6884298771619797e-02 -9.3071663379669189e-01</leafValues></_>
        <_>
          <internalNodes>
            0 -1 230 1.4585409313440323e-02</internalNodes>
          <leafValues>
            3.8383822888135910e-02 -8.6180239915847778e-01</leafValues></_>
        <_>
          <internalNodes>
            0 -1 527 1.4173373579978943e-02</internalNodes>
          <leafValues>
            -1.6253402829170227e-01 2.9188036918640137e-01</leafValues></_>
        <_>
          <internalNodes>
            0 -1 487 -1.2010750360786915e-03</internalNodes>
          <leafValues>
            2.8928515315055847e-01 -1.3351693749427795e-01</leafValues></_>
        <_>
          <internalNodes>
            0 -1 183 -1.1872254544869065e-03</internalNodes>
          <leafValues>
            2.0598477125167847e-01 -1.9513538479804993e-01</leafValues></_>
        <_>
          <internalNodes>
            0 -1 360 -2.0438300445675850e-02</internalNodes>
          <leafValues>
            -6.3065427541732788e-01 6.8369790911674500e-02</leafValues></_>
        <_>
          <internalNodes>
            0 -1 158 4.5780856162309647e-03</internalNodes>
          <leafValues>
            -3.0474230647087097e-01 1.5342876315116882e-01</leafValues></_>
        <_>
          <internalNodes>
            0 -1 205 9.7668841481208801e-03</internalNodes>
          <leafValues>
            8.5420064628124237e-02 -4.0517279505729675e-01</leafValues></_>
        <_>
          <internalNodes>
            0 -1 291 2.5874793063849211e-03</internalNodes>
          <leafValues>
            -1.5520535409450531e-01 2.6994696259498596e-01</leafValues></_>
        <_>
          <internalNodes>
            0 -1 266 9.3077011406421661e-03</internalNodes>
          <leafValues>
            5.9588048607110977e-02 -7.6099163293838501e-01</leafValues></_>
        <_>
          <internalNodes>
            0 -1 11 -3.9231393486261368e-02</internalNodes>
          <leafValues>
            4.1140082478523254e-01 -1.0091365873813629e-01</leafValues></_>
        <_>
          <internalNodes>
            0 -1 265 1.0049343109130859e-03</internalNodes>
          <leafValues>
            -1.8866321444511414e-01 2.1598200500011444e-01</leafValues></_>
        <_>
          <internalNodes>
            0 -1 104 1.7401119694113731e-02</internalNodes>
          <leafValues>
            -1.1048127710819244e-01 3.7740483880043030e-01</leafValues></_>
        <_>
          <internalNodes>
            0 -1 103 -9.3872658908367157e-03</internalNodes>
          <leafValues>
            3.7131315469741821e-01 -1.3123102486133575e-01</leafValues></_>
        <_>
          <internalNodes>
            0 -1 479 2.0804716274142265e-02</internalNodes>
          <leafValues>
            -8.9936740696430206e-02 4.5627713203430176e-01</leafValues></_>
        <_>
          <internalNodes>
            0 -1 16 -4.0189258754253387e-02</internalNodes>
          <leafValues>
            2.6080721616744995e-01 -1.7241007089614868e-01</leafValues></_>
        <_>
          <internalNodes>
            0 -1 403 -1.8547452986240387e-02</internalNodes>
          <leafValues>
            -6.9596439599990845e-01 5.6607630103826523e-02</leafValues></_>
        <_>
          <internalNodes>
            0 -1 262 1.6050279140472412e-02</internalNodes>
          <leafValues>
            5.3993601351976395e-02 -5.4528981447219849e-01</leafValues></_>
        <_>
          <internalNodes>
            0 -1 421 1.2713924515992403e-03</internalNodes>
          <leafValues>
            -1.5322151780128479e-01 2.3535792529582977e-01</leafValues></_>
        <_>
          <internalNodes>
            0 -1 503 6.2223104760050774e-03</internalNodes>
          <leafValues>
            -1.0539308190345764e-01 3.7701073288917542e-01</leafValues></_>
        <_>
          <internalNodes>
            0 -1 341 4.1281796991825104e-02</internalNodes>
          <leafValues>
            6.9827958941459656e-02 -5.8083242177963257e-01</leafValues></_>
        <_>
          <internalNodes>
            0 -1 394 1.3225177535787225e-03</internalNodes>
          <leafValues>
            -1.7989073693752289e-01 1.9897532463073730e-01</leafValues></_>
        <_>
          <internalNodes>
            0 -1 514 -7.3231910355389118e-03</internalNodes>
          <leafValues>
            2.9447618126869202e-01 -1.2115790694952011e-01</leafValues></_>
        <_>
          <internalNodes>
            0 -1 218 1.0411131381988525e-01</internalNodes>
          <leafValues>
            3.7850573658943176e-02 -9.1084158420562744e-01</leafValues></_>
        <_>
          <internalNodes>
            0 -1 145 6.6133695654571056e-03</internalNodes>
          <leafValues>
            3.9667550474405289e-02 -7.3024696111679077e-01</leafValues></_></weakClassifiers></_>
    <!-- stage 6 -->
    <_>
      <maxWeakCount>37</maxWeakCount>
      <stageThreshold>-1.3850440979003906e+00</stageThreshold>
      <weakClassifiers>
        <_>
          <internalNodes>
            0 -1 127 8.9946649968624115e-03</internalNodes>
          <leafValues>
            -4.6396201848983765e-01 1.0980966687202454e-01</leafValues></_>
        <_>
          <internalNodes>
            0 -1 388 2.7233196306042373e-04</internalNodes>
          <leafValues>
            -2.9782590270042419e-01 1.7621842026710510e-01</leafValues></_>
        <_>
          <internalNodes>
            0 -1 206 1.0135143995285034e-02</internalNodes>
          <leafValues>
            1.0770085453987122e-01 -4.4726711511611938e-01</leafValues></_>
        <_>
          <internalNodes>
            0 -1 348 -9.8368953331373632e-05</internalNodes>
          <leafValues>
            1.5789818763732910e-01 -3.5215422511100769e-01</leafValues></_>
        <_>
          <internalNodes>
            0 -1 416 1.2198991142213345e-02</internalNodes>
          <leafValues>
            -1.0408582538366318e-01 4.1852769255638123e-01</leafValues></_>
        <_>
          <internalNodes>
            0 -1 330 9.0761668980121613e-03</internalNodes>
          <leafValues>
            -1.9408769905567169e-01 2.1692153811454773e-01</leafValues></_>
        <_>
          <internalNodes>
            0 -1 336 -1.8153114244341850e-02</internalNodes>
          <leafValues>
            2.9859107732772827e-01 -1.5419414639472961e-01</leafValues></_>
        <_>
          <internalNodes>
            0 -1 59 -7.5225351611152291e-04</internalNodes>
          <leafValues>
            2.4117293953895569e-01 -1.7271217703819275e-01</leafValues></_>
        <_>
          <internalNodes>
            0 -1 264 -4.0186205878853798e-03</internalNodes>
          <leafValues>
            -6.7274421453475952e-01 4.9679078161716461e-02</leafValues></_>
        <_>
          <internalNodes>
            0 -1 531 2.4934984743595123e-02</internalNodes>
          <leafValues>
            -9.5700696110725403e-02 4.0873679518699646e-01</leafValues></_>
        <_>
          <internalNodes>
            0 -1 402 1.4816144481301308e-02</internalNodes>
          <leafValues>
            8.9202836155891418e-02 -4.6719738841056824e-01</leafValues></_>
        <_>
          <internalNodes>
            0 -1 134 1.1803619563579559e-03</internalNodes>
          <leafValues>
            -1.4416775107383728e-01 2.5568184256553650e-01</leafValues></_>
        <_>
          <internalNodes>
            0 -1 247 -2.6639630086719990e-03</internalNodes>
          <leafValues>
            2.9686814546585083e-01 -1.3086803257465363e-01</leafValues></_>
        <_>
          <internalNodes>
            0 -1 464 7.8512262552976608e-03</internalNodes>
          <leafValues>
            3.5254754126071930e-02 -8.2687342166900635e-01</leafValues></_>
        <_>
          <internalNodes>
            0 -1 511 7.2307726368308067e-03</internalNodes>
          <leafValues>
            -1.1810273677110672e-01 3.2683351635932922e-01</leafValues></_>
        <_>
          <internalNodes>
            0 -1 517 -2.2829303052276373e-03</internalNodes>
          <leafValues>
            3.1136173009872437e-01 -1.1796518415212631e-01</leafValues></_>
        <_>
          <internalNodes>
            0 -1 424 -1.4821341261267662e-02</internalNodes>
          <leafValues>
            -6.9940227270126343e-01 5.3274385631084442e-02</leafValues></_>
        <_>
          <internalNodes>
            0 -1 271 9.6952002495527267e-03</internalNodes>
          <leafValues>
            3.5378664731979370e-02 -8.5221356153488159e-01</leafValues></_>
        <_>
          <internalNodes>
            0 -1 19 1.5766594558954239e-02</internalNodes>
          <leafValues>
            -1.3892188668251038e-01 2.6050341129302979e-01</leafValues></_>
        <_>
          <internalNodes>
            0 -1 71 5.5366963148117065e-02</internalNodes>
          <leafValues>
            3.8890928030014038e-02 -8.2148176431655884e-01</leafValues></_>
        <_>
          <internalNodes>
            0 -1 166 7.5671765953302383e-03</internalNodes>
          <leafValues>
            -1.5252910554409027e-01 2.2306908667087555e-01</leafValues></_>
        <_>
          <internalNodes>
            0 -1 443 4.7940094023942947e-02</internalNodes>
          <leafValues>
            -1.1999540030956268e-01 2.9314664006233215e-01</leafValues></_>
        <_>
          <internalNodes>
            0 -1 204 -1.8204939551651478e-03</internalNodes>
          <leafValues>
            2.8938356041908264e-01 -1.2624381482601166e-01</leafValues></_>
        <_>
          <internalNodes>
            0 -1 171 1.7600063234567642e-02</internalNodes>
          <leafValues>
            -6.4336843788623810e-02 5.2511578798294067e-01</leafValues></_>
        <_>
          <internalNodes>
            0 -1 427 4.5896349474787712e-03</internalNodes>
          <leafValues>
            8.3388186991214752e-02 -4.4503408670425415e-01</leafValues></_>
        <_>
          <internalNodes>
            0 -1 294 7.7884010970592499e-03</internalNodes>
          <leafValues>
            -1.6036172211170197e-01 2.3169906437397003e-01</leafValues></_>
        <_>
          <internalNodes>
            0 -1 177 -1.5751776518300176e-03</internalNodes>
          <leafValues>
            2.0630259811878204e-01 -1.9078955054283142e-01</leafValues></_>
        <_>
          <internalNodes>
            0 -1 186 1.2733780778944492e-02</internalNodes>
          <leafValues>
            5.7296082377433777e-02 -5.6578683853149414e-01</leafValues></_>
        <_>
          <internalNodes>
            0 -1 265 6.5528973937034607e-04</internalNodes>
          <leafValues>
            -2.2348882257938385e-01 1.5981441736221313e-01</leafValues></_>
        <_>
          <internalNodes>
            0 -1 148 2.0341463387012482e-02</internalNodes>
          <leafValues>
            -6.9624722003936768e-02 4.8459273576736450e-01</leafValues></_>
        <_>
          <internalNodes>
            0 -1 164 -5.3116437047719955e-03</internalNodes>
          <leafValues>
            2.8753316402435303e-01 -1.2411051243543625e-01</leafValues></_>
        <_>
          <internalNodes>
            0 -1 73 1.0821527242660522e-01</internalNodes>
          <leafValues>
            4.4492326676845551e-02 -7.8938961029052734e-01</leafValues></_>
        <_>
          <internalNodes>
            0 -1 187 -6.3741253688931465e-03</internalNodes>
          <leafValues>
            -4.4253215193748474e-01 6.7075639963150024e-02</leafValues></_>
        <_>
          <internalNodes>
            0 -1 392 -5.1148552447557449e-03</internalNodes>
          <leafValues>
            2.3925960063934326e-01 -1.3285465538501740e-01</leafValues></_>
        <_>
          <internalNodes>
            0 -1 376 -2.8440605849027634e-02</internalNodes>
          <leafValues>
            2.3714032769203186e-01 -1.4220565557479858e-01</leafValues></_>
        <_>
          <internalNodes>
            0 -1 445 1.2465938925743103e-02</internalNodes>
          <leafValues>
            -9.6136696636676788e-02 3.3617153763771057e-01</leafValues></_>
        <_>
          <internalNodes>
            0 -1 456 6.8067549727857113e-03</internalNodes>
          <leafValues>
            9.1918818652629852e-02 -3.5324653983116150e-01</leafValues></_></weakClassifiers></_>
    <!-- stage 7 -->
    <_>
      <maxWeakCount>37</maxWeakCount>
      <stageThreshold>-1.3325423002243042e+00</stageThreshold>
      <weakClassifiers>
        <_>
          <internalNodes>
            0 -1 239 1.9230503588914871e-02</internalNodes>
          <leafValues>
            -4.4156363606452942e-01 2.1703854203224182e-01</leafValues></_>
        <_>
          <internalNodes>
            0 -1 354 1.6265304293483496e-03</internalNodes>
          <leafValues>
            -3.4607461094856262e-01 1.2350351363420486e-01</leafValues></_>
        <_>
          <internalNodes>
            0 -1 124 1.8421690911054611e-02</internalNodes>
          <leafValues>
            -1.1792597919702530e-01 3.5923489928245544e-01</leafValues></_>
        <_>
          <internalNodes>
            0 -1 450 -2.8837995603680611e-02</internalNodes>
          <leafValues>
            -6.0080248117446899e-01 6.0617767274379730e-02</leafValues></_>
        <_>
          <internalNodes>
            0 -1 384 -5.4767220281064510e-03</internalNodes>
          <leafValues>
            2.6263207197189331e-01 -1.5931831300258636e-01</leafValues></_>
        <_>
          <internalNodes>
            0 -1 174 -6.2822428299114108e-04</internalNodes>
          <leafValues>
            1.4229512214660645e-01 -2.3404936492443085e-01</leafValues></_>
        <_>
          <internalNodes>
            0 -1 520 1.7164740711450577e-02</internalNodes>
          <leafValues>
            -7.1358047425746918e-02 3.4989571571350098e-01</leafValues></_>
        <_>
          <internalNodes>
            0 -1 227 9.1001996770501137e-03</internalNodes>
          <leafValues>
            4.0586531162261963e-02 -5.8818197250366211e-01</leafValues></_>
        <_>
          <internalNodes>
            0 -1 318 3.4278025850653648e-05</internalNodes>
          <leafValues>
            -2.3119200766086578e-01 1.5570144355297089e-01</leafValues></_>
        <_>
          <internalNodes>
            0 -1 375 -6.7226565442979336e-04</internalNodes>
          <leafValues>
            2.2250325977802277e-01 -1.5680980682373047e-01</leafValues></_>
        <_>
          <internalNodes>
            0 -1 333 3.7540211342275143e-03</internalNodes>
          <leafValues>
            -1.4987538754940033e-01 3.2047903537750244e-01</leafValues></_>
        <_>
          <internalNodes>
            0 -1 349 -2.6325574144721031e-03</internalNodes>
          <leafValues>
            -5.4216390848159790e-01 6.5259359776973724e-02</leafValues></_>
        <_>
          <internalNodes>
            0 -1 395 1.1115742381662130e-03</internalNodes>
          <leafValues>
            -1.7360278964042664e-01 2.0510756969451904e-01</leafValues></_>
        <_>
          <internalNodes>
            0 -1 395 6.5288697369396687e-03</internalNodes>
          <leafValues>
            4.2438060045242310e-02 -7.6307922601699829e-01</leafValues></_>
        <_>
          <internalNodes>
            0 -1 465 5.0277533009648323e-03</internalNodes>
          <leafValues>
            7.2868615388870239e-02 -4.0102940797805786e-01</leafValues></_>
        <_>
          <internalNodes>
            0 -1 200 2.0303918048739433e-02</internalNodes>
          <leafValues>
            -1.1418696492910385e-01 2.8126913309097290e-01</leafValues></_>
        <_>
          <internalNodes>
            0 -1 504 1.2950262054800987e-02</internalNodes>
          <leafValues>
            -9.3790769577026367e-02 3.5609999299049377e-01</leafValues></_>
        <_>
          <internalNodes>
            0 -1 530 -3.5598049871623516e-03</internalNodes>
          <leafValues>
            2.2695407271385193e-01 -1.4437501132488251e-01</leafValues></_>
        <_>
          <internalNodes>
            0 -1 49 2.2141465917229652e-02</internalNodes>
          <leafValues>
            -9.8711788654327393e-02 3.3531001210212708e-01</leafValues></_>
        <_>
          <internalNodes>
            0 -1 183 -9.2691625468432903e-04</internalNodes>
          <leafValues>
            1.7260180413722992e-01 -1.8005441129207611e-01</leafValues></_>
        <_>
          <internalNodes>
            0 -1 29 -3.6584593355655670e-02</internalNodes>
          <leafValues>
            -8.2949727773666382e-01 3.8992557674646378e-02</leafValues></_>
        <_>
          <internalNodes>
            0 -1 256 -9.2453248798847198e-03</internalNodes>
          <leafValues>
            -8.2656627893447876e-01 3.1319931149482727e-02</leafValues></_>
        <_>
          <internalNodes>
            0 -1 346 2.3215214605443180e-04</internalNodes>
          <leafValues>
            -3.1866303086280823e-01 8.9389614760875702e-02</leafValues></_>
        <_>
          <internalNodes>
            0 -1 296 -5.7197166606783867e-03</internalNodes>
          <leafValues>
            -7.0156484842300415e-01 4.7065839171409607e-02</leafValues></_>
        <_>
          <internalNodes>
            0 -1 190 4.8262886703014374e-03</internalNodes>
          <leafValues>
            -1.1202222108840942e-01 3.0866315960884094e-01</leafValues></_>
        <_>
          <internalNodes>
            0 -1 138 4.6196337789297104e-03</internalNodes>
          <leafValues>
            -1.5804897248744965e-01 2.7136740088462830e-01</leafValues></_>
        <_>
          <internalNodes>
            0 -1 315 -1.9581262022256851e-02</internalNodes>
          <leafValues>
            -4.9617698788642883e-01 6.8469308316707611e-02</leafValues></_>
        <_>
          <internalNodes>
            0 -1 214 -4.7517484053969383e-03</internalNodes>
          <leafValues>
            2.5032061338424683e-01 -1.6292323172092438e-01</leafValues></_>
        <_>
          <internalNodes>
            0 -1 413 -5.9218541719019413e-04</internalNodes>
          <leafValues>
            2.1792632341384888e-01 -1.4802642166614532e-01</leafValues></_>
        <_>
          <internalNodes>
            0 -1 208 4.5894049108028412e-02</internalNodes>
          <leafValues>
            5.9611257165670395e-02 -4.9425393342971802e-01</leafValues></_>
        <_>
          <internalNodes>
            0 -1 425 1.2163999490439892e-02</internalNodes>
          <leafValues>
            3.3756699413061142e-02 -7.6428765058517456e-01</leafValues></_>
        <_>
          <internalNodes>
            0 -1 89 -2.0355186425149441e-03</internalNodes>
          <leafValues>
            2.2745691239833832e-01 -1.4240671694278717e-01</leafValues></_>
        <_>
          <internalNodes>
            0 -1 68 -1.3464394956827164e-02</internalNodes>
          <leafValues>
            3.2724848389625549e-01 -1.1344367265701294e-01</leafValues></_>
        <_>
          <internalNodes>
            0 -1 406 1.6163922846317291e-03</internalNodes>
          <leafValues>
            1.3795836269855499e-01 -2.5859224796295166e-01</leafValues></_>
        <_>
          <internalNodes>
            0 -1 462 -6.1629200354218483e-04</internalNodes>
          <leafValues>
            2.0078703761100769e-01 -1.7381031811237335e-01</leafValues></_>
        <_>
          <internalNodes>
            0 -1 459 -6.7196404561400414e-03</internalNodes>
          <leafValues>
            -4.9894472956657410e-01 6.9274708628654480e-02</leafValues></_>
        <_>
          <internalNodes>
            0 -1 122 -1.4370945282280445e-02</internalNodes>
          <leafValues>
            -4.0014478564262390e-01 7.7993206679821014e-02</leafValues></_></weakClassifiers></_>
    <!-- stage 8 -->
    <_>
      <maxWeakCount>31</maxWeakCount>
      <stageThreshold>-1.1845084428787231e+00</stageThreshold>
      <weakClassifiers>
        <_>
          <internalNodes>
            0 -1 261 1.1071452870965004e-02</internalNodes>
          <leafValues>
            -4.5425742864608765e-01 3.0947369337081909e-01</leafValues></_>
        <_>
          <internalNodes>
            0 -1 105 2.9980607330799103e-02</internalNodes>
          <leafValues>
            -1.6779309511184692e-01 3.5598120093345642e-01</leafValues></_>
        <_>
          <internalNodes>
            0 -1 60 -1.5764007344841957e-02</internalNodes>
          <leafValues>
            3.5628116130828857e-01 -1.6374269127845764e-01</leafValues></_>
        <_>
          <internalNodes>
            0 -1 227 -1.0648029856383801e-03</internalNodes>
          <leafValues>
            -4.8928347229957581e-01 1.1922909319400787e-01</leafValues></_>
        <_>
          <internalNodes>
            0 -1 303 9.8145678639411926e-03</internalNodes>
          <leafValues>
            1.0599070042371750e-01 -6.0157436132431030e-01</leafValues></_>
        <_>
          <internalNodes>
            0 -1 352 3.2313759438693523e-03</internalNodes>
          <leafValues>
            -1.9561830163002014e-01 2.0693901181221008e-01</leafValues></_>
        <_>
          <internalNodes>
            0 -1 408 -3.4170283470302820e-03</internalNodes>
          <leafValues>
            2.6546090841293335e-01 -1.3107460737228394e-01</leafValues></_>
        <_>
          <internalNodes>
            0 -1 517 5.1152203232049942e-03</internalNodes>
          <leafValues>
            -1.1063683032989502e-01 3.1916919350624084e-01</leafValues></_>
        <_>
          <internalNodes>
            0 -1 268 2.4601435288786888e-03</internalNodes>
          <leafValues>
            8.2230061292648315e-02 -4.2441102862358093e-01</leafValues></_>
        <_>
          <internalNodes>
            0 -1 270 1.1735663749277592e-02</internalNodes>
          <leafValues>
            7.3008075356483459e-02 -4.4976884126663208e-01</leafValues></_>
        <_>
          <internalNodes>
            0 -1 507 -1.2920089066028595e-02</internalNodes>
          <leafValues>
            3.7568804621696472e-01 -7.8575193881988525e-02</leafValues></_>
        <_>
          <internalNodes>
            0 -1 442 1.7621219158172607e-02</internalNodes>
          <leafValues>
            -8.3304427564144135e-02 4.0580666065216064e-01</leafValues></_>
        <_>
          <internalNodes>
            0 -1 340 1.8936274573206902e-03</internalNodes>
          <leafValues>
            -1.5714067220687866e-01 2.1248592436313629e-01</leafValues></_>
        <_>
          <internalNodes>
            0 -1 184 -1.9411906832829118e-03</internalNodes>
          <leafValues>
            1.7667095363140106e-01 -1.7440107464790344e-01</leafValues></_>
        <_>
          <internalNodes>
            0 -1 137 9.5748715102672577e-03</internalNodes>
          <leafValues>
            -9.5294304192066193e-02 3.3153912425041199e-01</leafValues></_>
        <_>
          <internalNodes>
            0 -1 310 -4.2947329580783844e-02</internalNodes>
          <leafValues>
            -5.2285921573638916e-01 5.4455839097499847e-02</leafValues></_>
        <_>
          <internalNodes>
            0 -1 281 3.8385060615837574e-03</internalNodes>
          <leafValues>
            -1.8666896224021912e-01 1.7179535329341888e-01</leafValues></_>
        <_>
          <internalNodes>
            0 -1 237 8.1925047561526299e-03</internalNodes>
          <leafValues>
            -1.3847099244594574e-01 3.3095127344131470e-01</leafValues></_>
        <_>
          <internalNodes>
            0 -1 72 2.6058250665664673e-01</internalNodes>
          <leafValues>
            5.3022395819425583e-02 -7.9477024078369141e-01</leafValues></_>
        <_>
          <internalNodes>
            0 -1 107 7.2596035897731781e-03</internalNodes>
          <leafValues>
            3.3451788127422333e-02 -7.2283685207366943e-01</leafValues></_>
        <_>
          <internalNodes>
            0 -1 26 -1.1852252064272761e-03</internalNodes>
          <leafValues>
            1.7507211863994598e-01 -1.6527736186981201e-01</leafValues></_>
        <_>
          <internalNodes>
            0 -1 144 -2.2717415413353592e-04</internalNodes>
          <leafValues>
            1.4659830927848816e-01 -2.1187563240528107e-01</leafValues></_>
        <_>
          <internalNodes>
            0 -1 224 -9.5418952405452728e-03</internalNodes>
          <leafValues>
            -8.9018815755844116e-01 3.0252262949943542e-02</leafValues></_>
        <_>
          <internalNodes>
            0 -1 35 5.9371121227741241e-02</internalNodes>
          <leafValues>
            -1.0409256815910339e-01 2.9792073369026184e-01</leafValues></_>
        <_>
          <internalNodes>
            0 -1 205 -7.1304310113191605e-03</internalNodes>
          <leafValues>
            -4.2774477601051331e-01 6.8657569587230682e-02</leafValues></_>
        <_>
          <internalNodes>
            0 -1 238 -1.0458204895257950e-02</internalNodes>
          <leafValues>
            3.3124437928199768e-01 -1.0282125324010849e-01</leafValues></_>
        <_>
          <internalNodes>
            0 -1 466 1.9135612528771162e-03</internalNodes>
          <leafValues>
            -2.1631050109863281e-01 1.7064540088176727e-01</leafValues></_>
        <_>
          <internalNodes>
            0 -1 409 -9.1983340680599213e-03</internalNodes>
          <leafValues>
            5.8270627260208130e-01 -5.8560054749250412e-02</leafValues></_>
        <_>
          <internalNodes>
            0 -1 405 7.7160978689789772e-03</internalNodes>
          <leafValues>
            5.2539370954036713e-02 -6.2568700313568115e-01</leafValues></_>
        <_>
          <internalNodes>
            0 -1 106 -3.1354068778455257e-03</internalNodes>
          <leafValues>
            -3.0661827325820923e-01 7.9317681491374969e-02</leafValues></_>
        <_>
          <internalNodes>
            0 -1 535 1.8416900187730789e-02</internalNodes>
          <leafValues>
            -1.1827903985977173e-01 2.3371535539627075e-01</leafValues></_></weakClassifiers></_>
    <!-- stage 9 -->
    <_>
      <maxWeakCount>37</maxWeakCount>
      <stageThreshold>-1.2330611944198608e+00</stageThreshold>
      <weakClassifiers>
        <_>
          <internalNodes>
            0 -1 278 -1.9381608814001083e-02</internalNodes>
          <leafValues>
            2.5082507729530334e-01 -4.8120301961898804e-01</leafValues></_>
        <_>
          <internalNodes>
            0 -1 101 1.7221145331859589e-02</internalNodes>
          <leafValues>
            -2.2546301782131195e-01 2.0570489764213562e-01</leafValues></_>
        <_>
          <internalNodes>
            0 -1 265 1.4119031839072704e-03</internalNodes>
          <leafValues>
            -1.7917262017726898e-01 1.8730247020721436e-01</leafValues></_>
        <_>
          <internalNodes>
            0 -1 346 3.2933196052908897e-05</internalNodes>
          <leafValues>
            -3.6323276162147522e-01 8.7022982537746429e-02</leafValues></_>
        <_>
          <internalNodes>
            0 -1 522 1.1029386892914772e-02</internalNodes>
          <leafValues>
            -4.5393027365207672e-02 4.3249535560607910e-01</leafValues></_>
        <_>
          <internalNodes>
            0 -1 515 -1.6452156007289886e-02</internalNodes>
          <leafValues>
            4.1553524136543274e-01 -8.1113517284393311e-02</leafValues></_>
        <_>
          <internalNodes>
            0 -1 196 9.7307804971933365e-03</internalNodes>
          <leafValues>
            -9.1346710920333862e-02 3.8633942604064941e-01</leafValues></_>
        <_>
          <internalNodes>
            0 -1 269 6.0811834409832954e-03</internalNodes>
          <leafValues>
            7.5471132993698120e-02 -5.7046711444854736e-01</leafValues></_>
        <_>
          <internalNodes>
            0 -1 68 -1.7643140628933907e-02</internalNodes>
          <leafValues>
            3.3602544665336609e-01 -1.0348411649465561e-01</leafValues></_>
        <_>
          <internalNodes>
            0 -1 64 7.9558290541172028e-02</internalNodes>
          <leafValues>
            -8.1153236329555511e-02 3.6216238141059875e-01</leafValues></_>
        <_>
          <internalNodes>
            0 -1 68 1.4712823554873466e-02</internalNodes>
          <leafValues>
            -1.0049219429492950e-01 3.1314083933830261e-01</leafValues></_>
        <_>
          <internalNodes>
            0 -1 33 3.2586734741926193e-02</internalNodes>
          <leafValues>
            -9.9509939551353455e-02 3.1599143147468567e-01</leafValues></_>
        <_>
          <internalNodes>
            0 -1 304 -2.1132960915565491e-02</internalNodes>
          <leafValues>
            -4.6967551112174988e-01 9.1398939490318298e-02</leafValues></_>
        <_>
          <internalNodes>
            0 -1 58 1.6679344698786736e-03</internalNodes>
          <leafValues>
            9.6350066363811493e-02 -2.8680613636970520e-01</leafValues></_>
        <_>
          <internalNodes>
            0 -1 135 1.3334074756130576e-03</internalNodes>
          <leafValues>
            -1.5975740551948547e-01 1.9656349718570709e-01</leafValues></_>
        <_>
          <internalNodes>
            0 -1 308 1.3208201155066490e-02</internalNodes>
          <leafValues>
            7.2959430515766144e-02 -4.9579241871833801e-01</leafValues></_>
        <_>
          <internalNodes>
            0 -1 427 -3.6821155808866024e-03</internalNodes>
          <leafValues>
            -3.0360895395278931e-01 9.8620548844337463e-02</leafValues></_>
        <_>
          <internalNodes>
            0 -1 0 -6.8380504846572876e-02</internalNodes>
          <leafValues>
            2.8566816449165344e-01 -1.2514859437942505e-01</leafValues></_>
        <_>
          <internalNodes>
            0 -1 400 2.6945341378450394e-03</internalNodes>
          <leafValues>
            -1.4775156974792480e-01 2.0671871304512024e-01</leafValues></_>
        <_>
          <internalNodes>
            0 -1 146 -3.8707703351974487e-03</internalNodes>
          <leafValues>
            -3.1133022904396057e-01 1.0693979263305664e-01</leafValues></_>
        <_>
          <internalNodes>
            0 -1 159 -2.2835026029497385e-03</internalNodes>
          <leafValues>
            2.5910288095474243e-01 -1.4560891687870026e-01</leafValues></_>
        <_>
          <internalNodes>
            0 -1 396 8.2145221531391144e-03</internalNodes>
          <leafValues>
            5.9665527194738388e-02 -6.5423983335494995e-01</leafValues></_>
        <_>
          <internalNodes>
            0 -1 199 -1.9857972860336304e-01</internalNodes>
          <leafValues>
            8.1459850072860718e-01 -4.9675457179546356e-02</leafValues></_>
        <_>
          <internalNodes>
            0 -1 88 -9.4568096101284027e-03</internalNodes>
          <leafValues>
            1.6989974677562714e-01 -1.7675882577896118e-01</leafValues></_>
        <_>
          <internalNodes>
            0 -1 255 1.3567041605710983e-03</internalNodes>
          <leafValues>
            -1.4872184395790100e-01 2.2287222743034363e-01</leafValues></_>
        <_>
          <internalNodes>
            0 -1 260 -1.6009841114282608e-02</internalNodes>
          <leafValues>
            -4.5520907640457153e-01 7.2672091424465179e-02</leafValues></_>
        <_>
          <internalNodes>
            0 -1 529 -3.4488397650420666e-03</internalNodes>
          <leafValues>
            2.5629788637161255e-01 -1.2354470044374466e-01</leafValues></_>
        <_>
          <internalNodes>
            0 -1 181 1.3249337673187256e-02</internalNodes>
          <leafValues>
            4.6567257493734360e-02 -5.8707875013351440e-01</leafValues></_>
        <_>
          <internalNodes>
            0 -1 20 3.5797823220491409e-02</internalNodes>
          <leafValues>
            -7.6363258063793182e-02 3.7205147743225098e-01</leafValues></_>
        <_>
          <internalNodes>
            0 -1 28 6.2921829521656036e-02</internalNodes>
          <leafValues>
            -9.9392324686050415e-02 3.7446922063827515e-01</leafValues></_>
        <_>
          <internalNodes>
            0 -1 236 8.0442912876605988e-03</internalNodes>
          <leafValues>
            -7.4998021125793457e-02 3.7272080779075623e-01</leafValues></_>
        <_>
          <internalNodes>
            0 -1 428 -1.0798711329698563e-02</internalNodes>
          <leafValues>
            -5.4793655872344971e-01 5.7029336690902710e-02</leafValues></_>
        <_>
          <internalNodes>
            0 -1 144 -3.0054482631385326e-03</internalNodes>
          <leafValues>
            -3.0824595689773560e-01 8.2154899835586548e-02</leafValues></_>
        <_>
          <internalNodes>
            0 -1 37 8.8910683989524841e-03</internalNodes>
          <leafValues>
            -7.8437969088554382e-02 3.9151674509048462e-01</leafValues></_>
        <_>
          <internalNodes>
            0 -1 456 -1.1369256302714348e-02</internalNodes>
          <leafValues>
            -3.9721250534057617e-01 7.3997624218463898e-02</leafValues></_>
        <_>
          <internalNodes>
            0 -1 502 1.0147970169782639e-02</internalNodes>
          <leafValues>
            -9.6932865679264069e-02 3.0771917104721069e-01</leafValues></_>
        <_>
          <internalNodes>
            0 -1 221 6.5717590041458607e-04</internalNodes>
          <leafValues>
            -1.9411644339561462e-01 1.6426463425159454e-01</leafValues></_></weakClassifiers></_>
    <!-- stage 10 -->
    <_>
      <maxWeakCount>35</maxWeakCount>
      <stageThreshold>-1.1230366230010986e+00</stageThreshold>
      <weakClassifiers>
        <_>
          <internalNodes>
            0 -1 419 1.1525804176926613e-02</internalNodes>
          <leafValues>
            -4.6902653574943542e-01 8.2063302397727966e-03</leafValues></_>
        <_>
          <internalNodes>
            0 -1 123 1.0433409363031387e-02</internalNodes>
          <leafValues>
            -1.3202799856662750e-01 3.4331610798835754e-01</leafValues></_>
        <_>
          <internalNodes>
            0 -1 130 -1.1485603172332048e-03</internalNodes>
          <leafValues>
            1.5700143575668335e-01 -2.4294327199459076e-01</leafValues></_>
        <_>
          <internalNodes>
            0 -1 271 7.0904882159084082e-04</internalNodes>
          <leafValues>
            -2.2770756483078003e-01 1.5253221988677979e-01</leafValues></_>
        <_>
          <internalNodes>
            0 -1 471 1.2137989979237318e-03</internalNodes>
          <leafValues>
            -1.3932040333747864e-01 2.1796423196792603e-01</leafValues></_>
        <_>
          <internalNodes>
            0 -1 94 9.9502697587013245e-02</internalNodes>
          <leafValues>
            3.6619681864976883e-02 -7.5040084123611450e-01</leafValues></_>
        <_>
          <internalNodes>
            0 -1 321 -8.2645521615631878e-05</internalNodes>
          <leafValues>
            1.1580965667963028e-01 -3.0735120177268982e-01</leafValues></_>
        <_>
          <internalNodes>
            0 -1 494 -2.4079796858131886e-03</internalNodes>
          <leafValues>
            -3.8129347562789917e-01 7.9930357635021210e-02</leafValues></_>
        <_>
          <internalNodes>
            0 -1 42 -1.2369567994028330e-03</internalNodes>
          <leafValues>
            2.3466905951499939e-01 -1.1844749003648758e-01</leafValues></_>
        <_>
          <internalNodes>
            0 -1 54 1.2072997167706490e-02</internalNodes>
          <leafValues>
            -1.1088789254426956e-01 2.5523799657821655e-01</leafValues></_>
        <_>
          <internalNodes>
            0 -1 332 -9.9402572959661484e-04</internalNodes>
          <leafValues>
            2.1620517969131470e-01 -1.2581929564476013e-01</leafValues></_>
        <_>
          <internalNodes>
            0 -1 323 1.9668474793434143e-02</internalNodes>
          <leafValues>
            5.6411050260066986e-02 -4.9361133575439453e-01</leafValues></_>
        <_>
          <internalNodes>
            0 -1 533 -7.0876022800803185e-04</internalNodes>
          <leafValues>
            2.0640762150287628e-01 -1.3843150436878204e-01</leafValues></_>
        <_>
          <internalNodes>
            0 -1 240 3.1030852347612381e-02</internalNodes>
          <leafValues>
            -9.2136651277542114e-02 3.1592419743537903e-01</leafValues></_>
        <_>
          <internalNodes>
            0 -1 370 5.9748467057943344e-02</internalNodes>
          <leafValues>
            4.3546423316001892e-02 -6.9398564100265503e-01</leafValues></_>
        <_>
          <internalNodes>
            0 -1 342 7.9522369196638465e-04</internalNodes>
          <leafValues>
            -1.8634906411170959e-01 1.4279143512248993e-01</leafValues></_>
        <_>
          <internalNodes>
            0 -1 203 -1.2348575517535210e-02</internalNodes>
          <leafValues>
            2.9694038629531860e-01 -1.1228737980127335e-01</leafValues></_>
        <_>
          <internalNodes>
            0 -1 375 -1.2880384456366301e-03</internalNodes>
          <leafValues>
            2.3681439459323883e-01 -1.1593035608530045e-01</leafValues></_>
        <_>
          <internalNodes>
            0 -1 404 1.1722070630639791e-03</internalNodes>
          <leafValues>
            -1.2655138969421387e-01 2.0789305865764618e-01</leafValues></_>
        <_>
          <internalNodes>
            0 -1 505 2.5362358428537846e-03</internalNodes>
          <leafValues>
            -1.5521636605262756e-01 1.6645085811614990e-01</leafValues></_>
        <_>
          <internalNodes>
            0 -1 448 -9.1559439897537231e-03</internalNodes>
          <leafValues>
            -4.0434995293617249e-01 7.3717564344406128e-02</leafValues></_>
        <_>
          <internalNodes>
            0 -1 377 8.1255316734313965e-02</internalNodes>
          <leafValues>
            -6.6049717366695404e-02 4.7792264819145203e-01</leafValues></_>
        <_>
          <internalNodes>
            0 -1 329 1.3448296114802361e-02</internalNodes>
          <leafValues>
            -7.8701771795749664e-02 3.2744327187538147e-01</leafValues></_>
        <_>
          <internalNodes>
            0 -1 227 6.4790006726980209e-03</internalNodes>
          <leafValues>
            8.2839712500572205e-02 -3.1923004984855652e-01</leafValues></_>
        <_>
          <internalNodes>
            0 -1 276 1.0943147353827953e-02</internalNodes>
          <leafValues>
            -7.2184823453426361e-02 3.8166719675064087e-01</leafValues></_>
        <_>
          <internalNodes>
            0 -1 492 -4.7286655753850937e-03</internalNodes>
          <leafValues>
            2.7485051751136780e-01 -1.0676608979701996e-01</leafValues></_>
        <_>
          <internalNodes>
            0 -1 257 7.8502995893359184e-03</internalNodes>
          <leafValues>
            6.2799341976642609e-02 -4.3256863951683044e-01</leafValues></_>
        <_>
          <internalNodes>
            0 -1 263 -7.8021902590990067e-03</internalNodes>
          <leafValues>
            -6.0960274934768677e-01 4.2417921125888824e-02</leafValues></_>
        <_>
          <internalNodes>
            0 -1 353 1.5165377408266068e-02</internalNodes>
          <leafValues>
            3.0257225036621094e-02 -7.0599043369293213e-01</leafValues></_>
        <_>
          <internalNodes>
            0 -1 430 -1.4099510386586189e-02</internalNodes>
          <leafValues>
            -7.6342481374740601e-01 2.4682834744453430e-02</leafValues></_>
        <_>
          <internalNodes>
            0 -1 481 -2.5111653376370668e-03</internalNodes>
          <leafValues>
            1.7276181280612946e-01 -1.5062636137008667e-01</leafValues></_>
        <_>
          <internalNodes>
            0 -1 86 6.3386462628841400e-02</internalNodes>
          <leafValues>
            4.2806923389434814e-02 -6.3224178552627563e-01</leafValues></_>
        <_>
          <internalNodes>
            0 -1 167 -8.1360407173633575e-02</internalNodes>
          <leafValues>
            -6.5972191095352173e-01 3.2197199761867523e-02</leafValues></_>
        <_>
          <internalNodes>
            0 -1 4 -6.7272328305989504e-04</internalNodes>
          <leafValues>
            2.0299242436885834e-01 -1.2754614651203156e-01</leafValues></_>
        <_>
          <internalNodes>
            0 -1 210 -2.6123342104256153e-03</internalNodes>
          <leafValues>
            2.2105550765991211e-01 -1.1339608579874039e-01</leafValues></_></weakClassifiers></_>
    <!-- stage 11 -->
    <_>
      <maxWeakCount>50</maxWeakCount>
      <stageThreshold>-1.2550292015075684e+00</stageThreshold>
      <weakClassifiers>
        <_>
          <internalNodes>
            0 -1 242 2.0671829581260681e-02</internalNodes>
          <leafValues>
            -4.9641761183738708e-01 -2.8680687770247459e-02</leafValues></_>
        <_>
          <internalNodes>
            0 -1 337 -1.5817739069461823e-02</internalNodes>
          <leafValues>
            5.2854597568511963e-01 -9.0815097093582153e-02</leafValues></_>
        <_>
          <internalNodes>
            0 -1 354 2.7350026648491621e-03</internalNodes>
          <leafValues>
            -2.2322151064872742e-01 1.3581895828247070e-01</leafValues></_>
        <_>
          <internalNodes>
            0 -1 95 2.9517366783693433e-04</internalNodes>
          <leafValues>
            -1.9903379678726196e-01 1.4781334996223450e-01</leafValues></_>
        <_>
          <internalNodes>
            0 -1 510 5.2623301744461060e-03</internalNodes>
          <leafValues>
            -4.2569331824779510e-02 3.6549103260040283e-01</leafValues></_>
        <_>
          <internalNodes>
            0 -1 485 -2.4252595379948616e-02</internalNodes>
          <leafValues>
            2.2662311792373657e-01 -1.3553678989410400e-01</leafValues></_>
        <_>
          <internalNodes>
            0 -1 46 -1.6552038490772247e-02</internalNodes>
          <leafValues>
            3.6442309617996216e-01 -8.2573816180229187e-02</leafValues></_>
        <_>
          <internalNodes>
            0 -1 427 -5.3425831720232964e-03</internalNodes>
          <leafValues>
            -3.1511163711547852e-01 1.1448284238576889e-01</leafValues></_>
        <_>
          <internalNodes>
            0 -1 50 -1.6145657747983932e-02</internalNodes>
          <leafValues>
            -3.5556793212890625e-01 5.6940477341413498e-02</leafValues></_>
        <_>
          <internalNodes>
            0 -1 313 -3.9861192926764488e-03</internalNodes>
          <leafValues>
            -6.3558995723724365e-01 3.9191465824842453e-02</leafValues></_>
        <_>
          <internalNodes>
            0 -1 265 8.1710400991141796e-04</internalNodes>
          <leafValues>
            -1.8946747481822968e-01 1.1463182419538498e-01</leafValues></_>
        <_>
          <internalNodes>
            0 -1 175 -2.1573435515165329e-03</internalNodes>
          <leafValues>
            2.6297152042388916e-01 -8.3988964557647705e-02</leafValues></_>
        <_>
          <internalNodes>
            0 -1 286 -2.6071351021528244e-02</internalNodes>
          <leafValues>
            1.7096118628978729e-01 -1.3694046437740326e-01</leafValues></_>
        <_>
          <internalNodes>
            0 -1 205 7.8599900007247925e-03</internalNodes>
          <leafValues>
            8.2824394106864929e-02 -2.9472717642784119e-01</leafValues></_>
        <_>
          <internalNodes>
            0 -1 57 -6.2379755079746246e-02</internalNodes>
          <leafValues>
            -7.3080438375473022e-01 3.0633021146059036e-02</leafValues></_>
        <_>
          <internalNodes>
            0 -1 111 -1.1276585981249809e-02</internalNodes>
          <leafValues>
            3.4186762571334839e-01 -7.9555772244930267e-02</leafValues></_>
        <_>
          <internalNodes>
            0 -1 119 1.0513393208384514e-02</internalNodes>
          <leafValues>
            -1.2270809710025787e-01 2.0075821876525879e-01</leafValues></_>
        <_>
          <internalNodes>
            0 -1 85 -1.1848902795463800e-03</internalNodes>
          <leafValues>
            1.3493928313255310e-01 -2.1064074337482452e-01</leafValues></_>
        <_>
          <internalNodes>
            0 -1 143 1.1480710469186306e-02</internalNodes>
          <leafValues>
            -8.3803378045558929e-02 2.8762051463127136e-01</leafValues></_>
        <_>
          <internalNodes>
            0 -1 179 1.2825185433030128e-02</internalNodes>
          <leafValues>
            4.9107268452644348e-02 -5.3367906808853149e-01</leafValues></_>
        <_>
          <internalNodes>
            0 -1 220 2.1854664664715528e-03</internalNodes>
          <leafValues>
            -8.9414022862911224e-02 2.7664014697074890e-01</leafValues></_>
        <_>
          <internalNodes>
            0 -1 222 9.1524673625826836e-03</internalNodes>
          <leafValues>
            4.0477089583873749e-02 -7.3088741302490234e-01</leafValues></_>
        <_>
          <internalNodes>
            0 -1 97 -3.2687759958207607e-03</internalNodes>
          <leafValues>
            1.9895188510417938e-01 -1.2435323745012283e-01</leafValues></_>
        <_>
          <internalNodes>
            0 -1 67 -1.3725891709327698e-01</internalNodes>
          <leafValues>
            4.5984137058258057e-01 -5.3185291588306427e-02</leafValues></_>
        <_>
          <internalNodes>
            0 -1 302 9.9824462085962296e-03</internalNodes>
          <leafValues>
            3.2507129013538361e-02 -7.6770687103271484e-01</leafValues></_>
        <_>
          <internalNodes>
            0 -1 90 6.7143477499485016e-03</internalNodes>
          <leafValues>
            2.1743062883615494e-02 -7.5122296810150146e-01</leafValues></_>
        <_>
          <internalNodes>
            0 -1 45 3.3788147848099470e-03</internalNodes>
          <leafValues>
            -1.1760478466749191e-01 2.2366343438625336e-01</leafValues></_>
        <_>
          <internalNodes>
            0 -1 108 -1.6093135345727205e-03</internalNodes>
          <leafValues>
            1.5433415770530701e-01 -1.6031190752983093e-01</leafValues></_>
        <_>
          <internalNodes>
            0 -1 96 9.6024712547659874e-03</internalNodes>
          <leafValues>
            4.7688446938991547e-02 -5.0312411785125732e-01</leafValues></_>
        <_>
          <internalNodes>
            0 -1 499 -1.4437812380492687e-02</internalNodes>
          <leafValues>
            3.5478177666664124e-01 -6.7182891070842743e-02</leafValues></_>
        <_>
          <internalNodes>
            0 -1 232 -4.0734268724918365e-02</internalNodes>
          <leafValues>
            -5.0029432773590088e-01 6.5240189433097839e-02</leafValues></_>
        <_>
          <internalNodes>
            0 -1 319 -2.0105887670069933e-03</internalNodes>
          <leafValues>
            2.8369286656379700e-01 -1.2700486183166504e-01</leafValues></_>
        <_>
          <internalNodes>
            0 -1 317 -9.6790250390768051e-03</internalNodes>
          <leafValues>
            -3.5164707899093628e-01 6.8370312452316284e-02</leafValues></_>
        <_>
          <internalNodes>
            0 -1 417 1.0017029941082001e-02</internalNodes>
          <leafValues>
            -9.7303718328475952e-02 2.5854244828224182e-01</leafValues></_>
        <_>
          <internalNodes>
            0 -1 343 9.5854885876178741e-03</internalNodes>
          <leafValues>
            2.1961783990263939e-02 -9.0097647905349731e-01</leafValues></_>
        <_>
          <internalNodes>
            0 -1 282 2.6581522542983294e-03</internalNodes>
          <leafValues>
            5.6278944015502930e-02 -3.8023325800895691e-01</leafValues></_>
        <_>
          <internalNodes>
            0 -1 340 -3.8382052443921566e-03</internalNodes>
          <leafValues>
            3.5035777091979980e-01 -7.6981693506240845e-02</leafValues></_>
        <_>
          <internalNodes>
            0 -1 22 -3.5010951105505228e-03</internalNodes>
          <leafValues>
            2.2729170322418213e-01 -1.0660976916551590e-01</leafValues></_>
        <_>
          <internalNodes>
            0 -1 140 -7.6791066676378250e-03</internalNodes>
          <leafValues>
            2.9797345399856567e-01 -8.2432828843593597e-02</leafValues></_>
        <_>
          <internalNodes>
            0 -1 293 6.5381992608308792e-03</internalNodes>
          <leafValues>
            -1.3840927183628082e-01 1.8822294473648071e-01</leafValues></_>
        <_>
          <internalNodes>
            0 -1 272 -1.0197278112173080e-02</internalNodes>
          <leafValues>
            -7.8499948978424072e-01 2.6789484545588493e-02</leafValues></_>
        <_>
          <internalNodes>
            0 -1 435 1.8843326251953840e-03</internalNodes>
          <leafValues>
            -1.0579831898212433e-01 2.3376169800758362e-01</leafValues></_>
        <_>
          <internalNodes>
            0 -1 449 -2.3430015891790390e-02</internalNodes>
          <leafValues>
            -6.9888949394226074e-01 3.6952883005142212e-02</leafValues></_>
        <_>
          <internalNodes>
            0 -1 432 -9.5485569909214973e-04</internalNodes>
          <leafValues>
            -2.1160408854484558e-01 1.1297889053821564e-01</leafValues></_>
        <_>
          <internalNodes>
            0 -1 374 4.4001698493957520e-02</internalNodes>
          <leafValues>
            4.1107725352048874e-02 -6.5785914659500122e-01</leafValues></_>
        <_>
          <internalNodes>
            0 -1 78 6.7716022022068501e-03</internalNodes>
          <leafValues>
            -1.5186537802219391e-01 1.9129082560539246e-01</leafValues></_>
        <_>
          <internalNodes>
            0 -1 5 3.1553462613373995e-03</internalNodes>
          <leafValues>
            -1.0081443190574646e-01 2.3498399555683136e-01</leafValues></_>
        <_>
          <internalNodes>
            0 -1 93 8.8603451848030090e-02</internalNodes>
          <leafValues>
            5.0366815179586411e-02 -5.0562196969985962e-01</leafValues></_>
        <_>
          <internalNodes>
            0 -1 38 1.1091097258031368e-02</internalNodes>
          <leafValues>
            3.4285731613636017e-02 -6.2472689151763916e-01</leafValues></_>
        <_>
          <internalNodes>
            0 -1 51 -9.3749986262992024e-04</internalNodes>
          <leafValues>
            -2.5808936357498169e-01 9.0819410979747772e-02</leafValues></_></weakClassifiers></_>
    <!-- stage 12 -->
    <_>
      <maxWeakCount>54</maxWeakCount>
      <stageThreshold>-1.2552205324172974e+00</stageThreshold>
      <weakClassifiers>
        <_>
          <internalNodes>
            0 -1 324 -4.1259503923356533e-03</internalNodes>
          <leafValues>
            1.1862396495416760e-03 -4.6407046914100647e-01</leafValues></_>
        <_>
          <internalNodes>
            0 -1 215 -1.6040109097957611e-02</internalNodes>
          <leafValues>
            3.2548511028289795e-01 -1.1866218596696854e-01</leafValues></_>
        <_>
          <internalNodes>
            0 -1 223 6.5364933107048273e-05</internalNodes>
          <leafValues>
            -3.6221405863761902e-01 8.0629989504814148e-02</leafValues></_>
        <_>
          <internalNodes>
            0 -1 433 -2.6118541136384010e-03</internalNodes>
          <leafValues>
            2.5168275833129883e-01 -9.8450645804405212e-02</leafValues></_>
        <_>
          <internalNodes>
            0 -1 501 -1.1918079853057861e-01</internalNodes>
          <leafValues>
            6.1891114711761475e-01 -6.1689358204603195e-02</leafValues></_>
        <_>
          <internalNodes>
            0 -1 331 -2.1332601085305214e-02</internalNodes>
          <leafValues>
            2.6866054534912109e-01 -1.0283056646585464e-01</leafValues></_>
        <_>
          <internalNodes>
            0 -1 298 -8.5007702000439167e-04</internalNodes>
          <leafValues>
            1.1721859127283096e-01 -2.0436756312847137e-01</leafValues></_>
        <_>
          <internalNodes>
            0 -1 393 -1.3114479370415211e-02</internalNodes>
          <leafValues>
            -5.5671346187591553e-01 2.8852669522166252e-02</leafValues></_>
        <_>
          <internalNodes>
            0 -1 450 5.0652417121455073e-04</internalNodes>
          <leafValues>
            1.2078543007373810e-01 -2.0250977575778961e-01</leafValues></_>
        <_>
          <internalNodes>
            0 -1 134 1.1433630716055632e-03</internalNodes>
          <leafValues>
            -1.0917133837938309e-01 2.1574489772319794e-01</leafValues></_>
        <_>
          <internalNodes>
            0 -1 14 5.3942322731018066e-02</internalNodes>
          <leafValues>
            4.8831354826688766e-02 -4.0243062376976013e-01</leafValues></_>
        <_>
          <internalNodes>
            0 -1 15 1.4960658736526966e-02</internalNodes>
          <leafValues>
            -8.7053902447223663e-02 2.7731180191040039e-01</leafValues></_>
        <_>
          <internalNodes>
            0 -1 201 1.2267258763313293e-01</internalNodes>
          <leafValues>
            3.6178827285766602e-02 -6.4773726463317871e-01</leafValues></_>
        <_>
          <internalNodes>
            0 -1 525 2.3673565592616796e-03</internalNodes>
          <leafValues>
            5.5037256330251694e-02 -3.7933871150016785e-01</leafValues></_>
        <_>
          <internalNodes>
            0 -1 52 -8.3143566735088825e-04</internalNodes>
          <leafValues>
            1.6199778020381927e-01 -1.4160254597663879e-01</leafValues></_>
        <_>
          <internalNodes>
            0 -1 207 1.0782495141029358e-02</internalNodes>
          <leafValues>
            -6.6756524145603180e-02 3.8092961907386780e-01</leafValues></_>
        <_>
          <internalNodes>
            0 -1 373 -3.2336879521608353e-03</internalNodes>
          <leafValues>
            2.7628484368324280e-01 -8.2515940070152283e-02</leafValues></_>
        <_>
          <internalNodes>
            0 -1 493 4.8692934215068817e-03</internalNodes>
          <leafValues>
            9.7464747726917267e-02 -2.5044894218444824e-01</leafValues></_>
        <_>
          <internalNodes>
            0 -1 470 -8.7578315287828445e-03</internalNodes>
          <leafValues>
            3.3523288369178772e-01 -7.3710389435291290e-02</leafValues></_>
        <_>
          <internalNodes>
            0 -1 202 -3.3630579710006714e-02</internalNodes>
          <leafValues>
            -4.8874920606613159e-01 4.8914514482021332e-02</leafValues></_>
        <_>
          <internalNodes>
            0 -1 342 8.5503549780696630e-04</internalNodes>
          <leafValues>
            -1.6879661381244659e-01 1.2740881741046906e-01</leafValues></_>
        <_>
          <internalNodes>
            0 -1 453 -3.5223951563239098e-03</internalNodes>
          <leafValues>
            -3.0699515342712402e-01 9.0890571475028992e-02</leafValues></_>
        <_>
          <internalNodes>
            0 -1 385 9.2370603233575821e-03</internalNodes>
          <leafValues>
            -6.0489732772111893e-02 4.0353113412857056e-01</leafValues></_>
        <_>
          <internalNodes>
            0 -1 307 4.1300151497125626e-03</internalNodes>
          <leafValues>
            -2.1769884228706360e-01 1.2730371952056885e-01</leafValues></_>
        <_>
          <internalNodes>
            0 -1 312 -3.6844760179519653e-03</internalNodes>
          <leafValues>
            -4.3448033928871155e-01 5.8530718088150024e-02</leafValues></_>
        <_>
          <internalNodes>
            0 -1 490 -2.3728278465569019e-03</internalNodes>
          <leafValues>
            2.8415048122406006e-01 -8.6388245224952698e-02</leafValues></_>
        <_>
          <internalNodes>
            0 -1 39 3.4989877603948116e-03</internalNodes>
          <leafValues>
            -1.2256556749343872e-01 1.8974182009696960e-01</leafValues></_>
        <_>
          <internalNodes>
            0 -1 301 -9.4120930880308151e-03</internalNodes>
          <leafValues>
            -6.9488710165023804e-01 3.4951418638229370e-02</leafValues></_>
        <_>
          <internalNodes>
            0 -1 153 4.5348955318331718e-03</internalNodes>
          <leafValues>
            -8.3179101347923279e-02 2.8731715679168701e-01</leafValues></_>
        <_>
          <internalNodes>
            0 -1 506 -3.3150261733680964e-03</internalNodes>
          <leafValues>
            2.0710575580596924e-01 -1.0273806750774384e-01</leafValues></_>
        <_>
          <internalNodes>
            0 -1 407 3.8335402496159077e-04</internalNodes>
          <leafValues>
            -1.3759118318557739e-01 1.6031862795352936e-01</leafValues></_>
        <_>
          <internalNodes>
            0 -1 361 -2.8164642862975597e-03</internalNodes>
          <leafValues>
            2.7307140827178955e-01 -8.7583184242248535e-02</leafValues></_>
        <_>
          <internalNodes>
            0 -1 271 6.4508495852351189e-03</internalNodes>
          <leafValues>
            5.6937571614980698e-02 -4.4875994324684143e-01</leafValues></_>
        <_>
          <internalNodes>
            0 -1 210 -2.3839552886784077e-03</internalNodes>
          <leafValues>
            2.0578798651695251e-01 -1.0752091556787491e-01</leafValues></_>
        <_>
          <internalNodes>
            0 -1 234 1.8073428422212601e-02</internalNodes>
          <leafValues>
            5.7649429887533188e-02 -4.1329631209373474e-01</leafValues></_>
        <_>
          <internalNodes>
            0 -1 249 -7.2905067354440689e-03</internalNodes>
          <leafValues>
            1.6146761178970337e-01 -1.5322440862655640e-01</leafValues></_>
        <_>
          <internalNodes>
            0 -1 211 -1.8244275124743581e-03</internalNodes>
          <leafValues>
            3.6361110210418701e-01 -6.6910371184349060e-02</leafValues></_>
        <_>
          <internalNodes>
            0 -1 2 -1.0385802015662193e-02</internalNodes>
          <leafValues>
            1.7727065086364746e-01 -1.3070999085903168e-01</leafValues></_>
        <_>
          <internalNodes>
            0 -1 297 5.2077113650739193e-03</internalNodes>
          <leafValues>
            5.9210553765296936e-02 -3.7497025728225708e-01</leafValues></_>
        <_>
          <internalNodes>
            0 -1 83 2.0433756709098816e-01</internalNodes>
          <leafValues>
            -4.7026138752698898e-02 5.9887075424194336e-01</leafValues></_>
        <_>
          <internalNodes>
            0 -1 235 1.2998326681554317e-02</internalNodes>
          <leafValues>
            4.3893776834011078e-02 -6.1897253990173340e-01</leafValues></_>
        <_>
          <internalNodes>
            0 -1 287 -8.2942228764295578e-03</internalNodes>
          <leafValues>
            -8.6797386407852173e-01 1.8725898116827011e-02</leafValues></_>
        <_>
          <internalNodes>
            0 -1 455 -8.8336113840341568e-03</internalNodes>
          <leafValues>
            -3.7490084767341614e-01 5.0421319901943207e-02</leafValues></_>
        <_>
          <internalNodes>
            0 -1 3 8.4966048598289490e-03</internalNodes>
          <leafValues>
            -8.6850427091121674e-02 2.5003370642662048e-01</leafValues></_>
        <_>
          <internalNodes>
            0 -1 437 1.6318529844284058e-02</internalNodes>
          <leafValues>
            -3.6993894726037979e-02 5.5752784013748169e-01</leafValues></_>
        <_>
          <internalNodes>
            0 -1 474 2.4823103100061417e-02</internalNodes>
          <leafValues>
            -6.2816679477691650e-02 3.1218704581260681e-01</leafValues></_>
        <_>
          <internalNodes>
            0 -1 526 -1.0948427021503448e-02</internalNodes>
          <leafValues>
            2.4245171248912811e-01 -1.1133862286806107e-01</leafValues></_>
        <_>
          <internalNodes>
            0 -1 174 -6.2273442745208740e-03</internalNodes>
          <leafValues>
            -6.2790060043334961e-01 3.3454913645982742e-02</leafValues></_>
        <_>
          <internalNodes>
            0 -1 168 3.9319635834544897e-04</internalNodes>
          <leafValues>
            -1.9956167042255402e-01 1.4500562846660614e-01</leafValues></_>
        <_>
          <internalNodes>
            0 -1 295 -1.0794828832149506e-01</internalNodes>
          <leafValues>
            -5.7233089208602905e-01 3.7075147032737732e-02</leafValues></_>
        <_>
          <internalNodes>
            0 -1 495 8.9781661517918110e-04</internalNodes>
          <leafValues>
            -1.6532996296882629e-01 1.3386103510856628e-01</leafValues></_>
        <_>
          <internalNodes>
            0 -1 289 3.1072791665792465e-02</internalNodes>
          <leafValues>
            -6.7922033369541168e-02 3.5169669985771179e-01</leafValues></_>
        <_>
          <internalNodes>
            0 -1 342 6.5930709242820740e-03</internalNodes>
          <leafValues>
            4.8823609948158264e-02 -4.5851904153823853e-01</leafValues></_>
        <_>
          <internalNodes>
            0 -1 483 -1.7983529716730118e-02</internalNodes>
          <leafValues>
            3.2805123925209045e-01 -7.3058731853961945e-02</leafValues></_></weakClassifiers></_>
    <!-- stage 13 -->
    <_>
      <maxWeakCount>54</maxWeakCount>
      <stageThreshold>-1.2255614995956421e+00</stageThreshold>
      <weakClassifiers>
        <_>
          <internalNodes>
            0 -1 219 1.9199833273887634e-02</internalNodes>
          <leafValues>
            -4.2905691266059875e-01 1.5479875728487968e-02</leafValues></_>
        <_>
          <internalNodes>
            0 -1 536 9.7167622298002243e-03</internalNodes>
          <leafValues>
            -1.7373579740524292e-01 2.0024271309375763e-01</leafValues></_>
        <_>
          <internalNodes>
            0 -1 227 7.9838850069791079e-05</internalNodes>
          <leafValues>
            -3.5578772425651550e-01 7.6750315725803375e-02</leafValues></_>
        <_>
          <internalNodes>
            0 -1 311 -6.6211985540576279e-05</internalNodes>
          <leafValues>
            2.1322841942310333e-01 -1.3868297636508942e-01</leafValues></_>
        <_>
          <internalNodes>
            0 -1 188 -7.9323034733533859e-03</internalNodes>
          <leafValues>
            -2.8332948684692383e-01 1.0380321741104126e-01</leafValues></_>
        <_>
          <internalNodes>
            0 -1 195 1.1789952404797077e-02</internalNodes>
          <leafValues>
            -7.2001658380031586e-02 5.4388236999511719e-01</leafValues></_>
        <_>
          <internalNodes>
            0 -1 123 1.4279664494097233e-02</internalNodes>
          <leafValues>
            -8.5299648344516754e-02 3.4944397211074829e-01</leafValues></_>
        <_>
          <internalNodes>
            0 -1 414 1.5383274294435978e-03</internalNodes>
          <leafValues>
            -1.2404755502939224e-01 2.2394581139087677e-01</leafValues></_>
        <_>
          <internalNodes>
            0 -1 368 -8.9283632405567914e-05</internalNodes>
          <leafValues>
            1.4245364069938660e-01 -1.9669875502586365e-01</leafValues></_>
        <_>
          <internalNodes>
            0 -1 76 -3.6737363552674651e-04</internalNodes>
          <leafValues>
            1.6389565169811249e-01 -1.6344958543777466e-01</leafValues></_>
        <_>
          <internalNodes>
            0 -1 43 3.4142625518143177e-03</internalNodes>
          <leafValues>
            5.5025365203619003e-02 -4.2815354466438293e-01</leafValues></_>
        <_>
          <internalNodes>
            0 -1 440 3.6279482301324606e-03</internalNodes>
          <leafValues>
            4.5237418264150620e-02 -4.9602961540222168e-01</leafValues></_>
        <_>
          <internalNodes>
            0 -1 345 -2.7412432245910168e-03</internalNodes>
          <leafValues>
            -8.3745473623275757e-01 2.5499328970909119e-02</leafValues></_>
        <_>
          <internalNodes>
            0 -1 479 -2.1213401108980179e-02</internalNodes>
          <leafValues>
            3.6280837655067444e-01 -7.4357226490974426e-02</leafValues></_>
        <_>
          <internalNodes>
            0 -1 447 -4.1782714426517487e-02</internalNodes>
          <leafValues>
            3.3943152427673340e-01 -7.5532570481300354e-02</leafValues></_>
        <_>
          <internalNodes>
            0 -1 92 1.8955045938491821e-01</internalNodes>
          <leafValues>
            4.1771419346332550e-02 -6.0410374402999878e-01</leafValues></_>
        <_>
          <internalNodes>
            0 -1 245 -4.1228476911783218e-03</internalNodes>
          <leafValues>
            2.7845522761344910e-01 -1.0830561071634293e-01</leafValues></_>
        <_>
          <internalNodes>
            0 -1 436 -3.2809500116854906e-03</internalNodes>
          <leafValues>
            3.1220284104347229e-01 -7.5373269617557526e-02</leafValues></_>
        <_>
          <internalNodes>
            0 -1 473 -4.2598005384206772e-03</internalNodes>
          <leafValues>
            2.8059190511703491e-01 -1.0464469343423843e-01</leafValues></_>
        <_>
          <internalNodes>
            0 -1 454 -1.4461051672697067e-02</internalNodes>
          <leafValues>
            -6.3078516721725464e-01 3.8512557744979858e-02</leafValues></_>
        <_>
          <internalNodes>
            0 -1 270 1.6586001962423325e-02</internalNodes>
          <leafValues>
            3.2497156411409378e-02 -5.7147991657257080e-01</leafValues></_>
        <_>
          <internalNodes>
            0 -1 489 8.4348162636160851e-03</internalNodes>
          <leafValues>
            -9.5017775893211365e-02 2.4697275459766388e-01</leafValues></_>
        <_>
          <internalNodes>
            0 -1 498 -4.9056042917072773e-04</internalNodes>
          <leafValues>
            1.7258395254611969e-01 -1.4764995872974396e-01</leafValues></_>
        <_>
          <internalNodes>
            0 -1 496 1.7449985898565501e-04</internalNodes>
          <leafValues>
            -1.7155583202838898e-01 1.3431416451931000e-01</leafValues></_>
        <_>
          <internalNodes>
            0 -1 115 7.0075769908726215e-03</internalNodes>
          <leafValues>
            3.0493097379803658e-02 -7.9294800758361816e-01</leafValues></_>
        <_>
          <internalNodes>
            0 -1 410 1.3735606335103512e-02</internalNodes>
          <leafValues>
            2.8426101431250572e-02 -5.8442944288253784e-01</leafValues></_>
        <_>
          <internalNodes>
            0 -1 469 -2.0265921484678984e-03</internalNodes>
          <leafValues>
            2.6499569416046143e-01 -9.0009182691574097e-02</leafValues></_>
        <_>
          <internalNodes>
            0 -1 314 -6.1241579242050648e-03</internalNodes>
          <leafValues>
            -5.5003035068511963e-01 3.6124289035797119e-02</leafValues></_>
        <_>
          <internalNodes>
            0 -1 358 7.3265004903078079e-04</internalNodes>
          <leafValues>
            -1.2747220695018768e-01 1.5757833421230316e-01</leafValues></_>
        <_>
          <internalNodes>
            0 -1 438 1.1194081977009773e-02</internalNodes>
          <leafValues>
            5.1571533083915710e-02 -4.0464738011360168e-01</leafValues></_>
        <_>
          <internalNodes>
            0 -1 371 3.4546475857496262e-02</internalNodes>
          <leafValues>
            -8.9300863444805145e-02 2.4703630805015564e-01</leafValues></_>
        <_>
          <internalNodes>
            0 -1 275 -3.6895584344165400e-05</internalNodes>
          <leafValues>
            9.7887292504310608e-02 -2.1039946377277374e-01</leafValues></_>
        <_>
          <internalNodes>
            0 -1 77 -1.7343707440886647e-04</internalNodes>
          <leafValues>
            1.6719786822795868e-01 -1.3971592485904694e-01</leafValues></_>
        <_>
          <internalNodes>
            0 -1 109 6.5459031611680984e-03</internalNodes>
          <leafValues>
            7.3281973600387573e-02 -3.3560797572135925e-01</leafValues></_>
        <_>
          <internalNodes>
            0 -1 134 2.1978311997372657e-04</internalNodes>
          <leafValues>
            -1.5811432898044586e-01 1.4094534516334534e-01</leafValues></_>
        <_>
          <internalNodes>
            0 -1 141 -1.6583748161792755e-02</internalNodes>
          <leafValues>
            3.1042391061782837e-01 -8.1841692328453064e-02</leafValues></_>
        <_>
          <internalNodes>
            0 -1 258 -4.4727966189384460e-02</internalNodes>
          <leafValues>
            -4.5986807346343994e-01 4.9266502261161804e-02</leafValues></_>
        <_>
          <internalNodes>
            0 -1 356 4.6491719782352448e-02</internalNodes>
          <leafValues>
            4.6755772083997726e-02 -4.5063096284866333e-01</leafValues></_>
        <_>
          <internalNodes>
            0 -1 112 -6.6021084785461426e-02</internalNodes>
          <leafValues>
            3.6155784130096436e-01 -6.4800664782524109e-02</leafValues></_>
        <_>
          <internalNodes>
            0 -1 113 1.0696926619857550e-03</internalNodes>
          <leafValues>
            1.0822726041078568e-01 -2.5552186369895935e-01</leafValues></_>
        <_>
          <internalNodes>
            0 -1 284 -3.6684364080429077e-02</internalNodes>
          <leafValues>
            4.5623290538787842e-01 -5.1668677479028702e-02</leafValues></_>
        <_>
          <internalNodes>
            0 -1 124 1.9721783697605133e-02</internalNodes>
          <leafValues>
            -8.1663541495800018e-02 2.8095850348472595e-01</leafValues></_>
        <_>
          <internalNodes>
            0 -1 110 7.2721719741821289e-02</internalNodes>
          <leafValues>
            -6.4306125044822693e-02 3.5820034146308899e-01</leafValues></_>
        <_>
          <internalNodes>
            0 -1 160 6.4356595976278186e-04</internalNodes>
          <leafValues>
            -1.3564337790012360e-01 1.5540952980518341e-01</leafValues></_>
        <_>
          <internalNodes>
            0 -1 488 2.7997286524623632e-03</internalNodes>
          <leafValues>
            -7.0191189646720886e-02 2.8431066870689392e-01</leafValues></_>
        <_>
          <internalNodes>
            0 -1 283 -1.5459887217730284e-03</internalNodes>
          <leafValues>
            -2.9971542954444885e-01 7.0708610117435455e-02</leafValues></_>
        <_>
          <internalNodes>
            0 -1 399 1.0894881561398506e-02</internalNodes>
          <leafValues>
            3.9231207221746445e-02 -5.1524007320404053e-01</leafValues></_>
        <_>
          <internalNodes>
            0 -1 360 -1.6926925629377365e-02</internalNodes>
          <leafValues>
            -4.2577776312828064e-01 4.6013470739126205e-02</leafValues></_>
        <_>
          <internalNodes>
            0 -1 197 -3.5280315205454826e-03</internalNodes>
          <leafValues>
            -4.0495809912681580e-01 4.7799766063690186e-02</leafValues></_>
        <_>
          <internalNodes>
            0 -1 53 -4.1259935824200511e-04</internalNodes>
          <leafValues>
            -1.9791172444820404e-01 1.0717118531465530e-01</leafValues></_>
        <_>
          <internalNodes>
            0 -1 250 9.3862619251012802e-03</internalNodes>
          <leafValues>
            -1.0924056917428970e-01 1.9791260361671448e-01</leafValues></_>
        <_>
          <internalNodes>
            0 -1 82 -2.0910944789648056e-02</internalNodes>
          <leafValues>
            4.1918513178825378e-01 -5.0562892109155655e-02</leafValues></_>
        <_>
          <internalNodes>
            0 -1 212 -4.0929666720330715e-03</internalNodes>
          <leafValues>
            2.2837775945663452e-01 -9.4462797045707703e-02</leafValues></_>
        <_>
          <internalNodes>
            0 -1 216 1.0589918121695518e-02</internalNodes>
          <leafValues>
            5.1592368632555008e-02 -4.0062084794044495e-01</leafValues></_></weakClassifiers></_>
    <!-- stage 14 -->
    <_>
      <maxWeakCount>57</maxWeakCount>
      <stageThreshold>-1.2200921773910522e+00</stageThreshold>
      <weakClassifiers>
        <_>
          <internalNodes>
            0 -1 252 -1.0965444147586823e-02</internalNodes>
          <leafValues>
            -4.2904291301965714e-02 -4.5958870649337769e-01</leafValues></_>
        <_>
          <internalNodes>
            0 -1 372 7.1157389320433140e-03</internalNodes>
          <leafValues>
            -1.3501448929309845e-01 2.6085934042930603e-01</leafValues></_>
        <_>
          <internalNodes>
            0 -1 458 -5.2745582070201635e-04</internalNodes>
          <leafValues>
            1.5996041893959045e-01 -1.6649155318737030e-01</leafValues></_>
        <_>
          <internalNodes>
            0 -1 478 3.4085609018802643e-02</internalNodes>
          <leafValues>
            -7.6160296797752380e-02 3.4502726793289185e-01</leafValues></_>
        <_>
          <internalNodes>
            0 -1 34 -5.8380454778671265e-02</internalNodes>
          <leafValues>
            2.2259417176246643e-01 -1.0978299379348755e-01</leafValues></_>
        <_>
          <internalNodes>
            0 -1 36 3.0908551067113876e-02</internalNodes>
          <leafValues>
            -5.8974236249923706e-02 3.6933609843254089e-01</leafValues></_>
        <_>
          <internalNodes>
            0 -1 152 3.2019253820180893e-02</internalNodes>
          <leafValues>
            9.7796179354190826e-02 -5.8281135559082031e-01</leafValues></_>
        <_>
          <internalNodes>
            0 -1 47 2.0570896565914154e-02</internalNodes>
          <leafValues>
            -1.2045386433601379e-01 2.8616827726364136e-01</leafValues></_>
        <_>
          <internalNodes>
            0 -1 476 9.8724439740180969e-03</internalNodes>
          <leafValues>
            -5.0659660249948502e-02 3.1497439742088318e-01</leafValues></_>
        <_>
          <internalNodes>
            0 -1 411 9.2708859592676163e-03</internalNodes>
          <leafValues>
            4.3698653578758240e-02 -4.0925428271293640e-01</leafValues></_>
        <_>
          <internalNodes>
            0 -1 461 2.7993120253086090e-02</internalNodes>
          <leafValues>
            4.7129768878221512e-02 -6.8008291721343994e-01</leafValues></_>
        <_>
          <internalNodes>
            0 -1 452 2.3654857650399208e-02</internalNodes>
          <leafValues>
            1.7188671976327896e-02 -4.9467009305953979e-01</leafValues></_>
        <_>
          <internalNodes>
            0 -1 225 2.0637619309127331e-03</internalNodes>
          <leafValues>
            -2.4335430562496185e-01 9.9313452839851379e-02</leafValues></_>
        <_>
          <internalNodes>
            0 -1 169 1.4869904145598412e-02</internalNodes>
          <leafValues>
            2.9510106891393661e-02 -7.1741276979446411e-01</leafValues></_>
        <_>
          <internalNodes>
            0 -1 173 -9.4911013729870319e-04</internalNodes>
          <leafValues>
            1.6690164804458618e-01 -1.4398567378520966e-01</leafValues></_>
        <_>
          <internalNodes>
            0 -1 484 1.6253253445029259e-02</internalNodes>
          <leafValues>
            -5.0303116440773010e-02 3.9313861727714539e-01</leafValues></_>
        <_>
          <internalNodes>
            0 -1 139 -6.2475623562932014e-03</internalNodes>
          <leafValues>
            2.1296633780002594e-01 -1.0882294178009033e-01</leafValues></_>
        <_>
          <internalNodes>
            0 -1 133 8.5591822862625122e-03</internalNodes>
          <leafValues>
            -1.7438887059688568e-01 1.6111983358860016e-01</leafValues></_>
        <_>
          <internalNodes>
            0 -1 229 1.3271311298012733e-02</internalNodes>
          <leafValues>
            1.8003609031438828e-02 -8.9145362377166748e-01</leafValues></_>
        <_>
          <internalNodes>
            0 -1 206 1.0131586343050003e-02</internalNodes>
          <leafValues>
            5.8921191841363907e-02 -3.3269536495208740e-01</leafValues></_>
        <_>
          <internalNodes>
            0 -1 279 2.7989517897367477e-02</internalNodes>
          <leafValues>
            -5.8449033647775650e-02 3.7122353911399841e-01</leafValues></_>
        <_>
          <internalNodes>
            0 -1 372 -2.3881716653704643e-02</internalNodes>
          <leafValues>
            7.5076442956924438e-01 -2.7512654662132263e-02</leafValues></_>
        <_>
          <internalNodes>
            0 -1 500 3.3597216010093689e-02</internalNodes>
          <leafValues>
            5.2926994860172272e-02 -4.2649519443511963e-01</leafValues></_>
        <_>
          <internalNodes>
            0 -1 316 6.5202903933823109e-03</internalNodes>
          <leafValues>
            5.5728547275066376e-02 -3.7578347325325012e-01</leafValues></_>
        <_>
          <internalNodes>
            0 -1 444 5.8186226524412632e-03</internalNodes>
          <leafValues>
            -9.4008423388004303e-02 2.2256167232990265e-01</leafValues></_>
        <_>
          <internalNodes>
            0 -1 446 2.2918537259101868e-02</internalNodes>
          <leafValues>
            -9.9249787628650665e-02 2.0958548784255981e-01</leafValues></_>
        <_>
          <internalNodes>
            0 -1 491 -9.4221048057079315e-03</internalNodes>
          <leafValues>
            4.1167765855789185e-01 -6.3141629099845886e-02</leafValues></_>
        <_>
          <internalNodes>
            0 -1 332 -7.5553555507212877e-04</internalNodes>
          <leafValues>
            1.9263111054897308e-01 -1.1429252475500107e-01</leafValues></_>
        <_>
          <internalNodes>
            0 -1 316 -1.8465102184563875e-03</internalNodes>
          <leafValues>
            -2.6009312272071838e-01 8.4162823855876923e-02</leafValues></_>
        <_>
          <internalNodes>
            0 -1 406 -1.8362442031502724e-02</internalNodes>
          <leafValues>
            -6.1332476139068604e-01 3.2507371157407761e-02</leafValues></_>
        <_>
          <internalNodes>
            0 -1 150 -4.7059985809028149e-03</internalNodes>
