<?xml version="1.0"?>
<opencv_storage>
<stage10>
  <maxWeakCount>35</maxWeakCount>
  <stageThreshold>-1.1230366230010986e+00</stageThreshold>
  <weakClassifiers>
    <_>
      <internalNodes>
        0 -1 51766 1.1525804176926613e-02</internalNodes>
      <leafValues>
        -4.6902653574943542e-01 8.2063302397727966e-03</leafValues></_>
    <_>
      <internalNodes>
        0 -1 25891 1.0433409363031387e-02</internalNodes>
      <leafValues>
        -1.3202799856662750e-01 3.4331610798835754e-01</leafValues></_>
    <_>
      <internalNodes>
        0 -1 26443 -1.1485603172332048e-03</internalNodes>
      <leafValues>
        1.5700143575668335e-01 -2.4294327199459076e-01</leafValues></_>
    <_>
      <internalNodes>
        0 -1 41242 7.0904882159084082e-04</internalNodes>
      <leafValues>
        -2.2770756483078003e-01 1.5253221988677979e-01</leafValues></_>
    <_>
      <internalNodes>
        0 -1 54609 1.2137989979237318e-03</internalNodes>
      <leafValues>
        -1.3932040333747864e-01 2.1796423196792603e-01</leafValues></_>
    <_>
      <internalNodes>
        0 -1 22173 9.9502697587013245e-02</internalNodes>
      <leafValues>
        3.6619681864976883e-02 -7.5040084123611450e-01</leafValues></_>
    <_>
      <internalNodes>
        0 -1 44532 -8.2645521615631878e-05</internalNodes>
      <leafValues>
        1.1580965667963028e-01 -3.0735120177268982e-01</leafValues></_>
    <_>
      <internalNodes>
        0 -1 56203 -2.4079796858131886e-03</internalNodes>
      <leafValues>
        -3.8129347562789917e-01 7.9930357635021210e-02</leafValues></_>
    <_>
      <internalNodes>
        0 -1 12992 -1.2369567994028330e-03</internalNodes>
      <leafValues>
        2.3466905951499939e-01 -1.1844749003648758e-01</leafValues></_>
    <_>
      <internalNodes>
        0 -1 13362 1.2072997167706490e-02</internalNodes>
      <leafValues>
        -1.1088789254426956e-01 2.5523799657821655e-01</leafValues></_>
    <_>
      <internalNodes>
        0 -1 44803 -9.9402572959661484e-04</internalNodes>
      <leafValues>
        2.1620517969131470e-01 -1.2581929564476013e-01</leafValues></_>
    <_>
      <internalNodes>
        0 -1 44540 1.9668474793434143e-02</internalNodes>
      <leafValues>
        5.6411050260066986e-02 -4.9361133575439453e-01</leafValues></_>
    <_>
      <internalNodes>
        0 -1 59273 -7.0876022800803185e-04</internalNodes>
      <leafValues>
        2.0640762150287628e-01 -1.3843150436878204e-01</leafValues></_>
    <_>
      <internalNodes>
        0 -1 38270 3.1030852347612381e-02</internalNodes>
      <leafValues>
        -9.2136651277542114e-02 3.1592419743537903e-01</leafValues></_>
    <_>
      <internalNodes>
        0 -1 47514 5.9748467057943344e-02</internalNodes>
      <leafValues>
        4.3546423316001892e-02 -6.9398564100265503e-01</leafValues></_>
    <_>
      <internalNodes>
        0 -1 46905 7.9522369196638465e-04</internalNodes>
      <leafValues>
        -1.8634906411170959e-01 1.4279143512248993e-01</leafValues></_>
    <_>
      <internalNodes>
        0 -1 37021 -1.2348575517535210e-02</internalNodes>
      <leafValues>
        2.9694038629531860e-01 -1.1228737980127335e-01</leafValues></_>
    <_>
      <internalNodes>
        0 -1 47719 -1.2880384456366301e-03</internalNodes>
      <leafValues>
        2.3681439459323883e-01 -1.1593035608530045e-01</leafValues></_>
    <_>
      <internalNodes>
        0 -1 50000 1.1722070630639791e-03</internalNodes>
      <leafValues>
        -1.2655138969421387e-01 2.0789305865764618e-01</leafValues></_>
    <_>
      <internalNodes>
        0 -1 57419 2.5362358428537846e-03</internalNodes>
      <leafValues>
        -1.5521636605262756e-01 1.6645085811614990e-01</leafValues></_>
    <_>
      <internalNodes>
        0 -1 53897 -9.1559439897537231e-03</internalNodes>
      <leafValues>
        -4.0434995293617249e-01 7.3717564344406128e-02</leafValues></_>
    <_>
      <internalNodes>
        0 -1 48277 8.1255316734313965e-02</internalNodes>
      <leafValues>
        -6.6049717366695404e-02 4.7792264819145203e-01</leafValues></_>
    <_>
      <internalNodes>
        0 -1 44734 1.3448296114802361e-02</internalNodes>
      <leafValues>
        -7.8701771795749664e-02 3.2744327187538147e-01</leafValues></_>
    <_>
      <internalNodes>
        0 -1 37867 6.4790006726980209e-03</internalNodes>
      <leafValues>
        8.2839712500572205e-02 -3.1923004984855652e-01</leafValues></_>
    <_>
      <internalNodes>
        0 -1 41423 1.0943147353827953e-02</internalNodes>
      <leafValues>
        -7.2184823453426361e-02 3.8166719675064087e-01</leafValues></_>
    <_>
      <internalNodes>
        0 -1 56171 -4.7286655753850937e-03</internalNodes>
      <leafValues>
        2.7485051751136780e-01 -1.0676608979701996e-01</leafValues></_>
    <_>
      <internalNodes>
        0 -1 40929 7.8502995893359184e-03</internalNodes>
      <leafValues>
        6.2799341976642609e-02 -4.3256863951683044e-01</leafValues></_>
    <_>
      <internalNodes>
        0 -1 41120 -7.8021902590990067e-03</internalNodes>
      <leafValues>
        -6.0960274934768677e-01 4.2417921125888824e-02</leafValues></_>
    <_>
      <internalNodes>
        0 -1 47168 1.5165377408266068e-02</internalNodes>
      <leafValues>
        3.0257225036621094e-02 -7.0599043369293213e-01</leafValues></_>
    <_>
      <internalNodes>
        0 -1 52178 -1.4099510386586189e-02</internalNodes>
      <leafValues>
        -7.6342481374740601e-01 2.4682834744453430e-02</leafValues></_>
    <_>
      <internalNodes>
        0 -1 55732 -2.5111653376370668e-03</internalNodes>
      <leafValues>
        1.7276181280612946e-01 -1.5062636137008667e-01</leafValues></_>
    <_>
      <internalNodes>
        0 -1 21034 6.3386462628841400e-02</internalNodes>
      <leafValues>
        4.2806923389434814e-02 -6.3224178552627563e-01</leafValues></_>
    <_>
      <internalNodes>
        0 -1 32941 -8.1360407173633575e-02</internalNodes>
      <leafValues>
        -6.5972191095352173e-01 3.2197199761867523e-02</leafValues></_>
    <_>
      <internalNodes>
        0 -1 3291 -6.7272328305989504e-04</internalNodes>
      <leafValues>
        2.0299242436885834e-01 -1.2754614651203156e-01</leafValues></_>
    <_>
      <internalNodes>
        0 -1 37501 -2.6123342104256153e-03</internalNodes>
      <leafValues>
        2.2105550765991211e-01 -1.1339608579874039e-01</leafValues></_></weakClassifiers></stage10>
</opencv_storage>
