<?xml version="1.0"?>
<opencv_storage>
<stage2>
  <maxWeakCount>17</maxWeakCount>
  <stageThreshold>-1.3573269844055176e+00</stageThreshold>
  <weakClassifiers>
    <_>
      <internalNodes>
        0 -1 33806 3.3757379278540611e-03</internalNodes>
      <leafValues>
        -5.9685862064361572e-01 1.2844036519527435e-01</leafValues></_>
    <_>
      <internalNodes>
        0 -1 37831 1.9816905260086060e-03</internalNodes>
      <leafValues>
        -5.0094389915466309e-01 2.3016743361949921e-01</leafValues></_>
    <_>
      <internalNodes>
        0 -1 9001 9.9830105900764465e-03</internalNodes>
      <leafValues>
        -2.2954270243644714e-01 4.3412920832633972e-01</leafValues></_>
    <_>
      <internalNodes>
        0 -1 57568 2.0869009196758270e-02</internalNodes>
      <leafValues>
        -1.2801595032215118e-01 5.9103834629058838e-01</leafValues></_>
    <_>
      <internalNodes>
        0 -1 44532 2.8881886973977089e-03</internalNodes>
      <leafValues>
        1.5063035488128662e-01 -5.8027046918869019e-01</leafValues></_>
    <_>
      <internalNodes>
        0 -1 17746 1.1441216338425875e-03</internalNodes>
      <leafValues>
        -2.0167639851570129e-01 3.7053957581520081e-01</leafValues></_>
    <_>
      <internalNodes>
        0 -1 51965 5.5282907560467720e-03</internalNodes>
      <leafValues>
        1.2569218873977661e-01 -6.0648816823959351e-01</leafValues></_>
    <_>
      <internalNodes>
        0 -1 26638 -7.8136689262464643e-04</internalNodes>
      <leafValues>
        3.4570676088333130e-01 -1.9352769851684570e-01</leafValues></_>
    <_>
      <internalNodes>
        0 -1 58707 -2.0496193319559097e-03</internalNodes>
      <leafValues>
        3.4456950426101685e-01 -1.8241050839424133e-01</leafValues></_>
    <_>
      <internalNodes>
        0 -1 51975 -4.4892832636833191e-02</internalNodes>
      <leafValues>
        -8.0673491954803467e-01 1.0793460160493851e-01</leafValues></_>
    <_>
      <internalNodes>
        0 -1 45734 2.8655525296926498e-02</internalNodes>
      <leafValues>
        -1.8415994942188263e-01 4.3858033418655396e-01</leafValues></_>
    <_>
      <internalNodes>
        0 -1 49872 -1.0509001091122627e-02</internalNodes>
      <leafValues>
        -8.6481642723083496e-01 7.1335278451442719e-02</leafValues></_>
    <_>
      <internalNodes>
        0 -1 34181 1.6132308170199394e-02</internalNodes>
      <leafValues>
        7.0296838879585266e-02 -7.7775901556015015e-01</leafValues></_>
    <_>
      <internalNodes>
        0 -1 52452 1.4379469212144613e-03</internalNodes>
      <leafValues>
        -1.5610352158546448e-01 3.9945861697196960e-01</leafValues></_>
    <_>
      <internalNodes>
        0 -1 52452 -1.4860556693747640e-03</internalNodes>
      <leafValues>
        3.8898065686225891e-01 -1.7143365740776062e-01</leafValues></_>
    <_>
      <internalNodes>
        0 -1 37827 -3.0829953029751778e-03</internalNodes>
      <leafValues>
        -9.0204882621765137e-01 8.9490659534931183e-02</leafValues></_>
    <_>
      <internalNodes>
        0 -1 47449 -3.5368770360946655e-02</internalNodes>
      <leafValues>
        -8.5605603456497192e-01 4.4985964894294739e-02</leafValues></_></weakClassifiers></stage2>
</opencv_storage>
