<?xml version="1.0"?>
<opencv_storage>
<stage0>
  <maxWeakCount>10</maxWeakCount>
  <stageThreshold>-1.8361260890960693e+00</stageThreshold>
  <weakClassifiers>
    <_>
      <internalNodes>
        0 -1 44218 3.2418181654065847e-03</internalNodes>
      <leafValues>
        -7.3709940910339355e-01 3.0802416801452637e-01</leafValues></_>
    <_>
      <internalNodes>
        0 -1 34091 3.1727203167974949e-03</internalNodes>
      <leafValues>
        -5.5869519710540771e-01 3.8796904683113098e-01</leafValues></_>
    <_>
      <internalNodes>
        0 -1 38281 1.0491888970136642e-02</internalNodes>
      <leafValues>
        -3.3740669488906860e-01 5.7151722908020020e-01</leafValues></_>
    <_>
      <internalNodes>
        0 -1 33742 -1.0452391579747200e-03</internalNodes>
      <leafValues>
        5.1337355375289917e-01 -2.9408499598503113e-01</leafValues></_>
    <_>
      <internalNodes>
        0 -1 37840 6.4851820934563875e-04</internalNodes>
      <leafValues>
        -4.8202908039093018e-01 2.8776550292968750e-01</leafValues></_>
    <_>
      <internalNodes>
        0 -1 44108 -5.4638250730931759e-04</internalNodes>
      <leafValues>
        4.0525248646736145e-01 -3.2857638597488403e-01</leafValues></_>
    <_>
      <internalNodes>
        0 -1 34181 1.6240213066339493e-02</internalNodes>
      <leafValues>
        1.6671659052371979e-01 -8.0328577756881714e-01</leafValues></_>
    <_>
      <internalNodes>
        0 -1 57653 -8.3777599502354860e-04</internalNodes>
      <leafValues>
        4.2020472884178162e-01 -3.0206099152565002e-01</leafValues></_>
    <_>
      <internalNodes>
        0 -1 53993 2.0286805927753448e-02</internalNodes>
      <leafValues>
        1.6365079581737518e-01 -6.5207862854003906e-01</leafValues></_>
    <_>
      <internalNodes>
        0 -1 37867 -3.6740908399224281e-03</internalNodes>
      <leafValues>
        -8.7512052059173584e-01 1.0366467386484146e-01</leafValues></_></weakClassifiers></stage0>
</opencv_storage>
