<?xml version="1.0"?>
<opencv_storage>
<stage16>
  <maxWeakCount>66</maxWeakCount>
  <stageThreshold>-1.2145379781723022e+00</stageThreshold>
  <weakClassifiers>
    <_>
      <internalNodes>
        0 -1 41446 -7.9948510974645615e-03</internalNodes>
      <leafValues>
        -2.5974025484174490e-03 -4.4753363728523254e-01</leafValues></_>
    <_>
      <internalNodes>
        0 -1 26239 1.0850209742784500e-02</internalNodes>
      <leafValues>
        -1.7568075656890869e-01 1.7807687819004059e-01</leafValues></_>
    <_>
      <internalNodes>
        0 -1 49646 1.8104084301739931e-03</internalNodes>
      <leafValues>
        -1.5891727805137634e-01 1.6663455963134766e-01</leafValues></_>
    <_>
      <internalNodes>
        0 -1 30333 -4.1803475469350815e-03</internalNodes>
      <leafValues>
        -3.4943276643753052e-01 6.6152229905128479e-02</leafValues></_>
    <_>
      <internalNodes>
        0 -1 17881 -4.0237709879875183e-02</internalNodes>
      <leafValues>
        4.7517904639244080e-01 -3.0761202797293663e-02</leafValues></_>
    <_>
      <internalNodes>
        0 -1 44629 -1.7206240445375443e-02</internalNodes>
      <leafValues>
        4.2900991439819336e-01 -6.4289852976799011e-02</leafValues></_>
    <_>
      <internalNodes>
        0 -1 51817 4.3292697519063950e-03</internalNodes>
      <leafValues>
        7.7027030289173126e-02 -3.0850362777709961e-01</leafValues></_>
    <_>
      <internalNodes>
        0 -1 54444 -3.2088342122733593e-03</internalNodes>
      <leafValues>
        2.6635479927062988e-01 -7.5188010931015015e-02</leafValues></_>
    <_>
      <internalNodes>
        0 -1 52321 1.4232530957087874e-03</internalNodes>
      <leafValues>
        -1.0316705703735352e-01 2.1217639744281769e-01</leafValues></_>
    <_>
      <internalNodes>
        0 -1 52446 -7.9453614307567477e-04</internalNodes>
      <leafValues>
        1.9285534322261810e-01 -1.1396040767431259e-01</leafValues></_>
    <_>
      <internalNodes>
        0 -1 47386 -5.3860638290643692e-03</internalNodes>
      <leafValues>
        -2.0259974896907806e-01 1.1189580708742142e-01</leafValues></_>
    <_>
      <internalNodes>
        0 -1 37869 3.9892224594950676e-04</internalNodes>
      <leafValues>
        -2.9040813446044922e-01 7.4480362236499786e-02</leafValues></_>
    <_>
      <internalNodes>
        0 -1 57932 6.8174847401678562e-03</internalNodes>
      <leafValues>
        3.5088185220956802e-02 -4.4149535894393921e-01</leafValues></_>
    <_>
      <internalNodes>
        0 -1 8010 2.8995253145694733e-02</internalNodes>
      <leafValues>
        2.7593474835157394e-02 -7.2709202766418457e-01</leafValues></_>
    <_>
      <internalNodes>
        0 -1 8635 -7.0905480533838272e-03</internalNodes>
      <leafValues>
        -5.4416644573211670e-01 3.1205421313643456e-02</leafValues></_>
    <_>
      <internalNodes>
        0 -1 29726 3.4781217575073242e-02</internalNodes>
      <leafValues>
        -3.1508136540651321e-02 4.8842516541481018e-01</leafValues></_>
    <_>
      <internalNodes>
        0 -1 13031 -1.0825295466929674e-03</internalNodes>
      <leafValues>
        1.6612493991851807e-01 -1.1828450858592987e-01</leafValues></_>
    <_>
      <internalNodes>
        0 -1 44135 -5.5871374206617475e-04</internalNodes>
      <leafValues>
        1.2611383199691772e-01 -1.6631053388118744e-01</leafValues></_>
    <_>
      <internalNodes>
        0 -1 37517 1.0918553918600082e-02</internalNodes>
      <leafValues>
        2.7593275532126427e-02 -8.5718429088592529e-01</leafValues></_>
    <_>
      <internalNodes>
        0 -1 3989 6.9973021745681763e-03</internalNodes>
      <leafValues>
        -8.2703381776809692e-02 2.7497625350952148e-01</leafValues></_>
    <_>
      <internalNodes>
        0 -1 47479 -9.4314033049158752e-05</internalNodes>
      <leafValues>
        1.4626699686050415e-01 -1.3584746420383453e-01</leafValues></_>
    <_>
      <internalNodes>
        0 -1 52030 3.0454215593636036e-03</internalNodes>
      <leafValues>
        8.2488954067230225e-02 -2.6587760448455811e-01</leafValues></_>
    <_>
      <internalNodes>
        0 -1 3793 -3.6837510764598846e-02</internalNodes>
      <leafValues>
        -6.0574775934219360e-01 3.0618883669376373e-02</leafValues></_>
    <_>
      <internalNodes>
        0 -1 58817 -2.6704142801463604e-03</internalNodes>
      <leafValues>
        2.2226963937282562e-01 -8.7078601121902466e-02</leafValues></_>
    <_>
      <internalNodes>
        0 -1 57649 -2.5928765535354614e-03</internalNodes>
      <leafValues>
        2.1598391234874725e-01 -8.9516162872314453e-02</leafValues></_>
    <_>
      <internalNodes>
        0 -1 4677 1.2349421158432961e-03</internalNodes>
      <leafValues>
        9.3583650887012482e-02 -2.1197465062141418e-01</leafValues></_>
    <_>
      <internalNodes>
        0 -1 58658 4.5107989571988583e-03</internalNodes>
      <leafValues>
        -9.5981664955615997e-02 1.9693486392498016e-01</leafValues></_>
    <_>
      <internalNodes>
        0 -1 33742 -4.6061680768616498e-04</internalNodes>
      <leafValues>
        1.1920592933893204e-01 -1.6351924836635590e-01</leafValues></_>
    <_>
      <internalNodes>
        0 -1 4782 2.1500310394912958e-03</internalNodes>
      <leafValues>
        6.9748304784297943e-02 -2.7947789430618286e-01</leafValues></_>
    <_>
      <internalNodes>
        0 -1 49045 9.2931203544139862e-03</internalNodes>
      <leafValues>
        -5.8894798159599304e-02 3.4345269203186035e-01</leafValues></_>
    <_>
      <internalNodes>
        0 -1 57824 -3.0210237018764019e-03</internalNodes>
      <leafValues>
        2.4404375255107880e-01 -7.9073518514633179e-02</leafValues></_>
    <_>
      <internalNodes>
        0 -1 38322 2.1552542224526405e-02</internalNodes>
      <leafValues>
        -1.2536010146141052e-01 1.7987196147441864e-01</leafValues></_>
    <_>
      <internalNodes>
        0 -1 18101 1.9327056407928467e-01</internalNodes>
      <leafValues>
        3.3732172101736069e-02 -5.6789237260818481e-01</leafValues></_>
    <_>
      <internalNodes>
        0 -1 49833 -8.5177775472402573e-03</internalNodes>
      <leafValues>
        -5.7844901084899902e-01 3.1176945194602013e-02</leafValues></_>
    <_>
      <internalNodes>
        0 -1 695 -1.4482273720204830e-02</internalNodes>
      <leafValues>
        -2.4057307839393616e-01 7.6597474515438080e-02</leafValues></_>
    <_>
      <internalNodes>
        0 -1 26898 -2.9644548892974854e-02</internalNodes>
      <leafValues>
        2.2690826654434204e-01 -8.9098416268825531e-02</leafValues></_>
    <_>
      <internalNodes>
        0 -1 18117 -5.2553400397300720e-02</internalNodes>
      <leafValues>
        -6.0293805599212646e-01 3.8602273911237717e-02</leafValues></_>
    <_>
      <internalNodes>
        0 -1 26196 1.7598086968064308e-02</internalNodes>
      <leafValues>
        4.4431503862142563e-02 -4.0098193287849426e-01</leafValues></_>
    <_>
      <internalNodes>
        0 -1 21963 -1.0895486921072006e-02</internalNodes>
      <leafValues>
        2.7967578172683716e-01 -8.4926918148994446e-02</leafValues></_>
    <_>
      <internalNodes>
        0 -1 30206 2.1186363883316517e-03</internalNodes>
      <leafValues>
        -1.1665759980678558e-01 1.7424821853637695e-01</leafValues></_>
    <_>
      <internalNodes>
        0 -1 26479 -2.6576309464871883e-03</internalNodes>
      <leafValues>
        1.7408105731010437e-01 -1.1436312645673752e-01</leafValues></_>
    <_>
      <internalNodes>
        0 -1 13391 -6.0727652162313461e-03</internalNodes>
      <leafValues>
        -1.4792731404304504e-01 1.4440202713012695e-01</leafValues></_>
    <_>
      <internalNodes>
        0 -1 38015 1.2473476817831397e-04</internalNodes>
      <leafValues>
        -2.2204247117042542e-01 9.2528782784938812e-02</leafValues></_>
    <_>
      <internalNodes>
        0 -1 25161 -2.5678819045424461e-02</internalNodes>
      <leafValues>
        3.0987620353698730e-01 -6.7404679954051971e-02</leafValues></_>
    <_>
      <internalNodes>
        0 -1 19251 -1.9222185947000980e-03</internalNodes>
      <leafValues>
        1.7532545328140259e-01 -1.2286883592605591e-01</leafValues></_>
    <_>
      <internalNodes>
        0 -1 8836 -4.9253825098276138e-02</internalNodes>
      <leafValues>
        3.1306126713752747e-01 -6.6970147192478180e-02</leafValues></_>
    <_>
      <internalNodes>
        0 -1 33757 -4.3100817129015923e-03</internalNodes>
      <leafValues>
        2.3143643140792847e-01 -9.3833521008491516e-02</leafValues></_>
    <_>
      <internalNodes>
        0 -1 49112 -9.9436808377504349e-03</internalNodes>
      <leafValues>
        -5.8518034219741821e-01 3.9566863328218460e-02</leafValues></_>
    <_>
      <internalNodes>
        0 -1 17463 -2.8875684365630150e-03</internalNodes>
      <leafValues>
        -3.5574004054069519e-01 5.0739191472530365e-02</leafValues></_>
    <_>
      <internalNodes>
        0 -1 25497 -9.0878633782267570e-03</internalNodes>
      <leafValues>
        2.7257102727890015e-01 -6.8451419472694397e-02</leafValues></_>
    <_>
      <internalNodes>
        0 -1 44525 6.6908625885844231e-03</internalNodes>
      <leafValues>
        2.2292358800768852e-02 -8.1450271606445312e-01</leafValues></_>
    <_>
      <internalNodes>
        0 -1 43838 -9.0772606199607253e-04</internalNodes>
      <leafValues>
        1.1852550506591797e-01 -1.6377672553062439e-01</leafValues></_>
    <_>
      <internalNodes>
        0 -1 37867 1.0680502280592918e-02</internalNodes>
      <leafValues>
        2.9097460210323334e-02 -6.7634552717208862e-01</leafValues></_>
    <_>
      <internalNodes>
        0 -1 46909 4.6060639433562756e-03</internalNodes>
      <leafValues>
        -9.8224639892578125e-02 1.9392615556716919e-01</leafValues></_>
    <_>
      <internalNodes>
        0 -1 47297 5.0180376274511218e-04</internalNodes>
      <leafValues>
        -1.1485747992992401e-01 1.7652647197246552e-01</leafValues></_>
    <_>
      <internalNodes>
        0 -1 41202 -2.8038462623953819e-03</internalNodes>
      <leafValues>
        -5.5888825654983521e-01 3.6927983164787292e-02</leafValues></_>
    <_>
      <internalNodes>
        0 -1 46317 -1.1869269423186779e-02</internalNodes>
      <leafValues>
        -4.1373750567436218e-01 3.9707522839307785e-02</leafValues></_>
    <_>
      <internalNodes>
        0 -1 49460 3.8039027713239193e-03</internalNodes>
      <leafValues>
        -1.0104525089263916e-01 2.0692110061645508e-01</leafValues></_>
    <_>
      <internalNodes>
        0 -1 55561 -2.2933133877813816e-03</internalNodes>
      <leafValues>
        1.9389979541301727e-01 -1.3867822289466858e-01</leafValues></_>
    <_>
      <internalNodes>
        0 -1 49463 6.5915789455175400e-03</internalNodes>
      <leafValues>
        5.9616062790155411e-02 -3.3476716279983521e-01</leafValues></_>
    <_>
      <internalNodes>
        0 -1 51764 1.1952355504035950e-02</internalNodes>
      <leafValues>
        -3.7857737392187119e-02 6.1206871271133423e-01</leafValues></_>
    <_>
      <internalNodes>
        0 -1 43256 1.6333885490894318e-02</internalNodes>
      <leafValues>
        -4.1506744921207428e-02 4.6578410267829895e-01</leafValues></_>
    <_>
      <internalNodes>
        0 -1 24432 -5.2080500870943069e-02</internalNodes>
      <leafValues>
        6.0264539718627930e-01 -2.9167769476771355e-02</leafValues></_>
    <_>
      <internalNodes>
        0 -1 17321 1.0704609751701355e-01</internalNodes>
      <leafValues>
        3.0257593840360641e-02 -7.1776169538497925e-01</leafValues></_>
    <_>
      <internalNodes>
        0 -1 55997 4.2054016143083572e-02</internalNodes>
      <leafValues>
        -4.1943993419408798e-02 5.0937581062316895e-01</leafValues></_>
    <_>
      <internalNodes>
        0 -1 25149 7.0939637720584869e-02</internalNodes>
      <leafValues>
        2.9236864298582077e-02 -6.7774689197540283e-01</leafValues></_></weakClassifiers></stage16>
</opencv_storage>
