<?xml version="1.0"?>
<opencv_storage>
<cascade>
  <stageType>BOOST</stageType>
  <featureType>HAAR</featureType>
  <height>20</height>
  <width>17</width>
  <stageParams>
    <boostType>GAB</boostType>
    <minHitRate>9.9500000476837158e-01</minHitRate>
    <maxFalseAlarm>5.0000000000000000e-01</maxFalseAlarm>
    <weightTrimRate>9.4999999999999996e-01</weightTrimRate>
    <maxDepth>1</maxDepth>
    <maxWeakCount>100</maxWeakCount></stageParams>
  <featureParams>
    <maxCatCount>0</maxCatCount>
    <featSize>1</featSize>
    <mode>ALL</mode></featureParams>
  <stageNum>15</stageNum>
  <stages>
    <!-- stage 0 -->
    <_>
      <maxWeakCount>12</maxWeakCount>
      <stageThreshold>-1.7001419067382812e+00</stageThreshold>
      <weakClassifiers>
        <_>
          <internalNodes>
            0 -1 176 2.4072755128145218e-02</internalNodes>
          <leafValues>
            -5.8055806159973145e-01 3.7275063991546631e-01</leafValues></_>
        <_>
          <internalNodes>
            0 -1 382 -3.2801188528537750e-02</internalNodes>
          <leafValues>
            5.4784977436065674e-01 -2.8474587202072144e-01</leafValues></_>
        <_>
          <internalNodes>
            0 -1 14 1.4410018920898438e-03</internalNodes>
          <leafValues>
            -2.5338211655616760e-01 4.8474565148353577e-01</leafValues></_>
        <_>
          <internalNodes>
            0 -1 36 5.0659715197980404e-03</internalNodes>
          <leafValues>
            -2.4446341395378113e-01 5.1065772771835327e-01</leafValues></_>
        <_>
          <internalNodes>
            0 -1 431 -8.7908562272787094e-03</internalNodes>
          <leafValues>
            6.7214429378509521e-01 -1.2970653176307678e-01</leafValues></_>
        <_>
          <internalNodes>
            0 -1 163 -2.7633365243673325e-03</internalNodes>
          <leafValues>
            5.4996120929718018e-01 -1.6830894351005554e-01</leafValues></_>
        <_>
          <internalNodes>
            0 -1 103 -8.8941771537065506e-03</internalNodes>
          <leafValues>
            5.3437429666519165e-01 -1.7928636074066162e-01</leafValues></_>
        <_>
          <internalNodes>
            0 -1 162 -2.5546601973474026e-03</internalNodes>
          <leafValues>
            5.3749889135360718e-01 -1.7079524695873260e-01</leafValues></_>
        <_>
          <internalNodes>
            0 -1 214 3.5685263574123383e-03</internalNodes>
          <leafValues>
            -1.6241164505481720e-01 5.7482093572616577e-01</leafValues></_>
        <_>
          <internalNodes>
            0 -1 219 1.8139172345399857e-02</internalNodes>
          <leafValues>
            1.8360970914363861e-01 -7.5673276185989380e-01</leafValues></_>
        <_>
          <internalNodes>
            0 -1 412 -5.6566474959254265e-03</internalNodes>
          <leafValues>
            4.5192027091979980e-01 -2.3442390561103821e-01</leafValues></_>
        <_>
          <internalNodes>
            0 -1 45 -1.0598697699606419e-03</internalNodes>
          <leafValues>
            4.1899418830871582e-01 -2.3079068958759308e-01</leafValues></_></weakClassifiers></_>
    <!-- stage 1 -->
    <_>
      <maxWeakCount>19</maxWeakCount>
      <stageThreshold>-1.3974765539169312e+00</stageThreshold>
      <weakClassifiers>
        <_>
          <internalNodes>
            0 -1 131 -1.3690748251974583e-02</internalNodes>
          <leafValues>
            9.6657633781433105e-02 -5.8478605747222900e-01</leafValues></_>
        <_>
          <internalNodes>
            0 -1 393 -2.0669780671596527e-02</internalNodes>
          <leafValues>
            4.6169361472129822e-01 -2.1008948981761932e-01</leafValues></_>
        <_>
          <internalNodes>
            0 -1 31 6.0823699459433556e-03</internalNodes>
          <leafValues>
            -1.2110803276300430e-01 6.1107790470123291e-01</leafValues></_>
        <_>
          <internalNodes>
            0 -1 76 1.9624452106654644e-03</internalNodes>
          <leafValues>
            -1.9725070893764496e-01 3.8781487941741943e-01</leafValues></_>
        <_>
          <internalNodes>
            0 -1 281 -4.4088535942137241e-03</internalNodes>
          <leafValues>
            5.0189799070358276e-01 -1.2156637758016586e-01</leafValues></_>
        <_>
          <internalNodes>
            0 -1 345 1.2550475075840950e-02</internalNodes>
          <leafValues>
            8.0797120928764343e-02 -7.9344922304153442e-01</leafValues></_>
        <_>
          <internalNodes>
            0 -1 359 2.0911395549774170e-03</internalNodes>
          <leafValues>
            -1.7255464196205139e-01 3.8228246569633484e-01</leafValues></_>
        <_>
          <internalNodes>
            0 -1 54 2.4627922102808952e-02</internalNodes>
          <leafValues>
            -1.2558035552501678e-01 4.8666301369667053e-01</leafValues></_>
        <_>
          <internalNodes>
            0 -1 251 -5.2793048322200775e-02</internalNodes>
          <leafValues>
            -6.8163186311721802e-01 9.2186726629734039e-02</leafValues></_>
        <_>
          <internalNodes>
            0 -1 288 9.2386025935411453e-03</internalNodes>
          <leafValues>
            1.1047912389039993e-01 -6.4705425500869751e-01</leafValues></_>
        <_>
          <internalNodes>
            0 -1 90 2.2181000560522079e-02</internalNodes>
          <leafValues>
            -1.3076317310333252e-01 5.7337307929992676e-01</leafValues></_>
        <_>
          <internalNodes>
            0 -1 34 -1.1046694125980139e-03</internalNodes>
          <leafValues>
            3.6642950773239136e-01 -1.6307055950164795e-01</leafValues></_>
        <_>
          <internalNodes>
            0 -1 141 1.0619364678859711e-02</internalNodes>
          <leafValues>
            -1.1260551214218140e-01 4.8434025049209595e-01</leafValues></_>
        <_>
          <internalNodes>
            0 -1 214 -4.2720478959381580e-03</internalNodes>
          <leafValues>
            4.9325042963027954e-01 -1.5913319587707520e-01</leafValues></_>
        <_>
          <internalNodes>
            0 -1 377 3.5356457810848951e-03</internalNodes>
          <leafValues>
            1.0597027838230133e-01 -6.2686288356781006e-01</leafValues></_>
        <_>
          <internalNodes>
            0 -1 260 5.3133994340896606e-02</internalNodes>
          <leafValues>
            -9.6461653709411621e-02 6.0246384143829346e-01</leafValues></_>
        <_>
          <internalNodes>
            0 -1 354 3.3270264975726604e-04</internalNodes>
          <leafValues>
            -2.7113109827041626e-01 2.4529488384723663e-01</leafValues></_>
        <_>
          <internalNodes>
            0 -1 297 4.6893000602722168e-02</internalNodes>
          <leafValues>
            9.1027788817882538e-02 -7.2180473804473877e-01</leafValues></_>
        <_>
          <internalNodes>
            0 -1 97 -1.8079415895044804e-03</internalNodes>
          <leafValues>
            2.9950422048568726e-01 -1.8645437061786652e-01</leafValues></_></weakClassifiers></_>
    <!-- stage 2 -->
    <_>
      <maxWeakCount>20</maxWeakCount>
      <stageThreshold>-1.3838090896606445e+00</stageThreshold>
      <weakClassifiers>
        <_>
          <internalNodes>
            0 -1 192 4.2920880019664764e-02</internalNodes>
          <leafValues>
            -4.7096773982048035e-01 3.2307693362236023e-01</leafValues></_>
        <_>
          <internalNodes>
            0 -1 38 -1.5450515784323215e-03</internalNodes>
          <leafValues>
            4.5091190934181213e-01 -2.0877170562744141e-01</leafValues></_>
        <_>
          <internalNodes>
            0 -1 79 -8.0520641058683395e-03</internalNodes>
          <leafValues>
            4.6982285380363464e-01 -1.9599625468254089e-01</leafValues></_>
        <_>
          <internalNodes>
            0 -1 75 5.6878440082073212e-03</internalNodes>
          <leafValues>
            -1.6078552603721619e-01 4.0575161576271057e-01</leafValues></_>
        <_>
          <internalNodes>
            0 -1 145 2.3894269019365311e-02</internalNodes>
          <leafValues>
            -1.2156046181917191e-01 5.2748733758926392e-01</leafValues></_>
        <_>
          <internalNodes>
            0 -1 222 -3.3921144902706146e-02</internalNodes>
          <leafValues>
            6.1934524774551392e-01 -9.8512455821037292e-02</leafValues></_>
        <_>
          <internalNodes>
            0 -1 307 1.7624939791858196e-03</internalNodes>
          <leafValues>
            -1.2536334991455078e-01 4.9730581045150757e-01</leafValues></_>
        <_>
          <internalNodes>
            0 -1 270 1.6976875485852361e-03</internalNodes>
          <leafValues>
            -1.2345600873231888e-01 4.6610388159751892e-01</leafValues></_>
        <_>
          <internalNodes>
            0 -1 28 1.8938537687063217e-03</internalNodes>
          <leafValues>
            -1.1560449749231339e-01 4.9818137288093567e-01</leafValues></_>
        <_>
          <internalNodes>
            0 -1 358 2.0293977111577988e-02</internalNodes>
          <leafValues>
            -1.1725477874279022e-01 4.9521991610527039e-01</leafValues></_>
        <_>
          <internalNodes>
            0 -1 326 -9.4638410955667496e-03</internalNodes>
          <leafValues>
            4.5041844248771667e-01 -1.5984010696411133e-01</leafValues></_>
        <_>
          <internalNodes>
            0 -1 199 1.2008022516965866e-02</internalNodes>
          <leafValues>
            1.2487757951021194e-01 -8.5471171140670776e-01</leafValues></_>
        <_>
          <internalNodes>
            0 -1 319 7.7268618042580783e-05</internalNodes>
          <leafValues>
            -4.0103679895401001e-01 1.7200516164302826e-01</leafValues></_>
        <_>
          <internalNodes>
            0 -1 351 -5.5441400036215782e-03</internalNodes>
          <leafValues>
            -7.8615003824234009e-01 8.3102159202098846e-02</leafValues></_>
        <_>
          <internalNodes>
            0 -1 283 1.1622663587331772e-03</internalNodes>
          <leafValues>
            -1.5552271902561188e-01 3.8344651460647583e-01</leafValues></_>
        <_>
          <internalNodes>
            0 -1 283 -7.7870365930721164e-04</internalNodes>
          <leafValues>
            3.7988600134849548e-01 -1.8731510639190674e-01</leafValues></_>
        <_>
          <internalNodes>
            0 -1 212 1.6931521240621805e-03</internalNodes>
          <leafValues>
            -1.4782491326332092e-01 3.6859008669853210e-01</leafValues></_>
        <_>
          <internalNodes>
            0 -1 293 2.0000316202640533e-02</internalNodes>
          <leafValues>
            1.0686007142066956e-01 -6.8835711479187012e-01</leafValues></_>
        <_>
          <internalNodes>
            0 -1 53 -8.5542965680360794e-03</internalNodes>
          <leafValues>
            4.3614131212234497e-01 -1.5417726337909698e-01</leafValues></_>
        <_>
          <internalNodes>
            0 -1 369 -3.2615070231258869e-03</internalNodes>
          <leafValues>
            -4.6938815712928772e-01 1.3983444869518280e-01</leafValues></_></weakClassifiers></_>
    <!-- stage 3 -->
    <_>
      <maxWeakCount>24</maxWeakCount>
      <stageThreshold>-1.3859900236129761e+00</stageThreshold>
      <weakClassifiers>
        <_>
          <internalNodes>
            0 -1 367 6.9724231958389282e-02</internalNodes>
          <leafValues>
            -4.5637843012809753e-01 4.2042756080627441e-01</leafValues></_>
        <_>
          <internalNodes>
            0 -1 134 -1.6394570469856262e-02</internalNodes>
          <leafValues>
            2.8084629774093628e-01 -2.8631776571273804e-01</leafValues></_>
        <_>
          <internalNodes>
            0 -1 9 1.3120630756020546e-02</internalNodes>
          <leafValues>
            -1.3319137692451477e-01 5.6005227565765381e-01</leafValues></_>
        <_>
          <internalNodes>
            0 -1 312 -1.6054935753345490e-02</internalNodes>
          <leafValues>
            4.8098996281623840e-01 -1.3569501042366028e-01</leafValues></_>
        <_>
          <internalNodes>
            0 -1 278 -9.1319549828767776e-03</internalNodes>
          <leafValues>
            3.1251931190490723e-01 -1.8863192200660706e-01</leafValues></_>
        <_>
          <internalNodes>
            0 -1 430 -1.1982669122517109e-02</internalNodes>
          <leafValues>
            4.6677842736244202e-01 -1.2274359166622162e-01</leafValues></_>
        <_>
          <internalNodes>
            0 -1 358 -1.9355475902557373e-02</internalNodes>
          <leafValues>
            4.5902687311172485e-01 -1.1958903074264526e-01</leafValues></_>
        <_>
          <internalNodes>
            0 -1 59 1.6605417476966977e-03</internalNodes>
          <leafValues>
            -1.2786448001861572e-01 4.0410667657852173e-01</leafValues></_>
        <_>
          <internalNodes>
            0 -1 126 1.6675007063895464e-03</internalNodes>
          <leafValues>
            -1.5187919139862061e-01 3.5748425126075745e-01</leafValues></_>
        <_>
          <internalNodes>
            0 -1 93 -1.6171531751751900e-02</internalNodes>
          <leafValues>
            -5.4885786771774292e-01 8.2881778478622437e-02</leafValues></_>
        <_>
          <internalNodes>
            0 -1 1 9.9586248397827148e-03</internalNodes>
          <leafValues>
            -1.4868396520614624e-01 3.4848499298095703e-01</leafValues></_>
        <_>
          <internalNodes>
            0 -1 238 -1.9947107881307602e-02</internalNodes>
          <leafValues>
            4.3032968044281006e-01 -1.3179589807987213e-01</leafValues></_>
        <_>
          <internalNodes>
            0 -1 159 -9.6241582650691271e-04</internalNodes>
          <leafValues>
            3.0872800946235657e-01 -1.6649650037288666e-01</leafValues></_>
        <_>
          <internalNodes>
            0 -1 289 1.8919479101896286e-02</internalNodes>
          <leafValues>
            6.5324388444423676e-02 -9.1745436191558838e-01</leafValues></_>
        <_>
          <internalNodes>
            0 -1 338 -2.6911422610282898e-03</internalNodes>
          <leafValues>
            -4.3625724315643311e-01 1.0026938468217850e-01</leafValues></_>
        <_>
          <internalNodes>
            0 -1 333 2.2028360515832901e-02</internalNodes>
          <leafValues>
            -1.6908177733421326e-01 3.5662978887557983e-01</leafValues></_>
        <_>
          <internalNodes>
            0 -1 247 -1.2346744537353516e-02</internalNodes>
          <leafValues>
            4.2607209086418152e-01 -1.4149668812751770e-01</leafValues></_>
        <_>
          <internalNodes>
            0 -1 189 2.9779453761875629e-03</internalNodes>
          <leafValues>
            -1.3025319576263428e-01 3.8555425405502319e-01</leafValues></_>
        <_>
          <internalNodes>
            0 -1 29 5.3656715899705887e-03</internalNodes>
          <leafValues>
            -1.3653585314750671e-01 3.6425802111625671e-01</leafValues></_>
        <_>
          <internalNodes>
            0 -1 42 -4.8894342035055161e-03</internalNodes>
          <leafValues>
            3.0430230498313904e-01 -1.6847360134124756e-01</leafValues></_>
        <_>
          <internalNodes>
            0 -1 250 9.3061998486518860e-03</internalNodes>
          <leafValues>
            7.9742640256881714e-02 -6.3552266359329224e-01</leafValues></_>
        <_>
          <internalNodes>
            0 -1 253 1.3018215075135231e-02</internalNodes>
          <leafValues>
            8.5453711450099945e-02 -5.3036874532699585e-01</leafValues></_>
        <_>
          <internalNodes>
            0 -1 272 -1.0538543574512005e-03</internalNodes>
          <leafValues>
            3.1515544652938843e-01 -1.6217571496963501e-01</leafValues></_>
        <_>
          <internalNodes>
            0 -1 272 1.3117239577695727e-03</internalNodes>
          <leafValues>
            -1.5207792818546295e-01 3.9038896560668945e-01</leafValues></_></weakClassifiers></_>
    <!-- stage 4 -->
    <_>
      <maxWeakCount>28</maxWeakCount>
      <stageThreshold>-1.3413718938827515e+00</stageThreshold>
      <weakClassifiers>
        <_>
          <internalNodes>
            0 -1 169 -2.0952429622411728e-02</internalNodes>
          <leafValues>
            1.4008322358131409e-01 -4.8310661315917969e-01</leafValues></_>
        <_>
          <internalNodes>
            0 -1 381 -3.2925970852375031e-02</internalNodes>
          <leafValues>
            3.3100014925003052e-01 -2.0725220441818237e-01</leafValues></_>
        <_>
          <internalNodes>
            0 -1 166 1.0448589920997620e-02</internalNodes>
          <leafValues>
            -1.2151315063238144e-01 4.3690827488899231e-01</leafValues></_>
        <_>
          <internalNodes>
            0 -1 313 2.7262723073363304e-02</internalNodes>
          <leafValues>
            -1.4496679604053497e-01 4.5403641462326050e-01</leafValues></_>
        <_>
          <internalNodes>
            0 -1 70 -1.1134582571685314e-02</internalNodes>
          <leafValues>
            4.5097789168357849e-01 -1.0209710896015167e-01</leafValues></_>
        <_>
          <internalNodes>
            0 -1 135 -4.4418629258871078e-03</internalNodes>
          <leafValues>
            2.5163161754608154e-01 -2.1422849595546722e-01</leafValues></_>
        <_>
          <internalNodes>
            0 -1 165 7.0514958351850510e-03</internalNodes>
          <leafValues>
            -1.1712781339883804e-01 3.8310447335243225e-01</leafValues></_>
        <_>
          <internalNodes>
            0 -1 258 1.1225434020161629e-02</internalNodes>
          <leafValues>
            1.5890552103519440e-01 -3.9426589012145996e-01</leafValues></_>
        <_>
          <internalNodes>
            0 -1 209 8.0373296514153481e-03</internalNodes>
          <leafValues>
            -1.8588021397590637e-01 2.8512814640998840e-01</leafValues></_>
        <_>
          <internalNodes>
            0 -1 432 1.0774467140436172e-02</internalNodes>
          <leafValues>
            -6.9759383797645569e-02 4.6870639920234680e-01</leafValues></_>
        <_>
          <internalNodes>
            0 -1 436 -1.1231284588575363e-02</internalNodes>
          <leafValues>
            3.4099280834197998e-01 -1.5705822408199310e-01</leafValues></_>
        <_>
          <internalNodes>
            0 -1 92 3.1107284594327211e-03</internalNodes>
          <leafValues>
            -2.0611645281314850e-01 2.4362213909626007e-01</leafValues></_>
        <_>
          <internalNodes>
            0 -1 65 -4.2559293797239661e-04</internalNodes>
          <leafValues>
            2.7568951249122620e-01 -1.8384414911270142e-01</leafValues></_>
        <_>
          <internalNodes>
            0 -1 163 -3.7935362197458744e-03</internalNodes>
          <leafValues>
            3.3903911709785461e-01 -1.3637918233871460e-01</leafValues></_>
        <_>
          <internalNodes>
            0 -1 95 1.0536625981330872e-02</internalNodes>
          <leafValues>
            -1.1694363504648209e-01 3.7099859118461609e-01</leafValues></_>
        <_>
          <internalNodes>
            0 -1 386 -2.9009683057665825e-03</internalNodes>
          <leafValues>
            -3.9598077535629272e-01 1.2516388297080994e-01</leafValues></_>
        <_>
          <internalNodes>
            0 -1 23 -2.6562582701444626e-02</internalNodes>
          <leafValues>
            4.1695308685302734e-01 -1.0742224752902985e-01</leafValues></_>
        <_>
          <internalNodes>
            0 -1 109 9.5379585400223732e-04</internalNodes>
          <leafValues>
            -1.6061143577098846e-01 2.9433739185333252e-01</leafValues></_>
        <_>
          <internalNodes>
            0 -1 353 5.3016573190689087e-02</internalNodes>
          <leafValues>
            6.6847041249275208e-02 -6.1917239427566528e-01</leafValues></_>
        <_>
          <internalNodes>
            0 -1 314 7.0296702906489372e-03</internalNodes>
          <leafValues>
            6.7145824432373047e-02 -5.5726140737533569e-01</leafValues></_>
        <_>
          <internalNodes>
            0 -1 220 6.9780135527253151e-03</internalNodes>
          <leafValues>
            4.7443933784961700e-02 -7.8567802906036377e-01</leafValues></_>
        <_>
          <internalNodes>
            0 -1 89 -3.8191867060959339e-03</internalNodes>
          <leafValues>
            2.7741876244544983e-01 -1.5394279360771179e-01</leafValues></_>
        <_>
          <internalNodes>
            0 -1 146 1.1796088656410575e-03</internalNodes>
          <leafValues>
            -1.5262198448181152e-01 3.0557844042778015e-01</leafValues></_>
        <_>
          <internalNodes>
            0 -1 404 -4.1012912988662720e-02</internalNodes>
          <leafValues>
            4.4945487380027771e-01 -9.0704627335071564e-02</leafValues></_>
        <_>
          <internalNodes>
            0 -1 407 -6.9065624848008156e-03</internalNodes>
          <leafValues>
            3.5394516587257385e-01 -1.2703019380569458e-01</leafValues></_>
        <_>
          <internalNodes>
            0 -1 69 -9.9072819575667381e-03</internalNodes>
          <leafValues>
            4.3736711144447327e-01 -9.2026069760322571e-02</leafValues></_>
        <_>
          <internalNodes>
            0 -1 419 5.6359735317528248e-03</internalNodes>
          <leafValues>
            -1.1686899513006210e-01 3.2720413804054260e-01</leafValues></_>
        <_>
          <internalNodes>
            0 -1 395 -2.0518247038125992e-03</internalNodes>
          <leafValues>
            2.5038126111030579e-01 -1.6829697787761688e-01</leafValues></_></weakClassifiers></_>
    <!-- stage 5 -->
    <_>
      <maxWeakCount>29</maxWeakCount>
      <stageThreshold>-1.3133949041366577e+00</stageThreshold>
      <weakClassifiers>
        <_>
          <internalNodes>
            0 -1 276 -2.4826366454362869e-02</internalNodes>
          <leafValues>
            1.9063545763492584e-01 -4.6378019452095032e-01</leafValues></_>
        <_>
          <internalNodes>
            0 -1 51 -3.3518183976411819e-02</internalNodes>
          <leafValues>
            2.9578322172164917e-01 -2.1197836101055145e-01</leafValues></_>
        <_>
          <internalNodes>
            0 -1 287 7.7713215432595462e-05</internalNodes>
          <leafValues>
            -2.6907444000244141e-01 1.8350344896316528e-01</leafValues></_>
        <_>
          <internalNodes>
            0 -1 411 5.8933086693286896e-03</internalNodes>
          <leafValues>
            6.9812476634979248e-02 -5.8812266588211060e-01</leafValues></_>
        <_>
          <internalNodes>
            0 -1 357 -4.8173237591981888e-03</internalNodes>
          <leafValues>
            2.9139441251754761e-01 -1.8576616048812866e-01</leafValues></_>
        <_>
          <internalNodes>
            0 -1 331 -1.0678780265152454e-02</internalNodes>
          <leafValues>
            4.3586274981498718e-01 -1.1847153306007385e-01</leafValues></_>
        <_>
          <internalNodes>
            0 -1 290 2.7501091361045837e-02</internalNodes>
          <leafValues>
            -1.1538429558277130e-01 3.9738407731056213e-01</leafValues></_>
        <_>
          <internalNodes>
            0 -1 322 8.8844346464611590e-05</internalNodes>
          <leafValues>
            -2.2340157628059387e-01 1.9656541943550110e-01</leafValues></_>
        <_>
          <internalNodes>
            0 -1 385 -7.0611950941383839e-03</internalNodes>
          <leafValues>
            -7.5948137044906616e-01 4.3568272143602371e-02</leafValues></_>
        <_>
          <internalNodes>
            0 -1 308 -4.8877997323870659e-04</internalNodes>
          <leafValues>
            2.5753182172775269e-01 -1.5142615139484406e-01</leafValues></_>
        <_>
          <internalNodes>
            0 -1 170 -1.1834800243377686e-02</internalNodes>
          <leafValues>
            2.9027467966079712e-01 -1.4701257646083832e-01</leafValues></_>
        <_>
          <internalNodes>
            0 -1 231 -1.2894228566437960e-03</internalNodes>
          <leafValues>
            3.1429451704025269e-01 -1.6313304007053375e-01</leafValues></_>
        <_>
          <internalNodes>
            0 -1 294 1.3791924342513084e-02</internalNodes>
          <leafValues>
            5.8693651109933853e-02 -6.6136121749877930e-01</leafValues></_>
        <_>
          <internalNodes>
            0 -1 365 -1.4159400016069412e-02</internalNodes>
          <leafValues>
            2.8989249467849731e-01 -1.4022891223430634e-01</leafValues></_>
        <_>
          <internalNodes>
            0 -1 268 -1.2655833270400763e-03</internalNodes>
          <leafValues>
            2.7205085754394531e-01 -1.3792908191680908e-01</leafValues></_>
        <_>
          <internalNodes>
            0 -1 271 3.3698428422212601e-02</internalNodes>
          <leafValues>
            6.0276411473751068e-02 -6.6162025928497314e-01</leafValues></_>
        <_>
          <internalNodes>
            0 -1 379 -4.4795731082558632e-03</internalNodes>
          <leafValues>
            -6.2484103441238403e-01 5.8278065174818039e-02</leafValues></_>
        <_>
          <internalNodes>
            0 -1 104 -8.0022690817713737e-03</internalNodes>
          <leafValues>
            3.4552502632141113e-01 -1.2368512898683548e-01</leafValues></_>
        <_>
          <internalNodes>
            0 -1 61 8.6862617172300816e-04</internalNodes>
          <leafValues>
            -1.4961995184421539e-01 2.6408919692039490e-01</leafValues></_>
        <_>
          <internalNodes>
            0 -1 62 -2.7091363444924355e-03</internalNodes>
          <leafValues>
            3.8137093186378479e-01 -1.0541397333145142e-01</leafValues></_>
        <_>
          <internalNodes>
            0 -1 19 4.2579978704452515e-02</internalNodes>
          <leafValues>
            -8.7046973407268524e-02 4.8075291514396667e-01</leafValues></_>
        <_>
          <internalNodes>
            0 -1 168 -4.1614812798798084e-03</internalNodes>
          <leafValues>
            3.3967620134353638e-01 -1.1872062832117081e-01</leafValues></_>
        <_>
          <internalNodes>
            0 -1 161 2.7939141727983952e-03</internalNodes>
          <leafValues>
            -1.3172009587287903e-01 3.3755689859390259e-01</leafValues></_>
        <_>
          <internalNodes>
            0 -1 421 -7.6361661776900291e-03</internalNodes>
          <leafValues>
            -7.6074349880218506e-01 5.0523217767477036e-02</leafValues></_>
        <_>
          <internalNodes>
            0 -1 172 1.9055843353271484e-02</internalNodes>
          <leafValues>
            3.6080412566661835e-02 -7.7441626787185669e-01</leafValues></_>
        <_>
          <internalNodes>
            0 -1 35 -9.4168782234191895e-03</internalNodes>
          <leafValues>
            2.9128563404083252e-01 -1.3214603066444397e-01</leafValues></_>
        <_>
          <internalNodes>
            0 -1 155 -7.4279168620705605e-04</internalNodes>
          <leafValues>
            2.4799540638923645e-01 -1.5058426558971405e-01</leafValues></_>
        <_>
          <internalNodes>
            0 -1 67 2.0600633695721626e-02</internalNodes>
          <leafValues>
            5.4332215338945389e-02 -7.1366649866104126e-01</leafValues></_>
        <_>
          <internalNodes>
            0 -1 130 -1.9371045753359795e-02</internalNodes>
          <leafValues>
            -6.2123173475265503e-01 5.1606770604848862e-02</leafValues></_></weakClassifiers></_>
    <!-- stage 6 -->
    <_>
      <maxWeakCount>32</maxWeakCount>
      <stageThreshold>-1.2043491601943970e+00</stageThreshold>
      <weakClassifiers>
        <_>
          <internalNodes>
            0 -1 217 2.2586114704608917e-02</internalNodes>
          <leafValues>
            -4.8433735966682434e-01 5.4054055362939835e-03</leafValues></_>
        <_>
          <internalNodes>
            0 -1 280 -9.2258425429463387e-03</internalNodes>
          <leafValues>
            2.4190987646579742e-01 -1.9359481334686279e-01</leafValues></_>
        <_>
          <internalNodes>
            0 -1 386 -5.2175153978168964e-03</internalNodes>
          <leafValues>
            -5.1102501153945923e-01 8.3501130342483521e-02</leafValues></_>
        <_>
          <internalNodes>
            0 -1 20 -2.0818991586565971e-02</internalNodes>
          <leafValues>
            2.5440973043441772e-01 -1.3529662787914276e-01</leafValues></_>
        <_>
          <internalNodes>
            0 -1 311 -3.7151295691728592e-02</internalNodes>
          <leafValues>
            5.8251500129699707e-01 -6.2892578542232513e-02</leafValues></_>
        <_>
          <internalNodes>
            0 -1 373 -1.5069447457790375e-02</internalNodes>
          <leafValues>
            2.5008803606033325e-01 -1.5899428725242615e-01</leafValues></_>
        <_>
          <internalNodes>
            0 -1 343 8.2354483311064541e-05</internalNodes>
          <leafValues>
            -2.6826259493827820e-01 1.4853118360042572e-01</leafValues></_>
        <_>
          <internalNodes>
            0 -1 349 1.7219940200448036e-03</internalNodes>
          <leafValues>
            8.8840022683143616e-02 -4.8334050178527832e-01</leafValues></_>
        <_>
          <internalNodes>
            0 -1 383 3.8043238222599030e-02</internalNodes>
          <leafValues>
            -9.9536918103694916e-02 4.0905025601387024e-01</leafValues></_>
        <_>
          <internalNodes>
            0 -1 232 1.6723721055313945e-03</internalNodes>
          <leafValues>
            -1.1704307794570923e-01 3.1397807598114014e-01</leafValues></_>
        <_>
          <internalNodes>
            0 -1 130 1.9325420260429382e-02</internalNodes>
          <leafValues>
            5.3377769887447357e-02 -6.1521780490875244e-01</leafValues></_>
        <_>
          <internalNodes>
            0 -1 337 -2.8398369977367111e-05</internalNodes>
          <leafValues>
            -2.8984391689300537e-01 1.2319190800189972e-01</leafValues></_>
        <_>
          <internalNodes>
            0 -1 197 2.2150425240397453e-02</internalNodes>
          <leafValues>
            5.4472099989652634e-02 -6.7111718654632568e-01</leafValues></_>
        <_>
          <internalNodes>
            0 -1 7 1.2934917584061623e-02</internalNodes>
          <leafValues>
            -1.3154374063014984e-01 2.8150540590286255e-01</leafValues></_>
        <_>
          <internalNodes>
            0 -1 4 -6.8379067815840244e-03</internalNodes>
          <leafValues>
            2.9735571146011353e-01 -1.3668507337570190e-01</leafValues></_>
        <_>
          <internalNodes>
            0 -1 187 7.0388219319283962e-03</internalNodes>
          <leafValues>
            6.8259142339229584e-02 -6.5257787704467773e-01</leafValues></_>
        <_>
          <internalNodes>
            0 -1 257 -7.9169645905494690e-03</internalNodes>
          <leafValues>
            3.3725300431251526e-01 -1.0694444924592972e-01</leafValues></_>
        <_>
          <internalNodes>
            0 -1 88 -7.7547961845993996e-03</internalNodes>
          <leafValues>
            3.0251988768577576e-01 -1.1670324951410294e-01</leafValues></_>
        <_>
          <internalNodes>
            0 -1 118 -6.6326593514531851e-04</internalNodes>
          <leafValues>
            2.4633243680000305e-01 -1.4712767302989960e-01</leafValues></_>
        <_>
          <internalNodes>
            0 -1 194 -4.0298397652804852e-03</internalNodes>
          <leafValues>
            -6.6582041978836060e-01 5.6970689445734024e-02</leafValues></_>
        <_>
          <internalNodes>
            0 -1 177 1.6932769212871790e-03</internalNodes>
          <leafValues>
            -1.1929982900619507e-01 2.9004746675491333e-01</leafValues></_>
        <_>
          <internalNodes>
            0 -1 73 2.0079713314771652e-02</internalNodes>
          <leafValues>
            4.7590237110853195e-02 -6.9991296529769897e-01</leafValues></_>
        <_>
          <internalNodes>
            0 -1 402 9.0261660516262054e-03</internalNodes>
          <leafValues>
            -1.3142213225364685e-01 2.9068893194198608e-01</leafValues></_>
        <_>
          <internalNodes>
            0 -1 226 -2.9587473254650831e-03</internalNodes>
          <leafValues>
            2.5570911169052124e-01 -1.4274172484874725e-01</leafValues></_>
        <_>
          <internalNodes>
            0 -1 227 7.6651503331959248e-03</internalNodes>
          <leafValues>
            -1.1845616251230240e-01 3.6595505475997925e-01</leafValues></_>
        <_>
          <internalNodes>
            0 -1 198 3.1620278954505920e-02</internalNodes>
          <leafValues>
            6.2896259129047394e-02 -6.0062086582183838e-01</leafValues></_>
        <_>
          <internalNodes>
            0 -1 409 -2.0481869578361511e-02</internalNodes>
          <leafValues>
            -6.2516635656356812e-01 5.1308322697877884e-02</leafValues></_>
        <_>
          <internalNodes>
            0 -1 234 1.0121728992089629e-03</internalNodes>
          <leafValues>
            -1.5249274671077728e-01 2.4353455007076263e-01</leafValues></_>
        <_>
          <internalNodes>
            0 -1 122 -1.7950525507330894e-02</internalNodes>
          <leafValues>
            -4.4641602039337158e-01 7.6130822300910950e-02</leafValues></_>
        <_>
          <internalNodes>
            0 -1 301 2.3541324771940708e-03</internalNodes>
          <leafValues>
            -9.3765951693058014e-02 3.5224869847297668e-01</leafValues></_>
        <_>
          <internalNodes>
            0 -1 123 2.9401831328868866e-02</internalNodes>
          <leafValues>
            -6.5488770604133606e-02 4.6109491586685181e-01</leafValues></_>
        <_>
          <internalNodes>
            0 -1 151 -1.9782647490501404e-02</internalNodes>
          <leafValues>
            2.6202055811882019e-01 -1.3900695741176605e-01</leafValues></_></weakClassifiers></_>
    <!-- stage 7 -->
    <_>
      <maxWeakCount>34</maxWeakCount>
      <stageThreshold>-1.1707862615585327e+00</stageThreshold>
      <weakClassifiers>
        <_>
          <internalNodes>
            0 -1 224 -9.7068734467029572e-03</internalNodes>
          <leafValues>
            5.6277055293321609e-02 -4.5036843419075012e-01</leafValues></_>
        <_>
          <internalNodes>
            0 -1 5 2.4426508694887161e-02</internalNodes>
          <leafValues>
            -1.6275788843631744e-01 2.9878002405166626e-01</leafValues></_>
        <_>
          <internalNodes>
            0 -1 208 4.4959443621337414e-03</internalNodes>
          <leafValues>
            -1.4946924149990082e-01 2.5959151983261108e-01</leafValues></_>
        <_>
          <internalNodes>
            0 -1 296 5.1933346549049020e-04</internalNodes>
          <leafValues>
            1.2654300034046173e-01 -3.0117905139923096e-01</leafValues></_>
        <_>
          <internalNodes>
            0 -1 263 1.0453213471919298e-03</internalNodes>
          <leafValues>
            -1.4777271449565887e-01 2.6328000426292419e-01</leafValues></_>
        <_>
          <internalNodes>
            0 -1 264 -1.1820552870631218e-02</internalNodes>
          <leafValues>
            3.0464002490043640e-01 -1.6762901842594147e-01</leafValues></_>
        <_>
          <internalNodes>
            0 -1 72 -9.2461444437503815e-03</internalNodes>
          <leafValues>
            -6.7615634202957153e-01 8.1932760775089264e-02</leafValues></_>
        <_>
          <internalNodes>
            0 -1 175 2.0385675132274628e-02</internalNodes>
          <leafValues>
            -1.6547332704067230e-01 2.4193230271339417e-01</leafValues></_>
        <_>
          <internalNodes>
            0 -1 142 8.0569377169013023e-03</internalNodes>
          <leafValues>
            -6.6231869161128998e-02 3.9114430546760559e-01</leafValues></_>
        <_>
          <internalNodes>
            0 -1 252 -3.0101778975222260e-05</internalNodes>
          <leafValues>
            -2.6673609018325806e-01 1.3478207588195801e-01</leafValues></_>
        <_>
          <internalNodes>
            0 -1 358 -2.0608793944120407e-02</internalNodes>
          <leafValues>
            3.6116841435432434e-01 -9.8995193839073181e-02</leafValues></_>
        <_>
          <internalNodes>
            0 -1 323 -3.8322776556015015e-02</internalNodes>
          <leafValues>
            -5.5512589216232300e-01 6.5242819488048553e-02</leafValues></_>
        <_>
          <internalNodes>
            0 -1 167 -4.0689469315111637e-03</internalNodes>
          <leafValues>
            3.6806774139404297e-01 -1.0030204802751541e-01</leafValues></_>
        <_>
          <internalNodes>
            0 -1 233 3.9272706955671310e-02</internalNodes>
          <leafValues>
            4.9288477748632431e-02 -6.9480437040328979e-01</leafValues></_>
        <_>
          <internalNodes>
            0 -1 384 1.2572179548442364e-02</internalNodes>
          <leafValues>
            -1.1432152241468430e-01 3.3292192220687866e-01</leafValues></_>
        <_>
          <internalNodes>
            0 -1 370 1.4335976913571358e-02</internalNodes>
          <leafValues>
            5.1074914634227753e-02 -6.1827236413955688e-01</leafValues></_>
        <_>
          <internalNodes>
            0 -1 255 -6.5408409573137760e-03</internalNodes>
          <leafValues>
            3.2701107859611511e-01 -1.2338603287935257e-01</leafValues></_>
        <_>
          <internalNodes>
            0 -1 392 5.6536961346864700e-04</internalNodes>
          <leafValues>
            -1.9988873600959778e-01 1.6712345182895660e-01</leafValues></_>
        <_>
          <internalNodes>
            0 -1 344 6.1129946261644363e-03</internalNodes>
          <leafValues>
            5.9244032949209213e-02 -6.0032367706298828e-01</leafValues></_>
        <_>
          <internalNodes>
            0 -1 341 6.8834429839625955e-05</internalNodes>
          <leafValues>
            -2.1764934062957764e-01 1.3636505603790283e-01</leafValues></_>
        <_>
          <internalNodes>
            0 -1 99 2.1772414445877075e-01</internalNodes>
          <leafValues>
            4.2846679687500000e-02 -6.1842668056488037e-01</leafValues></_>
        <_>
          <internalNodes>
            0 -1 78 -6.8415761925280094e-03</internalNodes>
          <leafValues>
            2.8295910358428955e-01 -1.3256970047950745e-01</leafValues></_>
        <_>
          <internalNodes>
            0 -1 218 2.2038895636796951e-02</internalNodes>
          <leafValues>
            4.6210043132305145e-02 -8.1046992540359497e-01</leafValues></_>
        <_>
          <internalNodes>
            0 -1 361 -2.0252883434295654e-02</internalNodes>
          <leafValues>
            3.9953657984733582e-01 -8.3569444715976715e-02</leafValues></_>
        <_>
          <internalNodes>
            0 -1 396 1.8721669912338257e-02</internalNodes>
          <leafValues>
            -7.1871131658554077e-02 4.1314482688903809e-01</leafValues></_>
        <_>
          <internalNodes>
            0 -1 360 2.4263812229037285e-03</internalNodes>
          <leafValues>
            -1.4220382273197174e-01 2.3340542614459991e-01</leafValues></_>
        <_>
          <internalNodes>
            0 -1 362 -8.2246545935049653e-04</internalNodes>
          <leafValues>
            2.4009190499782562e-01 -1.5119223296642303e-01</leafValues></_>
        <_>
          <internalNodes>
            0 -1 348 -2.0163928274996579e-04</internalNodes>
          <leafValues>
            -2.1837662160396576e-01 1.5036685764789581e-01</leafValues></_>
        <_>
          <internalNodes>
            0 -1 223 -7.5494786724448204e-03</internalNodes>
          <leafValues>
            -7.2717446088790894e-01 4.7735653817653656e-02</leafValues></_>
        <_>
          <internalNodes>
            0 -1 6 1.3245156034827232e-02</internalNodes>
          <leafValues>
            -9.8244674503803253e-02 3.5036399960517883e-01</leafValues></_>
        <_>
          <internalNodes>
            0 -1 225 -3.2164179719984531e-03</internalNodes>
          <leafValues>
            2.9104095697402954e-01 -1.1114518344402313e-01</leafValues></_>
        <_>
          <internalNodes>
            0 -1 274 -3.4734308719635010e-02</internalNodes>
          <leafValues>
            3.9079207181930542e-01 -8.2416586577892303e-02</leafValues></_>
        <_>
          <internalNodes>
            0 -1 334 -2.1278936415910721e-02</internalNodes>
          <leafValues>
            3.4343993663787842e-01 -9.2902176082134247e-02</leafValues></_>
        <_>
          <internalNodes>
            0 -1 183 -1.0769404470920563e-02</internalNodes>
          <leafValues>
            3.7158921360969543e-01 -8.0635353922843933e-02</leafValues></_></weakClassifiers></_>
    <!-- stage 8 -->
    <_>
      <maxWeakCount>40</maxWeakCount>
      <stageThreshold>-1.3002498149871826e+00</stageThreshold>
      <weakClassifiers>
        <_>
          <internalNodes>
            0 -1 60 -7.2379589080810547e-02</internalNodes>
          <leafValues>
            -4.2855287859196504e-17 -4.7348484396934509e-01</leafValues></_>
        <_>
          <internalNodes>
            0 -1 292 6.7314649641048163e-05</internalNodes>
          <leafValues>
            -2.9527682065963745e-01 1.4442722499370575e-01</leafValues></_>
        <_>
          <internalNodes>
            0 -1 440 -2.0122965797781944e-02</internalNodes>
          <leafValues>
            4.3038952350616455e-01 -1.0002066940069199e-01</leafValues></_>
        <_>
          <internalNodes>
            0 -1 397 -9.4767473638057709e-03</internalNodes>
          <leafValues>
            3.3220291137695312e-01 -1.2866757810115814e-01</leafValues></_>
        <_>
          <internalNodes>
            0 -1 15 1.3618038967251778e-02</internalNodes>
          <leafValues>
            -1.2657935917377472e-01 3.2785728573799133e-01</leafValues></_>
        <_>
          <internalNodes>
            0 -1 52 -4.6143140643835068e-03</internalNodes>
          <leafValues>
            2.9804143309593201e-01 -1.5131296217441559e-01</leafValues></_>
        <_>
          <internalNodes>
            0 -1 316 6.9889042060822248e-04</internalNodes>
          <leafValues>
            1.6030554473400116e-01 -2.9158267378807068e-01</leafValues></_>
        <_>
          <internalNodes>
            0 -1 319 7.8466982813552022e-05</internalNodes>
          <leafValues>
            -2.5496464967727661e-01 1.3170239329338074e-01</leafValues></_>
        <_>
          <internalNodes>
            0 -1 29 9.2890392988920212e-03</internalNodes>
          <leafValues>
            -1.0571032762527466e-01 3.5013812780380249e-01</leafValues></_>
        <_>
          <internalNodes>
            0 -1 17 -1.6823679208755493e-02</internalNodes>
          <leafValues>
            4.7519004344940186e-01 -5.2182983607053757e-02</leafValues></_>
        <_>
          <internalNodes>
            0 -1 110 2.8909181710332632e-03</internalNodes>
          <leafValues>
            -1.1601173877716064e-01 2.8278428316116333e-01</leafValues></_>
        <_>
          <internalNodes>
            0 -1 117 1.1588115245103836e-02</internalNodes>
          <leafValues>
            -9.2507272958755493e-02 3.2561823725700378e-01</leafValues></_>
        <_>
          <internalNodes>
            0 -1 394 2.4568840861320496e-02</internalNodes>
          <leafValues>
            7.4758172035217285e-02 -4.1420823335647583e-01</leafValues></_>
        <_>
          <internalNodes>
            0 -1 380 -2.6541105471551418e-03</internalNodes>
          <leafValues>
            2.3039941489696503e-01 -1.3994081318378448e-01</leafValues></_>
        <_>
          <internalNodes>
            0 -1 413 -1.0682782158255577e-02</internalNodes>
          <leafValues>
            3.0501627922058105e-01 -1.1207256466150284e-01</leafValues></_>
        <_>
          <internalNodes>
            0 -1 157 1.0813627392053604e-02</internalNodes>
          <leafValues>
            -6.8112209439277649e-02 4.5124056935310364e-01</leafValues></_>
        <_>
          <internalNodes>
            0 -1 443 -1.4836352318525314e-02</internalNodes>
          <leafValues>
            -5.1462554931640625e-01 6.1377979815006256e-02</leafValues></_>
        <_>
          <internalNodes>
            0 -1 379 -2.7986490167677402e-03</internalNodes>
          <leafValues>
            -4.2271453142166138e-01 6.7273147404193878e-02</leafValues></_>
        <_>
          <internalNodes>
            0 -1 106 -7.0549845695495605e-03</internalNodes>
          <leafValues>
            2.8248712420463562e-01 -1.0024561733007431e-01</leafValues></_>
        <_>
          <internalNodes>
            0 -1 139 4.3185204267501831e-03</internalNodes>
          <leafValues>
            -1.7066569626331329e-01 2.6764404773712158e-01</leafValues></_>
        <_>
          <internalNodes>
            0 -1 404 4.7303579747676849e-02</internalNodes>
          <leafValues>
            -6.4933694899082184e-02 4.7010359168052673e-01</leafValues></_>
        <_>
          <internalNodes>
            0 -1 262 -6.7532099783420563e-03</internalNodes>
          <leafValues>
            2.3855756223201752e-01 -1.2807497382164001e-01</leafValues></_>
        <_>
          <internalNodes>
            0 -1 83 2.3160183429718018e-01</internalNodes>
          <leafValues>
            -6.2861166894435883e-02 5.0999444723129272e-01</leafValues></_>
        <_>
          <internalNodes>
            0 -1 196 8.4589626640081406e-03</internalNodes>
          <leafValues>
            9.2668950557708740e-02 -3.6632311344146729e-01</leafValues></_>
        <_>
          <internalNodes>
            0 -1 22 2.4334155023097992e-02</internalNodes>
          <leafValues>
            -7.3912948369979858e-02 4.3560427427291870e-01</leafValues></_>
        <_>
          <internalNodes>
            0 -1 108 -1.7123743891716003e-03</internalNodes>
          <leafValues>
            2.0190085470676422e-01 -1.4982035756111145e-01</leafValues></_>
        <_>
          <internalNodes>
            0 -1 356 8.1893950700759888e-03</internalNodes>
          <leafValues>
            4.8750195652246475e-02 -6.1603569984436035e-01</leafValues></_>
        <_>
          <internalNodes>
            0 -1 310 5.1924781873822212e-03</internalNodes>
          <leafValues>
            -1.3202191889286041e-01 2.3009490966796875e-01</leafValues></_>
        <_>
          <internalNodes>
            0 -1 309 -9.7450055181980133e-03</internalNodes>
          <leafValues>
            3.9020079374313354e-01 -7.9365156590938568e-02</leafValues></_>
        <_>
          <internalNodes>
            0 -1 428 2.6472393423318863e-02</internalNodes>
          <leafValues>
            -7.3002181947231293e-02 4.1581904888153076e-01</leafValues></_>
        <_>
          <internalNodes>
            0 -1 107 -4.6158698387444019e-03</internalNodes>
          <leafValues>
            2.1555377542972565e-01 -1.2813556194305420e-01</leafValues></_>
        <_>
          <internalNodes>
            0 -1 248 6.0623474419116974e-03</internalNodes>
          <leafValues>
            5.2075628191232681e-02 -5.5880528688430786e-01</leafValues></_>
        <_>
          <internalNodes>
            0 -1 3 1.3421969488263130e-02</internalNodes>
          <leafValues>
            -1.2132323533296585e-01 2.3822388052940369e-01</leafValues></_>
        <_>
          <internalNodes>
            0 -1 328 -5.9687420725822449e-03</internalNodes>
          <leafValues>
            3.2101488113403320e-01 -8.9332424104213715e-02</leafValues></_>
        <_>
          <internalNodes>
            0 -1 201 2.2204197943210602e-02</internalNodes>
          <leafValues>
            -8.0856844782829285e-02 3.8274925947189331e-01</leafValues></_>
        <_>
          <internalNodes>
            0 -1 327 4.7481540590524673e-02</internalNodes>
          <leafValues>
            -6.5454207360744476e-02 4.5553210377693176e-01</leafValues></_>
        <_>
          <internalNodes>
            0 -1 144 -2.8998509049415588e-02</internalNodes>
          <leafValues>
            3.8283261656761169e-01 -7.2454273700714111e-02</leafValues></_>
        <_>
          <internalNodes>
            0 -1 416 -4.8212734982371330e-03</internalNodes>
          <leafValues>
            -6.6971498727798462e-01 4.6451233327388763e-02</leafValues></_>
        <_>
          <internalNodes>
            0 -1 400 3.6003231070935726e-03</internalNodes>
          <leafValues>
            -1.1461719870567322e-01 2.9756587743759155e-01</leafValues></_>
        <_>
          <internalNodes>
            0 -1 186 -3.4220737870782614e-03</internalNodes>
          <leafValues>
            -4.1235607862472534e-01 7.3524594306945801e-02</leafValues></_></weakClassifiers></_>
    <!-- stage 9 -->
    <_>
      <maxWeakCount>39</maxWeakCount>
      <stageThreshold>-1.2834284305572510e+00</stageThreshold>
      <weakClassifiers>
        <_>
          <internalNodes>
            0 -1 158 1.7832567915320396e-02</internalNodes>
          <leafValues>
            -4.5246478915214539e-01 3.8461539894342422e-02</leafValues></_>
        <_>
          <internalNodes>
            0 -1 10 3.0673295259475708e-02</internalNodes>
          <leafValues>
            -1.5996387600898743e-01 3.0226993560791016e-01</leafValues></_>
        <_>
          <internalNodes>
            0 -1 267 -1.0261391289532185e-02</internalNodes>
          <leafValues>
            4.3045487999916077e-01 -8.7974980473518372e-02</leafValues></_>
        <_>
          <internalNodes>
            0 -1 266 4.4149272143840790e-03</internalNodes>
          <leafValues>
            -1.3993562757968903e-01 3.8366460800170898e-01</leafValues></_>
        <_>
          <internalNodes>
            0 -1 164 9.3740746378898621e-03</internalNodes>
          <leafValues>
            -9.6092797815799713e-02 3.3286985754966736e-01</leafValues></_>
        <_>
          <internalNodes>
            0 -1 212 -1.8631357233971357e-03</internalNodes>
          <leafValues>
            3.4436249732971191e-01 -1.2843479216098785e-01</leafValues></_>
        <_>
          <internalNodes>
            0 -1 48 -1.2413464486598969e-02</internalNodes>
          <leafValues>
            3.5145667195320129e-01 -9.1845743358135223e-02</leafValues></_>
        <_>
          <internalNodes>
            0 -1 74 -1.1261763051152229e-02</internalNodes>
          <leafValues>
            4.3324717879295349e-01 -9.8223365843296051e-02</leafValues></_>
        <_>
          <internalNodes>
            0 -1 341 -7.9114252002909780e-04</internalNodes>
          <leafValues>
            -3.6133596301078796e-01 1.4346812665462494e-01</leafValues></_>
        <_>
          <internalNodes>
            0 -1 341 4.3618632480502129e-04</internalNodes>
          <leafValues>
            1.2861146032810211e-01 -2.8988939523696899e-01</leafValues></_>
        <_>
          <internalNodes>
            0 -1 418 -8.5728159174323082e-03</internalNodes>
          <leafValues>
            3.6409944295883179e-01 -1.0159979760646820e-01</leafValues></_>
        <_>
          <internalNodes>
            0 -1 378 -9.5635578036308289e-03</internalNodes>
          <leafValues>
            4.6016108989715576e-01 -8.0719888210296631e-02</leafValues></_>
        <_>
          <internalNodes>
            0 -1 171 2.0208809524774551e-02</internalNodes>
          <leafValues>
            8.8635593652725220e-02 -3.6051642894744873e-01</leafValues></_>
        <_>
          <internalNodes>
            0 -1 353 6.5244182944297791e-02</internalNodes>
          <leafValues>
            5.3515646606683731e-02 -7.9094755649566650e-01</leafValues></_>
        <_>
          <internalNodes>
            0 -1 371 -3.0210823751986027e-03</internalNodes>
          <leafValues>
            2.3187737166881561e-01 -1.4498895406723022e-01</leafValues></_>
        <_>
          <internalNodes>
            0 -1 294 7.9261697828769684e-03</internalNodes>
          <leafValues>
            8.5863441228866577e-02 -3.7943437695503235e-01</leafValues></_>
        <_>
          <internalNodes>
            0 -1 132 -9.8909800872206688e-03</internalNodes>
          <leafValues>
            3.3169686794281006e-01 -1.0708110779523849e-01</leafValues></_>
        <_>
          <internalNodes>
            0 -1 154 -2.9725121567025781e-04</internalNodes>
          <leafValues>
            2.1746143698692322e-01 -1.4733694493770599e-01</leafValues></_>
        <_>
          <internalNodes>
            0 -1 126 1.4804096426814795e-03</internalNodes>
          <leafValues>
            -1.5238687396049500e-01 2.1397887170314789e-01</leafValues></_>
        <_>
          <internalNodes>
            0 -1 424 -2.3189105093479156e-02</internalNodes>
          <leafValues>
            2.7957555651664734e-01 -1.0893448442220688e-01</leafValues></_>
        <_>
          <internalNodes>
            0 -1 235 -2.5404791813343763e-03</internalNodes>
          <leafValues>
            2.4656735360622406e-01 -1.3617765903472900e-01</leafValues></_>
        <_>
          <internalNodes>
            0 -1 425 2.0599821582436562e-02</internalNodes>
          <leafValues>
            -8.0237500369548798e-02 3.9844194054603577e-01</leafValues></_>
        <_>
          <internalNodes>
            0 -1 229 -1.7824225127696991e-02</internalNodes>
          <leafValues>
            2.9407110810279846e-01 -1.1043689399957657e-01</leafValues></_>
        <_>
          <internalNodes>
            0 -1 379 2.8579763602465391e-03</internalNodes>
          <leafValues>
            7.1133889257907867e-02 -4.2600297927856445e-01</leafValues></_>
        <_>
          <internalNodes>
            0 -1 150 2.5279729743488133e-04</internalNodes>
          <leafValues>
            -2.0175726711750031e-01 1.5908609330654144e-01</leafValues></_>
        <_>
          <internalNodes>
            0 -1 40 -9.0086419368162751e-04</internalNodes>
          <leafValues>
            2.3387312889099121e-01 -1.6622330248355865e-01</leafValues></_>
        <_>
          <internalNodes>
            0 -1 32 -1.5338193625211716e-02</internalNodes>
          <leafValues>
            3.7838530540466309e-01 -8.9178249239921570e-02</leafValues></_>
        <_>
          <internalNodes>
            0 -1 41 -2.6539687067270279e-02</internalNodes>
          <leafValues>
            -6.8196666240692139e-01 5.0886698067188263e-02</leafValues></_>
        <_>
          <internalNodes>
            0 -1 84 2.3042734712362289e-02</internalNodes>
          <leafValues>
            3.1944733113050461e-02 -7.3964083194732666e-01</leafValues></_>
        <_>
          <internalNodes>
            0 -1 321 5.8109615929424763e-04</internalNodes>
          <leafValues>
            1.0093666613101959e-01 -2.9360112547874451e-01</leafValues></_>
        <_>
          <internalNodes>
            0 -1 321 8.1667341873981059e-05</internalNodes>
          <leafValues>
            -1.6917970776557922e-01 1.9065286219120026e-01</leafValues></_>
        <_>
          <internalNodes>
            0 -1 143 -2.4738116189837456e-03</internalNodes>
          <leafValues>
            3.2260560989379883e-01 -1.0383244603872299e-01</leafValues></_>
        <_>
          <internalNodes>
            0 -1 254 -1.0060705244541168e-02</internalNodes>
          <leafValues>
            -5.7756620645523071e-01 5.6960739195346832e-02</leafValues></_>
        <_>
          <internalNodes>
            0 -1 200 -6.1686472035944462e-03</internalNodes>
          <leafValues>
            3.3534997701644897e-01 -9.8195433616638184e-02</leafValues></_>
        <_>
          <internalNodes>
            0 -1 200 4.3178731575608253e-03</internalNodes>
          <leafValues>
            -1.2438488006591797e-01 3.2821163535118103e-01</leafValues></_>
        <_>
          <internalNodes>
            0 -1 210 7.1635562926530838e-03</internalNodes>
          <leafValues>
            4.6327706426382065e-02 -7.5545418262481689e-01</leafValues></_>
        <_>
          <internalNodes>
            0 -1 422 5.4043894633650780e-03</internalNodes>
          <leafValues>
            -1.1818857491016388e-01 2.6528915762901306e-01</leafValues></_>
        <_>
          <internalNodes>
            0 -1 160 -6.6374719608575106e-04</internalNodes>
          <leafValues>
            1.6505999863147736e-01 -1.9234886765480042e-01</leafValues></_>
        <_>
          <internalNodes>
            0 -1 180 -1.0905988514423370e-02</internalNodes>
          <leafValues>
            -4.1783905029296875e-01 7.8412748873233795e-02</leafValues></_></weakClassifiers></_>
    <!-- stage 10 -->
    <_>
      <maxWeakCount>41</maxWeakCount>
      <stageThreshold>-1.0461015701293945e+00</stageThreshold>
      <weakClassifiers>
        <_>
          <internalNodes>
            0 -1 181 -2.7030795812606812e-02</internalNodes>
          <leafValues>
            -9.1549292206764221e-02 -4.8068669438362122e-01</leafValues></_>
        <_>
          <internalNodes>
            0 -1 277 -2.2352468222379684e-02</internalNodes>
          <leafValues>
            2.9398831725120544e-01 -1.1997234076261520e-01</leafValues></_>
        <_>
          <internalNodes>
            0 -1 350 8.9907480287365615e-05</internalNodes>
          <leafValues>
            -2.2509476542472839e-01 1.5881334245204926e-01</leafValues></_>
        <_>
          <internalNodes>
            0 -1 426 2.6357812806963921e-02</internalNodes>
          <leafValues>
            -1.2950827181339264e-01 2.6181924343109131e-01</leafValues></_>
        <_>
          <internalNodes>
            0 -1 346 2.5767505168914795e-02</internalNodes>
          <leafValues>
            6.0908246785402298e-02 -4.6665704250335693e-01</leafValues></_>
        <_>
          <internalNodes>
            0 -1 339 1.0093607008457184e-02</internalNodes>
          <leafValues>
            5.1486264914274216e-02 -6.4687401056289673e-01</leafValues></_>
        <_>
          <internalNodes>
            0 -1 369 -2.4449734482914209e-03</internalNodes>
          <leafValues>
            -3.0527293682098389e-01 9.5104157924652100e-02</leafValues></_>
        <_>
          <internalNodes>
            0 -1 325 2.0018318668007851e-02</internalNodes>
          <leafValues>
            -6.8896189332008362e-02 3.4719994664192200e-01</leafValues></_>
        <_>
          <internalNodes>
            0 -1 265 -9.4981268048286438e-02</internalNodes>
          <leafValues>
            -7.1216249465942383e-01 3.3744201064109802e-02</leafValues></_>
        <_>
          <internalNodes>
            0 -1 315 -3.9447411894798279e-02</internalNodes>
          <leafValues>
            3.4243831038475037e-01 -8.0015040934085846e-02</leafValues></_>
        <_>
          <internalNodes>
            0 -1 2 4.3661288917064667e-02</internalNodes>
          <leafValues>
            -1.3402700424194336e-01 2.1808657050132751e-01</leafValues></_>
        <_>
          <internalNodes>
            0 -1 330 8.5828918963670731e-03</internalNodes>
          <leafValues>
            -8.7459810078144073e-02 3.0425474047660828e-01</leafValues></_>
        <_>
          <internalNodes>
            0 -1 116 1.0263500735163689e-02</internalNodes>
          <leafValues>
            1.3335169851779938e-01 -2.2969374060630798e-01</leafValues></_>
        <_>
          <internalNodes>
            0 -1 121 -8.1355811562389135e-04</internalNodes>
          <leafValues>
            2.0039960741996765e-01 -1.3592149317264557e-01</leafValues></_>
        <_>
          <internalNodes>
            0 -1 37 -7.8555261716246605e-03</internalNodes>
          <leafValues>
            2.6238209009170532e-01 -1.1485775560140610e-01</leafValues></_>
        <_>
          <internalNodes>
            0 -1 58 -1.3198128901422024e-02</internalNodes>
          <leafValues>
            -3.1982582807540894e-01 9.4167284667491913e-02</leafValues></_>
        <_>
          <internalNodes>
            0 -1 179 1.0956994257867336e-02</internalNodes>
          <leafValues>
            2.7131630107760429e-02 -6.6876244544982910e-01</leafValues></_>
        <_>
          <internalNodes>
            0 -1 71 -1.8284395337104797e-03</internalNodes>
          <leafValues>
            2.0953838527202606e-01 -1.2578922510147095e-01</leafValues></_>
        <_>
          <internalNodes>
            0 -1 0 -2.7596259117126465e-01</internalNodes>
          <leafValues>
            7.4691379070281982e-01 -2.3086946457624435e-02</leafValues></_>
        <_>
          <internalNodes>
            0 -1 112 -4.3580662459135056e-03</internalNodes>
          <leafValues>
            2.5512114167213440e-01 -9.0005651116371155e-02</leafValues></_>
        <_>
          <internalNodes>
            0 -1 368 4.5797627419233322e-02</internalNodes>
          <leafValues>
            -4.8075195401906967e-02 5.7945358753204346e-01</leafValues></_>
        <_>
          <internalNodes>
            0 -1 363 -5.3089181892573833e-04</internalNodes>
          <leafValues>
            1.8403045833110809e-01 -1.3856047391891479e-01</leafValues></_>
        <_>
          <internalNodes>
            0 -1 372 1.9480247050523758e-02</internalNodes>
          <leafValues>
            -6.3546068966388702e-02 4.4092199206352234e-01</leafValues></_>
        <_>
          <internalNodes>
            0 -1 390 9.4527361216023564e-04</internalNodes>
          <leafValues>
            -1.9056840240955353e-01 1.5476383268833160e-01</leafValues></_>
        <_>
          <internalNodes>
            0 -1 8 6.3574216328561306e-03</internalNodes>
          <leafValues>
            3.1350288540124893e-02 -8.8142293691635132e-01</leafValues></_>
        <_>
          <internalNodes>
            0 -1 190 -1.8443223088979721e-02</internalNodes>
          <leafValues>
            -6.5323120355606079e-01 3.1454309821128845e-02</leafValues></_>
        <_>
          <internalNodes>
            0 -1 364 -1.0248718317598104e-03</internalNodes>
          <leafValues>
            2.2171470522880554e-01 -1.2006505578756332e-01</leafValues></_>
        <_>
          <internalNodes>
            0 -1 289 1.2869717553257942e-02</internalNodes>
          <leafValues>
            4.9113977700471878e-02 -5.1108890771865845e-01</leafValues></_>
        <_>
          <internalNodes>
            0 -1 128 -2.3644823580980301e-02</internalNodes>
          <leafValues>
            -6.5738219022750854e-01 3.1555838882923126e-02</leafValues></_>
        <_>
          <internalNodes>
            0 -1 63 2.9081832617521286e-02</internalNodes>
          <leafValues>
            -1.0138932615518570e-01 2.5135299563407898e-01</leafValues></_>
        <_>
          <internalNodes>
            0 -1 352 9.2271678149700165e-03</internalNodes>
          <leafValues>
            3.1981263309717178e-02 -7.9743665456771851e-01</leafValues></_>
        <_>
          <internalNodes>
            0 -1 306 -2.1177176386117935e-02</internalNodes>
          <leafValues>
            4.2300301790237427e-01 -7.1615546941757202e-02</leafValues></_>
        <_>
          <internalNodes>
            0 -1 211 2.5767371058464050e-02</internalNodes>
          <leafValues>
            4.6860437840223312e-02 -7.6600062847137451e-01</leafValues></_>
        <_>
          <internalNodes>
            0 -1 124 -2.7166032232344151e-03</internalNodes>
          <leafValues>
            2.1963317692279816e-01 -1.2091384828090668e-01</leafValues></_>
        <_>
          <internalNodes>
            0 -1 125 7.2901686653494835e-03</internalNodes>
          <leafValues>
            -6.3953176140785217e-02 4.2811676859855652e-01</leafValues></_>
        <_>
          <internalNodes>
            0 -1 98 -1.2716030701994896e-02</internalNodes>
          <leafValues>
            -5.2947139739990234e-01 4.6793226152658463e-02</leafValues></_>
        <_>
          <internalNodes>
            0 -1 68 -2.1111277863383293e-02</internalNodes>
          <leafValues>
            -5.6656575202941895e-01 4.1322730481624603e-02</leafValues></_>
        <_>
          <internalNodes>
            0 -1 66 -1.1853633623104542e-04</internalNodes>
          <leafValues>
            1.5898990631103516e-01 -2.0851640403270721e-01</leafValues></_>
        <_>
          <internalNodes>
            0 -1 156 8.3198957145214081e-03</internalNodes>
          <leafValues>
            4.0063545107841492e-02 -6.0123389959335327e-01</leafValues></_>
        <_>
          <internalNodes>
            0 -1 30 -2.0280091091990471e-02</internalNodes>
          <leafValues>
            4.2920446395874023e-01 -6.2464401125907898e-02</leafValues></_>
        <_>
          <internalNodes>
            0 -1 182 6.6817472688853741e-03</internalNodes>
          <leafValues>
            -8.7382242083549500e-02 3.1415134668350220e-01</leafValues></_></weakClassifiers></_>
    <!-- stage 11 -->
    <_>
      <maxWeakCount>42</maxWeakCount>
      <stageThreshold>-1.1858658790588379e+00</stageThreshold>
      <weakClassifiers>
        <_>
          <internalNodes>
            0 -1 44 -1.0632209479808807e-02</internalNodes>
          <leafValues>
            3.3582091331481934e-02 -4.1314935684204102e-01</leafValues></_>
        <_>
          <internalNodes>
            0 -1 259 -1.9320376217365265e-02</internalNodes>
          <leafValues>
            2.3561874032020569e-01 -1.6425022482872009e-01</leafValues></_>
        <_>
          <internalNodes>
            0 -1 297 3.8807712495326996e-02</internalNodes>
          <leafValues>
            6.2515020370483398e-02 -4.9121782183647156e-01</leafValues></_>
        <_>
          <internalNodes>
            0 -1 415 -2.3217722773551941e-03</internalNodes>
          <leafValues>
            2.9261872172355652e-01 -1.3040040433406830e-01</leafValues></_>
        <_>
          <internalNodes>
            0 -1 300 2.0866893231868744e-02</internalNodes>
          <leafValues>
            -1.0261535644531250e-01 3.1345441937446594e-01</leafValues></_>
        <_>
          <internalNodes>
            0 -1 302 -6.3681630417704582e-03</internalNodes>
          <leafValues>
            3.1745174527168274e-01 -1.0957266390323639e-01</leafValues></_>
        <_>
          <internalNodes>
            0 -1 245 3.4762062132358551e-03</internalNodes>
          <leafValues>
            -9.1059327125549316e-02 3.0656772851943970e-01</leafValues></_>
        <_>
          <internalNodes>
            0 -1 441 1.5250306576490402e-02</internalNodes>
          <leafValues>
            -8.2914642989635468e-02 3.6784160137176514e-01</leafValues></_>
        <_>
          <internalNodes>
            0 -1 410 -4.7517921775579453e-03</internalNodes>
          <leafValues>
            -6.9570213556289673e-01 3.9025235921144485e-02</leafValues></_>
        <_>
          <internalNodes>
            0 -1 174 -4.1511183371767402e-04</internalNodes>
          <leafValues>
            1.8917688727378845e-01 -1.5184168517589569e-01</leafValues></_>
        <_>
          <internalNodes>
            0 -1 101 4.0375380776822567e-03</internalNodes>
          <leafValues>
            -5.8555349707603455e-02 3.6229461431503296e-01</leafValues></_>
        <_>
          <internalNodes>
            0 -1 124 -1.7658614087849855e-03</internalNodes>
          <leafValues>
            2.2303442656993866e-01 -1.3574896752834320e-01</leafValues></_>
        <_>
          <internalNodes>
            0 -1 319 7.7796321420464665e-05</internalNodes>
          <leafValues>
            -2.4701829254627228e-01 1.1187495291233063e-01</leafValues></_>
        <_>
          <internalNodes>
            0 -1 114 -9.8468188662081957e-04</internalNodes>
          <leafValues>
            2.1594850718975067e-01 -1.3556912541389465e-01</leafValues></_>
        <_>
          <internalNodes>
            0 -1 215 2.6434313505887985e-02</internalNodes>
          <leafValues>
            4.1711576282978058e-02 -6.2564438581466675e-01</leafValues></_>
        <_>
          <internalNodes>
            0 -1 244 -3.2383315265178680e-03</internalNodes>
          <leafValues>
            2.1393206715583801e-01 -1.2150133401155472e-01</leafValues></_>
        <_>
          <internalNodes>
            0 -1 243 8.9461315656080842e-04</internalNodes>
          <leafValues>
            -1.2012325972318649e-01 2.6693326234817505e-01</leafValues></_>
        <_>
          <internalNodes>
            0 -1 149 7.0386558771133423e-02</internalNodes>
          <leafValues>
            4.4551581144332886e-02 -6.4754599332809448e-01</leafValues></_>
        <_>
          <internalNodes>
            0 -1 86 -6.3290655612945557e-02</internalNodes>
          <leafValues>
            4.7683000564575195e-01 -6.5235666930675507e-02</leafValues></_>
        <_>
          <internalNodes>
            0 -1 196 -1.9020248204469681e-02</internalNodes>
          <leafValues>
            -8.2135957479476929e-01 3.6145254969596863e-02</leafValues></_>
        <_>
          <internalNodes>
            0 -1 18 -5.4601177573204041e-02</internalNodes>
          <leafValues>
            1.9144997000694275e-01 -1.5214028954505920e-01</leafValues></_>
        <_>
          <internalNodes>
            0 -1 319 1.2599030742421746e-03</internalNodes>
          <leafValues>
            1.1709047108888626e-01 -2.5505796074867249e-01</leafValues></_>
        <_>
          <internalNodes>
            0 -1 148 1.3487741351127625e-02</internalNodes>
          <leafValues>
            8.1010274589061737e-02 -3.2860642671585083e-01</leafValues></_>
        <_>
          <internalNodes>
            0 -1 33 1.0043517686426640e-03</internalNodes>
          <leafValues>
            -1.5268474817276001e-01 1.9259436428546906e-01</leafValues></_>
        <_>
          <internalNodes>
            0 -1 47 -3.9510391652584076e-03</internalNodes>
          <leafValues>
            2.3593269288539886e-01 -1.3020677864551544e-01</leafValues></_>
        <_>
          <internalNodes>
            0 -1 35 6.5072039142251015e-03</internalNodes>
          <leafValues>
            -9.7627550363540649e-02 3.3744254708290100e-01</leafValues></_>
        <_>
          <internalNodes>
            0 -1 191 -5.3611537441611290e-03</internalNodes>
          <leafValues>
            2.6341828703880310e-01 -1.0415083914995193e-01</leafValues></_>
        <_>
          <internalNodes>
            0 -1 13 -2.5282084941864014e-02</internalNodes>
          <leafValues>
            -8.4245735406875610e-01 2.4785695597529411e-02</leafValues></_>
        <_>
          <internalNodes>
            0 -1 347 2.1794416010379791e-02</internalNodes>
          <leafValues>
            -4.7338295727968216e-02 6.0321068763732910e-01</leafValues></_>
        <_>
          <internalNodes>
            0 -1 387 5.5489107966423035e-02</internalNodes>
          <leafValues>
            3.6722935736179352e-02 -8.2635879516601562e-01</leafValues></_>
        <_>
          <internalNodes>
            0 -1 299 1.2505775317549706e-02</internalNodes>
          <leafValues>
            7.6741926372051239e-02 -3.0864211916923523e-01</leafValues></_>
        <_>
          <internalNodes>
            0 -1 105 1.9136376678943634e-02</internalNodes>
          <leafValues>
            -7.9919338226318359e-02 3.4211242198944092e-01</leafValues></_>
        <_>
          <internalNodes>
            0 -1 94 6.7363483831286430e-03</internalNodes>
          <leafValues>
            -9.4318211078643799e-02 3.0341935157775879e-01</leafValues></_>
        <_>
          <internalNodes>
            0 -1 340 1.7168384790420532e-01</internalNodes>
          <leafValues>
            4.5144602656364441e-02 -5.5878055095672607e-01</leafValues></_>
        <_>
          <internalNodes>
            0 -1 237 1.1283853091299534e-03</internalNodes>
          <leafValues>
            -1.0529490560293198e-01 2.4163711071014404e-01</leafValues></_>
        <_>
          <internalNodes>
            0 -1 398 -4.9689784646034241e-03</internalNodes>
          <leafValues>
            -5.4324710369110107e-01 4.6601481735706329e-02</leafValues></_>
        <_>
          <internalNodes>
            0 -1 115 -1.3162672985345125e-03</internalNodes>
          <leafValues>
            2.3955260217189789e-01 -1.1171896010637283e-01</leafValues></_>
        <_>
          <internalNodes>
            0 -1 138 3.0424743890762329e-02</internalNodes>
          <leafValues>
            4.1579790413379669e-02 -7.0222133398056030e-01</leafValues></_>
        <_>
          <internalNodes>
            0 -1 423 -2.5686991866677999e-03</internalNodes>
          <leafValues>
            1.6808004677295685e-01 -1.5466575324535370e-01</leafValues></_>
        <_>
          <internalNodes>
            0 -1 389 1.3556059449911118e-02</internalNodes>
          <leafValues>
            -8.5312806069850922e-02 3.2870826125144958e-01</leafValues></_>
        <_>
          <internalNodes>
            0 -1 442 -1.5023970976471901e-02</internalNodes>
          <leafValues>
            -4.2903700470924377e-01 6.4539216458797455e-02</leafValues></_>
        <_>
          <internalNodes>
            0 -1 435 -9.5663061365485191e-03</internalNodes>
          <leafValues>
            2.9876619577407837e-01 -8.9661054313182831e-02</leafValues></_></weakClassifiers></_>
    <!-- stage 12 -->
    <_>
      <maxWeakCount>44</maxWeakCount>
      <stageThreshold>-1.1592766046524048e+00</stageThreshold>
      <weakClassifiers>
        <_>
          <internalNodes>
            0 -1 206 3.7392392754554749e-02</internalNodes>
          <leafValues>
            -4.4523471593856812e-01 -6.8462401628494263e-02</leafValues></_>
        <_>
          <internalNodes>
            0 -1 284 -1.0663688590284437e-04</internalNodes>
          <leafValues>
            -2.9434844851493835e-01 1.0055413842201233e-01</leafValues></_>
        <_>
          <internalNodes>
            0 -1 284 4.5570996007882059e-04</internalNodes>
          <leafValues>
            1.2498750537633896e-01 -2.1728506684303284e-01</leafValues></_>
        <_>
          <internalNodes>
            0 -1 216 1.9062433391809464e-02</internalNodes>
          <leafValues>
            -1.2398295849561691e-01 2.6451370120048523e-01</leafValues></_>
        <_>
          <internalNodes>
            0 -1 24 -2.1789621561765671e-02</internalNodes>
          <leafValues>
            2.4176263809204102e-01 -1.1875103414058685e-01</leafValues></_>
        <_>
          <internalNodes>
            0 -1 205 -7.5522321276366711e-04</internalNodes>
          <leafValues>
            2.0325787365436554e-01 -1.2408605962991714e-01</leafValues></_>
        <_>
          <internalNodes>
            0 -1 168 -4.0852613747119904e-03</internalNodes>
          <leafValues>
            2.9402059316635132e-01 -6.0609791427850723e-02</leafValues></_>
        <_>
          <internalNodes>
            0 -1 55 -6.0179000720381737e-03</internalNodes>
          <leafValues>
            2.6544395089149475e-01 -1.1286480724811554e-01</leafValues></_>
        <_>
          <internalNodes>
            0 -1 56 4.6225529164075851e-02</internalNodes>
          <leafValues>
            -3.8244131952524185e-02 6.0553389787673950e-01</leafValues></_>
        <_>
          <internalNodes>
            0 -1 27 -2.3018866777420044e-02</internalNodes>
          <leafValues>
            3.8980543613433838e-01 -6.7730799317359924e-02</leafValues></_>
        <_>
          <internalNodes>
            0 -1 253 2.8034344315528870e-02</internalNodes>
          <leafValues>
            2.9222803190350533e-02 -8.4465497732162476e-01</leafValues></_>
        <_>
          <internalNodes>
            0 -1 57 -1.2186153326183558e-03</internalNodes>
          <leafValues>
            2.3563499748706818e-01 -1.2089801579713821e-01</leafValues></_>
        <_>
          <internalNodes>
            0 -1 429 -6.4185801893472672e-03</internalNodes>
          <leafValues>
            2.9770064353942871e-01 -8.7619461119174957e-02</leafValues></_>
        <_>
          <internalNodes>
            0 -1 434 -4.3142265640199184e-03</internalNodes>
          <leafValues>
            2.7570468187332153e-01 -1.1533539742231369e-01</leafValues></_>
        <_>
          <internalNodes>
            0 -1 401 -8.4618926048278809e-03</internalNodes>
          <leafValues>
            3.2560580968856812e-01 -9.6715055406093597e-02</leafValues></_>
        <_>
          <internalNodes>
            0 -1 391 -1.0830280371010303e-02</internalNodes>
          <leafValues>
            -5.7275837659835815e-01 4.3328162282705307e-02</leafValues></_>
        <_>
          <internalNodes>
            0 -1 405 1.4747927896678448e-02</internalNodes>
          <leafValues>
            -8.4415629506111145e-02 3.1378069519996643e-01</leafValues></_>
        <_>
          <internalNodes>
            0 -1 286 -1.1699179187417030e-02</internalNodes>
          <leafValues>
            2.5066116452217102e-01 -1.2297012656927109e-01</leafValues></_>
        <_>
          <internalNodes>
            0 -1 303 1.3278165832161903e-02</internalNodes>
          <leafValues>
            -1.0828807950019836e-01 3.1116020679473877e-01</leafValues></_>
        <_>
          <internalNodes>
            0 -1 265 -4.6395570039749146e-02</internalNodes>
          <leafValues>
            -3.7816980481147766e-01 9.2773802578449249e-02</leafValues></_>
        <_>
          <internalNodes>
            0 -1 336 4.4576890766620636e-02</internalNodes>
          <leafValues>
            3.6013759672641754e-02 -5.7006311416625977e-01</leafValues></_>
        <_>
          <internalNodes>
            0 -1 203 -3.8456106558442116e-03</internalNodes>
          <leafValues>
            3.3728307485580444e-01 -7.6457478106021881e-02</leafValues></_>
        <_>
          <internalNodes>
            0 -1 202 -3.6819442175328732e-03</internalNodes>
          <leafValues>
            2.4316470324993134e-01 -1.1811232566833496e-01</leafValues></_>
        <_>
          <internalNodes>
            0 -1 188 5.5441722273826599e-02</internalNodes>
          <leafValues>
            3.0967950820922852e-02 -8.0131286382675171e-01</leafValues></_>
        <_>
          <internalNodes>
            0 -1 295 -6.6296771168708801e-02</internalNodes>
          <leafValues>
            2.5679871439933777e-01 -9.7396381199359894e-02</leafValues></_>
        <_>
          <internalNodes>
            0 -1 249 -3.0253171920776367e-02</internalNodes>
          <leafValues>
            -8.1150209903717041e-01 3.5518947988748550e-02</leafValues></_>
        <_>
          <internalNodes>
            0 -1 439 -2.6030077133327723e-03</internalNodes>
          <leafValues>
            -3.3415007591247559e-01 5.9498902410268784e-02</leafValues></_>
        <_>
          <internalNodes>
            0 -1 269 5.4059396497905254e-03</internalNodes>
          <leafValues>
            -7.8085348010063171e-02 3.0435153841972351e-01</leafValues></_>
        <_>
          <internalNodes>
            0 -1 242 5.7562929578125477e-04</internalNodes>
          <leafValues>
            -1.3046881556510925e-01 1.7948476970195770e-01</leafValues></_>
        <_>
          <internalNodes>
            0 -1 137 -2.1960977464914322e-02</internalNodes>
          <leafValues>
            4.4863235950469971e-01 -5.9964191168546677e-02</leafValues></_>
        <_>
          <internalNodes>
            0 -1 100 -3.9096407592296600e-02</internalNodes>
          <leafValues>
            -3.4344080090522766e-01 7.6347261667251587e-02</leafValues></_>
        <_>
          <internalNodes>
            0 -1 49 -1.8780879676342010e-02</internalNodes>
          <leafValues>
            -6.4913845062255859e-01 3.2889988273382187e-02</leafValues></_>
        <_>
          <internalNodes>
            0 -1 321 6.0197675338713452e-05</internalNodes>
          <leafValues>
            -1.7317858338356018e-01 1.4407970011234283e-01</leafValues></_>
        <_>
          <internalNodes>
            0 -1 321 5.4184295004233718e-04</internalNodes>
          <leafValues>
            1.1503993719816208e-01 -2.8564751148223877e-01</leafValues></_>
        <_>
          <internalNodes>
            0 -1 77 -4.5728225260972977e-02</internalNodes>
          <leafValues>
            -5.6365966796875000e-01 4.0279772132635117e-02</leafValues></_>
        <_>
          <internalNodes>
            0 -1 275 -8.5593357682228088e-02</internalNodes>
          <leafValues>
            3.5411643981933594e-01 -7.6224230229854584e-02</leafValues></_>
        <_>
          <internalNodes>
            0 -1 213 2.1947089582681656e-02</internalNodes>
          <leafValues>
            5.1722642034292221e-02 -5.3945863246917725e-01</leafValues></_>
        <_>
          <internalNodes>
            0 -1 25 9.5686428248882294e-03</internalNodes>
          <leafValues>
            -8.4025353193283081e-02 3.5411423444747925e-01</leafValues></_>
        <_>
          <internalNodes>
            0 -1 399 -1.5139019116759300e-02</internalNodes>
          <leafValues>
            -6.9185751676559448e-01 4.0863554924726486e-02</leafValues></_>
        <_>
          <internalNodes>
            0 -1 329 -2.2934884764254093e-03</internalNodes>
          <leafValues>
            3.1804260611534119e-01 -8.8726617395877838e-02</leafValues></_>
        <_>
          <internalNodes>
            0 -1 64 2.5561362504959106e-02</internalNodes>
          <leafValues>
            5.4253265261650085e-02 -4.9192517995834351e-01</leafValues></_>
        <_>
          <internalNodes>
            0 -1 39 -4.8494534566998482e-03</internalNodes>
          <leafValues>
            2.0716530084609985e-01 -1.3927540183067322e-01</leafValues></_>
        <_>
          <internalNodes>
            0 -1 50 4.6969138085842133e-02</internalNodes>
          <leafValues>
            -6.3186667859554291e-02 4.5675131678581238e-01</leafValues></_>
        <_>
          <internalNodes>
            0 -1 193 7.7022407203912735e-03</internalNodes>
          <leafValues>
            -1.0175205022096634e-01 2.7172127366065979e-01</leafValues></_></weakClassifiers></_>
    <!-- stage 13 -->
    <_>
      <maxWeakCount>43</maxWeakCount>
      <stageThreshold>-1.1077330112457275e+00</stageThreshold>
      <weakClassifiers>
        <_>
          <internalNodes>
            0 -1 133 -2.2173509001731873e-02</internalNodes>
          <leafValues>
            -1.3559322059154510e-01 -4.8413631319999695e-01</leafValues></_>
        <_>
          <internalNodes>
            0 -1 16 1.2296985834836960e-02</internalNodes>
          <leafValues>
            -1.1070439964532852e-01 2.9827213287353516e-01</leafValues></_>
        <_>
          <internalNodes>
            0 -1 406 5.6542996317148209e-03</internalNodes>
          <leafValues>
            -1.3514219224452972e-01 2.0090693235397339e-01</leafValues></_>
        <_>
          <internalNodes>
            0 -1 292 -1.4965792070142925e-04</internalNodes>
          <leafValues>
            -2.4149602651596069e-01 1.0688884556293488e-01</leafValues></_>
        <_>
          <internalNodes>
            0 -1 291 2.9080704553052783e-04</internalNodes>
          <leafValues>
            1.8375888466835022e-01 -1.8365319073200226e-01</leafValues></_>
        <_>
          <internalNodes>
            0 -1 113 -2.4606082588434219e-03</internalNodes>
          <leafValues>
            2.7382096648216248e-01 -1.1909713596105576e-01</leafValues></_>
        <_>
          <internalNodes>
            0 -1 291 8.2324520917609334e-05</internalNodes>
          <leafValues>
            -1.6136249899864197e-01 2.1456938982009888e-01</leafValues></_>
        <_>
          <internalNodes>
            0 -1 113 1.1931456392630935e-03</internalNodes>
          <leafValues>
            -1.4089497923851013e-01 2.6508891582489014e-01</leafValues></_>
        <_>
          <internalNodes>
            0 -1 261 9.1204055934213102e-05</internalNodes>
          <leafValues>
            -1.3969849050045013e-01 1.9065421819686890e-01</leafValues></_>
        <_>
          <internalNodes>
            0 -1 374 -1.1235043348278850e-04</internalNodes>
          <leafValues>
            1.5280482172966003e-01 -1.8421734869480133e-01</leafValues></_>
        <_>
          <internalNodes>
            0 -1 147 2.0123364403843880e-02</internalNodes>
          <leafValues>
            6.3409313559532166e-02 -4.5792767405509949e-01</leafValues></_>
        <_>
          <internalNodes>
            0 -1 437 -4.6350033953785896e-03</internalNodes>
          <leafValues>
            -6.3537365198135376e-01 3.8925345987081528e-02</leafValues></_>
        <_>
          <internalNodes>
            0 -1 375 1.1718478053808212e-02</internalNodes>
          <leafValues>
            3.6422070115804672e-02 -6.5746247768402100e-01</leafValues></_>
        <_>
          <internalNodes>
            0 -1 267 -1.0250289924442768e-02</internalNodes>
          <leafValues>
            3.1879267096519470e-01 -8.1750258803367615e-02</leafValues></_>
        <_>
          <internalNodes>
            0 -1 412 -5.6359735317528248e-03</internalNodes>
          <leafValues>
            2.7300128340721130e-01 -9.0402662754058838e-02</leafValues></_>
        <_>
          <internalNodes>
            0 -1 414 6.7790187895298004e-03</internalNodes>
          <leafValues>
            -1.3519875705242157e-01 2.3163746297359467e-01</leafValues></_>
        <_>
          <internalNodes>
            0 -1 80 -3.2170303165912628e-02</internalNodes>
          <leafValues>
            3.1468829512596130e-01 -8.5845902562141418e-02</leafValues></_>
        <_>
          <internalNodes>
            0 -1 266 5.6847715750336647e-03</internalNodes>
          <leafValues>
            -9.1860815882682800e-02 2.9451370239257812e-01</leafValues></_>
        <_>
          <internalNodes>
            0 -1 285 -1.3790376251563430e-03</internalNodes>
          <leafValues>
            -2.3370017111301422e-01 1.1466200649738312e-01</leafValues></_>
        <_>
          <internalNodes>
            0 -1 43 -1.0198274627327919e-02</internalNodes>
          <leafValues>
            1.8151606619358063e-01 -1.5491096675395966e-01</leafValues></_>
        <_>
          <internalNodes>
            0 -1 85 -1.0796082019805908e-01</internalNodes>
          <leafValues>
            -6.1859625577926636e-01 5.6426063179969788e-02</leafValues></_>
        <_>
          <internalNodes>
            0 -1 65 -3.1508214306086302e-04</internalNodes>
          <leafValues>
            1.7186580598354340e-01 -1.5248134732246399e-01</leafValues></_>
        <_>
          <internalNodes>
            0 -1 282 2.3769931867718697e-02</internalNodes>
          <leafValues>
            3.6008745431900024e-02 -6.6549521684646606e-01</leafValues></_>
        <_>
          <internalNodes>
            0 -1 239 -2.2764115128666162e-03</internalNodes>
          <leafValues>
            3.0211719870567322e-01 -9.0325742959976196e-02</leafValues></_>
        <_>
          <internalNodes>
            0 -1 236 1.8954200204461813e-03</internalNodes>
          <leafValues>
            -9.7007863223552704e-02 2.5195431709289551e-01</leafValues></_>
        <_>
          <internalNodes>
            0 -1 185 1.6286052763462067e-02</internalNodes>
          <leafValues>
            -9.1895312070846558e-02 2.6636266708374023e-01</leafValues></_>
        <_>
          <internalNodes>
            0 -1 256 8.9962202764581889e-05</internalNodes>
          <leafValues>
            -2.0281001925468445e-01 1.2235676497220993e-01</leafValues></_>
        <_>
          <internalNodes>
            0 -1 136 1.2412982992827892e-02</internalNodes>
          <leafValues>
            -8.8220149278640747e-02 2.9385775327682495e-01</leafValues></_>
        <_>
          <internalNodes>
            0 -1 178 2.2405469790101051e-02</internalNodes>
          <leafValues>
            4.4930513948202133e-02 -6.0722935199737549e-01</leafValues></_>
        <_>
          <internalNodes>
            0 -1 279 3.4069202374666929e-03</internalNodes>
          <leafValues>
            -1.2919829785823822e-01 2.0610465109348297e-01</leafValues></_>
        <_>
          <internalNodes>
            0 -1 324 -7.6092392206192017e-02</internalNodes>
          <leafValues>
            -5.7816779613494873e-01 5.3237847983837128e-02</leafValues></_>
        <_>
          <internalNodes>
            0 -1 420 5.2166162058711052e-03</internalNodes>
          <leafValues>
            3.8012273609638214e-02 -5.8413141965866089e-01</leafValues></_>
        <_>
          <internalNodes>
            0 -1 207 3.3410056494176388e-03</internalNodes>
          <leafValues>
            -1.0515326261520386e-01 2.3727211356163025e-01</leafValues></_>
        <_>
          <internalNodes>
            0 -1 120 -2.8767772018909454e-02</internalNodes>
          <leafValues>
            3.8503339886665344e-01 -6.2882751226425171e-02</leafValues></_>
        <_>
          <internalNodes>
            0 -1 241 -2.9653524979948997e-03</internalNodes>
          <leafValues>
            1.9198010861873627e-01 -1.2685315310955048e-01</leafValues></_>
        <_>
          <internalNodes>
            0 -1 240 1.9249935867264867e-03</internalNodes>
          <leafValues>
            -1.0064427554607391e-01 2.5488856434822083e-01</leafValues></_>
        <_>
          <internalNodes>
            0 -1 195 4.3655326589941978e-03</internalNodes>
          <leafValues>
            6.2931627035140991e-02 -3.9356192946434021e-01</leafValues></_>
        <_>
          <internalNodes>
            0 -1 322 -5.3448462858796120e-04</internalNodes>
          <leafValues>
            -2.5993669033050537e-01 9.1213658452033997e-02</leafValues></_>
        <_>
          <internalNodes>
            0 -1 332 -8.1880874931812286e-03</internalNodes>
          <leafValues>
            3.1601828336715698e-01 -9.9893383681774139e-02</leafValues></_>
        <_>
          <internalNodes>
            0 -1 11 5.1516778767108917e-02</internalNodes>
          <leafValues>
            -1.1055567860603333e-01 2.0463624596595764e-01</leafValues></_>
        <_>
          <internalNodes>
            0 -1 46 -2.8411098755896091e-03</internalNodes>
          <leafValues>
            1.7594666779041290e-01 -1.4977273344993591e-01</leafValues></_>
        <_>
          <internalNodes>
            0 -1 366 -5.2527893334627151e-02</internalNodes>
          <leafValues>
            3.2326871156692505e-01 -7.1999102830886841e-02</leafValues></_>
        <_>
          <internalNodes>
            0 -1 184 9.3341827392578125e-02</internalNodes>
          <leafValues>
            6.2596954405307770e-02 -4.2260041832923889e-01</leafValues></_></weakClassifiers></_>
    <!-- stage 14 -->
    <_>
      <maxWeakCount>43</maxWeakCount>
      <stageThreshold>-1.1066759824752808e+00</stageThreshold>
      <weakClassifiers>
        <_>
          <internalNodes>
            0 -1 119 -2.2976148873567581e-02</internalNodes>
          <leafValues>
            4.0145984292030334e-01 -3.6849460005760193e-01</leafValues></_>
        <_>
          <internalNodes>
            0 -1 173 -2.4878364056348801e-02</internalNodes>
          <leafValues>
            1.8928426504135132e-01 -1.7795524001121521e-01</leafValues></_>
        <_>
          <internalNodes>
            0 -1 438 -2.6611569337546825e-03</internalNodes>
          <leafValues>
            1.8981564044952393e-01 -1.2434417754411697e-01</leafValues></_>
        <_>
          <internalNodes>
            0 -1 26 4.1325292550027370e-03</internalNodes>
          <leafValues>
            -1.0191741585731506e-01 2.1421629190444946e-01</leafValues></_>
        <_>
          <internalNodes>
            0 -1 192 5.2130818367004395e-02</internalNodes>
          <leafValues>
            -7.4800990521907806e-02 3.0068027973175049e-01</leafValues></_>
        <_>
          <internalNodes>
            0 -1 228 6.1629246920347214e-03</internalNodes>
          <leafValues>
            -7.6929561793804169e-02 2.9250121116638184e-01</leafValues></_>
        <_>
          <internalNodes>
            0 -1 376 4.3139617890119553e-02</internalNodes>
          <leafValues>
            3.2637666910886765e-02 -7.6937526464462280e-01</leafValues></_>
        <_>
          <internalNodes>
            0 -1 318 8.5183288319967687e-05</internalNodes>
          <leafValues>
            -1.4995233714580536e-01 1.5164412558078766e-01</leafValues></_>
        <_>
          <internalNodes>
            0 -1 338 -1.4043964911252260e-03</internalNodes>
          <leafValues>
            -2.5722095370292664e-01 1.4556998014450073e-01</leafValues></_>
        <_>
          <internalNodes>
            0 -1 342 -1.7958159151021391e-04</internalNodes>
          <leafValues>
            1.5451757609844208e-01 -1.7140030860900879e-01</leafValues></_>
        <_>
          <internalNodes>
            0 -1 433 3.6441925913095474e-03</internalNodes>
          <leafValues>
            -1.1038591712713242e-01 2.6569864153862000e-01</leafValues></_>
        <_>
          <internalNodes>
            0 -1 355 -1.6403563320636749e-02</internalNodes>
          <leafValues>
            2.8724759817123413e-01 -9.0456657111644745e-02</leafValues></_>
        <_>
          <internalNodes>
            0 -1 153 -2.8954327106475830e-02</internalNodes>
          <leafValues>
            -6.4504027366638184e-01 4.5084837824106216e-02</leafValues></_>
        <_>
          <internalNodes>
            0 -1 129 2.6697181165218353e-03</internalNodes>
          <leafValues>
            -1.5180835127830505e-01 1.8625722825527191e-01</leafValues></_>
        <_>
          <internalNodes>
            0 -1 127 -4.3795860256068408e-04</internalNodes>
          <leafValues>
            1.9251829385757446e-01 -1.5582178533077240e-01</leafValues></_>
        <_>
          <internalNodes>
            0 -1 305 6.0694441199302673e-02</internalNodes>
          <leafValues>
            -7.7695459127426147e-02 3.4882673621177673e-01</leafValues></_>
        <_>
          <internalNodes>
            0 -1 204 3.8755372166633606e-02</internalNodes>
          <leafValues>
            5.3282991051673889e-02 -5.7774633169174194e-01</leafValues></_>
        <_>
          <internalNodes>
            0 -1 87 -2.0756974816322327e-02</internalNodes>
          <leafValues>
            3.3580502867698669e-01 -8.5011497139930725e-02</leafValues></_>
        <_>
          <internalNodes>
            0 -1 12 3.5362727940082550e-02</internalNodes>
          <leafValues>
            5.1542866975069046e-02 -5.0141286849975586e-01</leafValues></_>
        <_>
          <internalNodes>
            0 -1 102 6.5180482342839241e-03</internalNodes>
          <leafValues>
            6.0774039477109909e-02 -4.0774556994438171e-01</leafValues></_>
        <_>
          <internalNodes>
            0 -1 221 4.1212711483240128e-02</internalNodes>
          <leafValues>
            4.3625809252262115e-02 -5.8755081892013550e-01</leafValues></_>
        <_>
          <internalNodes>
            0 -1 111 -1.1509694159030914e-01</internalNodes>
          <leafValues>
            -5.9802812337875366e-01 3.8530781865119934e-02</leafValues></_>
        <_>
          <internalNodes>
            0 -1 304 -2.2297967225313187e-02</internalNodes>
          <leafValues>
            3.3240160346031189e-01 -8.0491103231906891e-02</leafValues></_>
        <_>
          <internalNodes>
            0 -1 172 1.4529315754771233e-02</internalNodes>
          <leafValues>
            3.9826206862926483e-02 -5.9480643272399902e-01</leafValues></_>
        <_>
          <internalNodes>
            0 -1 427 2.3734644055366516e-02</internalNodes>
          <leafValues>
            -7.3353230953216553e-02 3.9949169754981995e-01</leafValues></_>
        <_>
          <internalNodes>
            0 -1 96 -1.1685788631439209e-03</internalNodes>
          <leafValues>
            2.0233581960201263e-01 -1.4910505712032318e-01</leafValues></_>
        <_>
          <internalNodes>
            0 -1 21 -2.3206416517496109e-03</internalNodes>
          <leafValues>
            -2.4728451669216156e-01 1.2402100861072540e-01</leafValues></_>
        <_>
          <internalNodes>
            0 -1 140 -4.1986200958490372e-03</internalNodes>
          <leafValues>
            2.2771653532981873e-01 -1.2254125624895096e-01</leafValues></_>
        <_>
          <internalNodes>
            0 -1 81 1.2613961473107338e-02</internalNodes>
          <leafValues>
            -7.2526879608631134e-02 3.4867751598358154e-01</leafValues></_>
        <_>
          <internalNodes>
            0 -1 417 3.8592496421188116e-03</internalNodes>
          <leafValues>
            8.9779146015644073e-02 -2.7352920174598694e-01</leafValues></_>
        <_>
          <internalNodes>
            0 -1 388 1.4428850263357162e-02</internalNodes>
          <leafValues>
            5.2854157984256744e-02 -4.9790909886360168e-01</leafValues></_>
        <_>
          <internalNodes>
            0 -1 408 -1.5914069954305887e-03</internalNodes>
          <leafValues>
            1.7968040704727173e-01 -1.6170656681060791e-01</leafValues></_>
        <_>
          <internalNodes>
            0 -1 246 -3.1222296878695488e-02</internalNodes>
          <leafValues>
            -8.3689814805984497e-01 2.5177381932735443e-02</leafValues></_>
        <_>
          <internalNodes>
            0 -1 320 9.6124187111854553e-02</internalNodes>
          <leafValues>
            3.5399075597524643e-02 -5.9145081043243408e-01</leafValues></_>
        <_>
          <internalNodes>
            0 -1 273 2.0043577533215284e-03</internalNodes>
          <leafValues>
            -1.0516324639320374e-01 2.2451107203960419e-01</leafValues></_>
        <_>
          <internalNodes>
            0 -1 298 3.0896433163434267e-03</internalNodes>
          <leafValues>
            -8.8052257895469666e-02 2.7202969789505005e-01</leafValues></_>
        <_>
          <internalNodes>
            0 -1 317 -2.2548681125044823e-02</internalNodes>
          <leafValues>
            -6.7043292522430420e-01 3.2489567995071411e-02</leafValues></_>
        <_>
          <internalNodes>
            0 -1 230 -1.4810573775321245e-03</internalNodes>
          <leafValues>
            1.9325448572635651e-01 -1.2271914631128311e-01</leafValues></_>
        <_>
          <internalNodes>
            0 -1 82 1.3156428467482328e-03</internalNodes>
          <leafValues>
            -1.1819377541542053e-01 1.9166827201843262e-01</leafValues></_>
        <_>
          <internalNodes>
            0 -1 152 1.7278211191296577e-02</internalNodes>
          <leafValues>
            -7.7210307121276855e-02 3.0788409709930420e-01</leafValues></_>
        <_>
          <internalNodes>
            0 -1 91 -1.6858186572790146e-02</internalNodes>
          <leafValues>
            -2.8097915649414062e-01 8.6290098726749420e-02</leafValues></_>
        <_>
          <internalNodes>
            0 -1 335 -1.5584100037813187e-02</internalNodes>
          <leafValues>
            2.4158447980880737e-01 -9.8008431494235992e-02</leafValues></_>
        <_>
          <internalNodes>
            0 -1 403 2.9816687107086182e-02</internalNodes>
          <leafValues>
            -1.2660010159015656e-01 2.0415078103542328e-01</leafValues></_></weakClassifiers></_></stages>
  <features>
    <_>
      <rects>
        <_>
          0 0 10 12 -1.</_>
