<?xml version="1.0"?>
<opencv_storage>
<stage3>
  <maxWeakCount>24</maxWeakCount>
  <stageThreshold>-1.3859900236129761e+00</stageThreshold>
  <weakClassifiers>
    <_>
      <internalNodes>
        0 -1 83251 6.9724231958389282e-02</internalNodes>
      <leafValues>
        -4.5637843012809753e-01 4.2042756080627441e-01</leafValues></_>
    <_>
      <internalNodes>
        0 -1 39045 -1.6394570469856262e-02</internalNodes>
      <leafValues>
        2.8084629774093628e-01 -2.8631776571273804e-01</leafValues></_>
    <_>
      <internalNodes>
        0 -1 4223 1.3120630756020546e-02</internalNodes>
      <leafValues>
        -1.3319137692451477e-01 5.6005227565765381e-01</leafValues></_>
    <_>
      <internalNodes>
        0 -1 75857 -1.6054935753345490e-02</internalNodes>
      <leafValues>
        4.8098996281623840e-01 -1.3569501042366028e-01</leafValues></_>
    <_>
      <internalNodes>
        0 -1 69920 -9.1319549828767776e-03</internalNodes>
      <leafValues>
        3.1251931190490723e-01 -1.8863192200660706e-01</leafValues></_>
    <_>
      <internalNodes>
        0 -1 88701 -1.1982669122517109e-02</internalNodes>
      <leafValues>
        4.6677842736244202e-01 -1.2274359166622162e-01</leafValues></_>
    <_>
      <internalNodes>
        0 -1 81746 -1.9355475902557373e-02</internalNodes>
      <leafValues>
        4.5902687311172485e-01 -1.1958903074264526e-01</leafValues></_>
    <_>
      <internalNodes>
        0 -1 20403 1.6605417476966977e-03</internalNodes>
      <leafValues>
        -1.2786448001861572e-01 4.0410667657852173e-01</leafValues></_>
    <_>
      <internalNodes>
        0 -1 38830 1.6675007063895464e-03</internalNodes>
      <leafValues>
        -1.5187919139862061e-01 3.5748425126075745e-01</leafValues></_>
    <_>
      <internalNodes>
        0 -1 30398 -1.6171531751751900e-02</internalNodes>
      <leafValues>
        -5.4885786771774292e-01 8.2881778478622437e-02</leafValues></_>
    <_>
      <internalNodes>
        0 -1 868 9.9586248397827148e-03</internalNodes>
      <leafValues>
        -1.4868396520614624e-01 3.4848499298095703e-01</leafValues></_>
    <_>
      <internalNodes>
        0 -1 64760 -1.9947107881307602e-02</internalNodes>
      <leafValues>
        4.3032968044281006e-01 -1.3179589807987213e-01</leafValues></_>
    <_>
      <internalNodes>
        0 -1 46265 -9.6241582650691271e-04</internalNodes>
      <leafValues>
        3.0872800946235657e-01 -1.6649650037288666e-01</leafValues></_>
    <_>
      <internalNodes>
        0 -1 71765 1.8919479101896286e-02</internalNodes>
      <leafValues>
        6.5324388444423676e-02 -9.1745436191558838e-01</leafValues></_>
    <_>
      <internalNodes>
        0 -1 80552 -2.6911422610282898e-03</internalNodes>
      <leafValues>
        -4.3625724315643311e-01 1.0026938468217850e-01</leafValues></_>
    <_>
      <internalNodes>
        0 -1 79848 2.2028360515832901e-02</internalNodes>
      <leafValues>
        -1.6908177733421326e-01 3.5662978887557983e-01</leafValues></_>
    <_>
      <internalNodes>
        0 -1 65388 -1.2346744537353516e-02</internalNodes>
      <leafValues>
        4.2607209086418152e-01 -1.4149668812751770e-01</leafValues></_>
    <_>
      <internalNodes>
        0 -1 53727 2.9779453761875629e-03</internalNodes>
      <leafValues>
        -1.3025319576263428e-01 3.8555425405502319e-01</leafValues></_>
    <_>
      <internalNodes>
        0 -1 11839 5.3656715899705887e-03</internalNodes>
      <leafValues>
        -1.3653585314750671e-01 3.6425802111625671e-01</leafValues></_>
    <_>
      <internalNodes>
        0 -1 14403 -4.8894342035055161e-03</internalNodes>
      <leafValues>
        3.0430230498313904e-01 -1.6847360134124756e-01</leafValues></_>
    <_>
      <internalNodes>
        0 -1 65895 9.3061998486518860e-03</internalNodes>
      <leafValues>
        7.9742640256881714e-02 -6.3552266359329224e-01</leafValues></_>
    <_>
      <internalNodes>
        0 -1 66263 1.3018215075135231e-02</internalNodes>
      <leafValues>
        8.5453711450099945e-02 -5.3036874532699585e-01</leafValues></_>
    <_>
      <internalNodes>
        0 -1 69448 -1.0538543574512005e-03</internalNodes>
      <leafValues>
        3.1515544652938843e-01 -1.6217571496963501e-01</leafValues></_>
    <_>
      <internalNodes>
        0 -1 69448 1.3117239577695727e-03</internalNodes>
      <leafValues>
        -1.5207792818546295e-01 3.9038896560668945e-01</leafValues></_></weakClassifiers></stage3>
</opencv_storage>
