<?xml version="1.0"?>
<opencv_storage>
<cascade>
  <stageType>BOOST</stageType>
  <featureType>HAAR</featureType>
  <height>20</height>
  <width>11</width>
  <stageParams>
    <boostType>GAB</boostType>
    <minHitRate>9.9500000476837158e-01</minHitRate>
    <maxFalseAlarm>5.0000000000000000e-01</maxFalseAlarm>
    <weightTrimRate>9.4999999999999996e-01</weightTrimRate>
    <maxDepth>1</maxDepth>
    <maxWeakCount>100</maxWeakCount></stageParams>
  <featureParams>
    <maxCatCount>0</maxCatCount>
    <featSize>1</featSize>
    <mode>ALL</mode></featureParams>
  <stageNum>10</stageNum>
  <stages>
    <!-- stage 0 -->
    <_>
      <maxWeakCount>11</maxWeakCount>
      <stageThreshold>-1.6064417362213135e+00</stageThreshold>
      <weakClassifiers>
        <_>
          <internalNodes>
            0 -1 159 4.7900937497615814e-03</internalNodes>
          <leafValues>
            -7.1129709482192993e-01 2.9702970385551453e-01</leafValues></_>
        <_>
          <internalNodes>
            0 -1 203 1.7450001090764999e-02</internalNodes>
          <leafValues>
            8.8996089994907379e-02 -8.8063895702362061e-01</leafValues></_>
        <_>
          <internalNodes>
            0 -1 151 2.0799434278160334e-03</internalNodes>
          <leafValues>
            -2.7906483411788940e-01 5.0321567058563232e-01</leafValues></_>
        <_>
          <internalNodes>
            0 -1 53 4.5755580067634583e-03</internalNodes>
          <leafValues>
            -2.6991671323776245e-01 4.1471904516220093e-01</leafValues></_>
        <_>
          <internalNodes>
            0 -1 3 3.7115026265382767e-02</internalNodes>
          <leafValues>
            -2.0467452704906464e-01 5.3886860609054565e-01</leafValues></_>
        <_>
          <internalNodes>
            0 -1 165 -2.8641512617468834e-03</internalNodes>
          <leafValues>
            6.2464362382888794e-01 -1.8465572595596313e-01</leafValues></_>
        <_>
          <internalNodes>
            0 -1 130 1.8002218566834927e-03</internalNodes>
          <leafValues>
            -2.1892812848091125e-01 4.4986832141876221e-01</leafValues></_>
        <_>
          <internalNodes>
            0 -1 208 1.6241192352026701e-03</internalNodes>
          <leafValues>
            -2.4248908460140228e-01 3.8886898756027222e-01</leafValues></_>
        <_>
          <internalNodes>
            0 -1 181 -6.8857371807098389e-03</internalNodes>
          <leafValues>
            4.7430863976478577e-01 -1.9063931703567505e-01</leafValues></_>
        <_>
          <internalNodes>
            0 -1 166 6.8110590800642967e-03</internalNodes>
          <leafValues>
            -1.7532512545585632e-01 4.4678083062171936e-01</leafValues></_>
        <_>
          <internalNodes>
            0 -1 145 -1.4848494902253151e-02</internalNodes>
          <leafValues>
            -7.4116855859756470e-01 1.5019465982913971e-01</leafValues></_></weakClassifiers></_>
    <!-- stage 1 -->
    <_>
      <maxWeakCount>17</maxWeakCount>
      <stageThreshold>-1.4326137304306030e+00</stageThreshold>
      <weakClassifiers>
        <_>
          <internalNodes>
            0 -1 157 2.2769456729292870e-02</internalNodes>
          <leafValues>
            -5.9697932004928589e-01 1.1538461595773697e-01</leafValues></_>
        <_>
          <internalNodes>
            0 -1 44 -1.7225166782736778e-02</internalNodes>
          <leafValues>
            2.4787293374538422e-01 -4.2479756474494934e-01</leafValues></_>
        <_>
          <internalNodes>
            0 -1 66 -4.4004969298839569e-02</internalNodes>
          <leafValues>
            -7.6585060358047485e-01 1.1162225157022476e-01</leafValues></_>
        <_>
          <internalNodes>
            0 -1 235 -1.3354691909626126e-03</internalNodes>
          <leafValues>
            2.7409118413925171e-01 -2.3844140768051147e-01</leafValues></_>
        <_>
          <internalNodes>
            0 -1 137 2.2320412099361420e-02</internalNodes>
          <leafValues>
            8.6149655282497406e-02 -6.7115718126296997e-01</leafValues></_>
        <_>
          <internalNodes>
            0 -1 140 -2.5442425161600113e-02</internalNodes>
          <leafValues>
            -7.4286770820617676e-01 1.0699617862701416e-01</leafValues></_>
        <_>
          <internalNodes>
            0 -1 38 2.2232928313314915e-03</internalNodes>
          <leafValues>
            -2.6801294088363647e-01 2.7171060442924500e-01</leafValues></_>
        <_>
          <internalNodes>
            0 -1 130 2.0074099302291870e-03</internalNodes>
          <leafValues>
            -1.9683030247688293e-01 3.3502721786499023e-01</leafValues></_>
        <_>
          <internalNodes>
            0 -1 184 -3.6533728241920471e-02</internalNodes>
          <leafValues>
            -7.3890900611877441e-01 7.8351803123950958e-02</leafValues></_>
        <_>
          <internalNodes>
            0 -1 93 -7.8676231205463409e-03</internalNodes>
          <leafValues>
            2.8040254116058350e-01 -2.2405378520488739e-01</leafValues></_>
        <_>
          <internalNodes>
            0 -1 203 1.7498821020126343e-02</internalNodes>
          <leafValues>
            8.6706005036830902e-02 -7.1991592645645142e-01</leafValues></_>
        <_>
          <internalNodes>
            0 -1 199 1.8078526481986046e-03</internalNodes>
          <leafValues>
            -2.3245678842067719e-01 2.7441588044166565e-01</leafValues></_>
        <_>
          <internalNodes>
            0 -1 217 1.9216552609577775e-03</internalNodes>
          <leafValues>
            -1.7451134324073792e-01 3.4898853302001953e-01</leafValues></_>
        <_>
          <internalNodes>
            0 -1 76 1.9470145925879478e-02</internalNodes>
          <leafValues>
            9.4527758657932281e-02 -7.6698172092437744e-01</leafValues></_>
        <_>
          <internalNodes>
            0 -1 227 -8.0945645458996296e-04</internalNodes>
          <leafValues>
            2.2184668481349945e-01 -2.6348364353179932e-01</leafValues></_>
        <_>
          <internalNodes>
            0 -1 268 7.7804792672395706e-03</internalNodes>
          <leafValues>
            6.2464963644742966e-02 -7.7590984106063843e-01</leafValues></_>
        <_>
          <internalNodes>
            0 -1 137 -1.2527838349342346e-02</internalNodes>
          <leafValues>
            -6.5108770132064819e-01 7.6728537678718567e-02</leafValues></_></weakClassifiers></_>
    <!-- stage 2 -->
    <_>
      <maxWeakCount>20</maxWeakCount>
      <stageThreshold>-1.5055400133132935e+00</stageThreshold>
      <weakClassifiers>
        <_>
          <internalNodes>
            0 -1 85 2.4609122425317764e-02</internalNodes>
          <leafValues>
            -5.8907186985015869e-01 2.3901098966598511e-01</leafValues></_>
        <_>
          <internalNodes>
            0 -1 230 -2.0073903724551201e-03</internalNodes>
          <leafValues>
            1.8760432302951813e-01 -4.0445533394813538e-01</leafValues></_>
        <_>
          <internalNodes>
            0 -1 250 -3.4139915369451046e-03</internalNodes>
          <leafValues>
            2.3561054468154907e-01 -3.0322650074958801e-01</leafValues></_>
        <_>
          <internalNodes>
            0 -1 52 8.6795128881931305e-03</internalNodes>
          <leafValues>
            -2.5501519441604614e-01 2.7074125409126282e-01</leafValues></_>
        <_>
          <internalNodes>
            0 -1 143 1.4673389494419098e-02</internalNodes>
          <leafValues>
            1.2929598987102509e-01 -6.7337912321090698e-01</leafValues></_>
        <_>
          <internalNodes>
            0 -1 192 -1.5899604186415672e-02</internalNodes>
          <leafValues>
            -7.8128677606582642e-01 8.0436758697032928e-02</leafValues></_>
        <_>
          <internalNodes>
            0 -1 36 5.4024695418775082e-03</internalNodes>
          <leafValues>
            -2.7845090627670288e-01 2.3528285324573517e-01</leafValues></_>
        <_>
          <internalNodes>
            0 -1 219 -6.8122453987598419e-02</internalNodes>
          <leafValues>
            -8.5201007127761841e-01 8.3966031670570374e-02</leafValues></_>
        <_>
          <internalNodes>
            0 -1 2 3.6291182041168213e-02</internalNodes>
          <leafValues>
            -1.6286171972751617e-01 3.8008993864059448e-01</leafValues></_>
        <_>
          <internalNodes>
            0 -1 112 2.0950231701135635e-03</internalNodes>
          <leafValues>
            -1.4396357536315918e-01 3.8122698664665222e-01</leafValues></_>
        <_>
          <internalNodes>
            0 -1 123 8.5971225053071976e-03</internalNodes>
          <leafValues>
            7.2108998894691467e-02 -7.5682371854782104e-01</leafValues></_>
        <_>
          <internalNodes>
            0 -1 35 -4.0022462606430054e-02</internalNodes>
          <leafValues>
            -8.3290958404541016e-01 6.1531729996204376e-02</leafValues></_>
        <_>
          <internalNodes>
            0 -1 180 -1.9977414049208164e-03</internalNodes>
          <leafValues>
            3.7783768773078918e-01 -1.6189385950565338e-01</leafValues></_>
        <_>
          <internalNodes>
            0 -1 98 -2.0014231558889151e-03</internalNodes>
          <leafValues>
            4.1014328598976135e-01 -1.4923265576362610e-01</leafValues></_>
        <_>
          <internalNodes>
            0 -1 150 -2.4798526428639889e-03</internalNodes>
          <leafValues>
            3.5333409905433655e-01 -1.5064956247806549e-01</leafValues></_>
        <_>
          <internalNodes>
            0 -1 82 -1.8729283474385738e-03</internalNodes>
          <leafValues>
            3.3634904026985168e-01 -1.5658995509147644e-01</leafValues></_>
        <_>
          <internalNodes>
            0 -1 138 9.9139381200075150e-03</internalNodes>
          <leafValues>
            1.3997897505760193e-01 -3.9923152327537537e-01</leafValues></_>
        <_>
          <internalNodes>
            0 -1 146 4.5215375721454620e-02</internalNodes>
          <leafValues>
            5.7601261883974075e-02 -7.7151215076446533e-01</leafValues></_>
        <_>
          <internalNodes>
            0 -1 185 3.0153021216392517e-02</internalNodes>
          <leafValues>
            4.3833151459693909e-02 -7.8545230627059937e-01</leafValues></_>
        <_>
          <internalNodes>
            0 -1 216 -6.8627325817942619e-03</internalNodes>
          <leafValues>
            2.9258754849433899e-01 -2.0542590320110321e-01</leafValues></_></weakClassifiers></_>
    <!-- stage 3 -->
    <_>
      <maxWeakCount>26</maxWeakCount>
      <stageThreshold>-1.3873423337936401e+00</stageThreshold>
      <weakClassifiers>
        <_>
          <internalNodes>
            0 -1 134 1.9450098276138306e-02</internalNodes>
          <leafValues>
            -5.6524980068206787e-01 1.6155989468097687e-01</leafValues></_>
        <_>
          <internalNodes>
            0 -1 10 -1.5750516206026077e-02</internalNodes>
          <leafValues>
            2.5440788269042969e-01 -2.8533628582954407e-01</leafValues></_>
        <_>
          <internalNodes>
            0 -1 83 -1.6563348472118378e-03</internalNodes>
          <leafValues>
            3.4759071469306946e-01 -1.7200338840484619e-01</leafValues></_>
        <_>
          <internalNodes>
            0 -1 83 2.5363801978528500e-03</internalNodes>
          <leafValues>
            -1.1607398092746735e-01 4.8654383420944214e-01</leafValues></_>
        <_>
          <internalNodes>
            0 -1 128 -1.2440606206655502e-01</internalNodes>
          <leafValues>
            3.7738838791847229e-01 -1.3548049330711365e-01</leafValues></_>
        <_>
          <internalNodes>
            0 -1 116 -9.2300131916999817e-02</internalNodes>
          <leafValues>
            -6.0356128215789795e-01 7.5374253094196320e-02</leafValues></_>
        <_>
          <internalNodes>
            0 -1 95 8.8395595550537109e-02</internalNodes>
          <leafValues>
            -1.0671651363372803e-01 5.2347153425216675e-01</leafValues></_>
        <_>
          <internalNodes>
            0 -1 294 1.1207188479602337e-02</internalNodes>
          <leafValues>
            -1.5609064698219299e-01 3.0568668246269226e-01</leafValues></_>
        <_>
          <internalNodes>
            0 -1 242 1.7583942972123623e-03</internalNodes>
          <leafValues>
            -1.7530077695846558e-01 2.8253829479217529e-01</leafValues></_>
        <_>
          <internalNodes>
            0 -1 267 1.5785867348313332e-02</internalNodes>
          <leafValues>
            9.4550751149654388e-02 -7.5480633974075317e-01</leafValues></_>
        <_>
          <internalNodes>
            0 -1 161 6.1856266111135483e-03</internalNodes>
          <leafValues>
            -2.4238301813602448e-01 2.1821855008602142e-01</leafValues></_>
        <_>
          <internalNodes>
            0 -1 202 4.3568443506956100e-02</internalNodes>
          <leafValues>
            4.4955726712942123e-02 -7.3425090312957764e-01</leafValues></_>
        <_>
          <internalNodes>
            0 -1 26 -8.2029802724719048e-03</internalNodes>
          <leafValues>
            3.1110864877700806e-01 -1.5341228246688843e-01</leafValues></_>
        <_>
          <internalNodes>
            0 -1 73 -1.6390472650527954e-02</internalNodes>
          <leafValues>
            -4.8120874166488647e-01 8.2346178591251373e-02</leafValues></_>
        <_>
          <internalNodes>
            0 -1 178 1.0247550904750824e-02</internalNodes>
          <leafValues>
            -1.5877172350883484e-01 2.5400865077972412e-01</leafValues></_>
        <_>
          <internalNodes>
            0 -1 23 8.1123761832714081e-02</internalNodes>
          <leafValues>
            6.0326904058456421e-02 -6.5308135747909546e-01</leafValues></_>
        <_>
          <internalNodes>
            0 -1 168 -3.6749958526343107e-03</internalNodes>
          <leafValues>
            2.7654740214347839e-01 -1.4937292039394379e-01</leafValues></_>
        <_>
          <internalNodes>
            0 -1 173 1.2212906032800674e-02</internalNodes>
          <leafValues>
            5.8170557022094727e-02 -7.5488662719726562e-01</leafValues></_>
        <_>
          <internalNodes>
            0 -1 29 2.7678774204105139e-03</internalNodes>
          <leafValues>
            -1.5916988253593445e-01 3.0436822772026062e-01</leafValues></_>
        <_>
          <internalNodes>
            0 -1 149 -6.6388666629791260e-02</internalNodes>
          <leafValues>
            -6.5767806768417358e-01 6.5131448209285736e-02</leafValues></_>
        <_>
          <internalNodes>
            0 -1 206 -6.3315504230558872e-03</internalNodes>
          <leafValues>
            1.2184926122426987e-01 -3.0690437555313110e-01</leafValues></_>
        <_>
          <internalNodes>
            0 -1 120 -1.3784684706479311e-03</internalNodes>
          <leafValues>
            3.0734890699386597e-01 -1.3723804056644440e-01</leafValues></_>
        <_>
          <internalNodes>
            0 -1 279 -1.6176681965589523e-02</internalNodes>
          <leafValues>
            -8.8103204965591431e-01 4.8676796257495880e-02</leafValues></_>
        <_>
          <internalNodes>
            0 -1 106 8.1765360664576292e-04</internalNodes>
          <leafValues>
            -1.7385776340961456e-01 2.3997740447521210e-01</leafValues></_>
        <_>
          <internalNodes>
            0 -1 270 -1.8877241760492325e-02</internalNodes>
          <leafValues>
            -7.2301959991455078e-01 5.5458996444940567e-02</leafValues></_>
        <_>
          <internalNodes>
            0 -1 282 9.4703055918216705e-02</internalNodes>
          <leafValues>
            -7.6566673815250397e-02 6.2830585241317749e-01</leafValues></_></weakClassifiers></_>
    <!-- stage 4 -->
    <_>
      <maxWeakCount>33</maxWeakCount>
      <stageThreshold>-1.4056626558303833e+00</stageThreshold>
      <weakClassifiers>
        <_>
          <internalNodes>
            0 -1 160 1.4742996543645859e-02</internalNodes>
          <leafValues>
            -5.7076203823089600e-01 8.2125604152679443e-02</leafValues></_>
        <_>
          <internalNodes>
            0 -1 69 5.3672213107347488e-03</internalNodes>
          <leafValues>
            -2.2789354622364044e-01 2.4042551219463348e-01</leafValues></_>
        <_>
          <internalNodes>
            0 -1 102 2.0378936082124710e-02</internalNodes>
          <leafValues>
            -9.5691755414009094e-02 4.7807583212852478e-01</leafValues></_>
        <_>
          <internalNodes>
            0 -1 174 -8.1788459792733192e-03</internalNodes>
          <leafValues>
            2.8128886222839355e-01 -1.7349943518638611e-01</leafValues></_>
        <_>
          <internalNodes>
            0 -1 246 2.0487070083618164e-02</internalNodes>
          <leafValues>
            7.4096754193305969e-02 -6.3370126485824585e-01</leafValues></_>
        <_>
          <internalNodes>
            0 -1 34 4.1019976139068604e-02</internalNodes>
          <leafValues>
            -1.2601119279861450e-01 3.6202380061149597e-01</leafValues></_>
        <_>
          <internalNodes>
            0 -1 48 -1.0256696492433548e-02</internalNodes>
          <leafValues>
            1.8830372393131256e-01 -2.1189801394939423e-01</leafValues></_>
        <_>
          <internalNodes>
            0 -1 150 -2.9565370641648769e-03</internalNodes>
          <leafValues>
            2.7895885705947876e-01 -1.3823576271533966e-01</leafValues></_>
        <_>
          <internalNodes>
            0 -1 91 -3.3414429053664207e-03</internalNodes>
          <leafValues>
            3.1690913438796997e-01 -1.0967747122049332e-01</leafValues></_>
        <_>
          <internalNodes>
            0 -1 158 8.4183569997549057e-03</internalNodes>
          <leafValues>
            1.0491574555635452e-01 -3.8228785991668701e-01</leafValues></_>
        <_>
          <internalNodes>
            0 -1 183 3.3569756895303726e-02</internalNodes>
          <leafValues>
            6.6643156111240387e-02 -6.4608085155487061e-01</leafValues></_>
        <_>
          <internalNodes>
            0 -1 190 -3.2506622374057770e-02</internalNodes>
          <leafValues>
            -8.0511444807052612e-01 2.8137933462858200e-02</leafValues></_>
        <_>
          <internalNodes>
            0 -1 124 -1.2387330643832684e-02</internalNodes>
          <leafValues>
            -6.8779253959655762e-01 4.6309184283018112e-02</leafValues></_>
        <_>
          <internalNodes>
            0 -1 258 -6.8941460922360420e-03</internalNodes>
          <leafValues>
            3.3208191394805908e-01 -9.9528253078460693e-02</leafValues></_>
        <_>
          <internalNodes>
            0 -1 264 9.2532392591238022e-03</internalNodes>
          <leafValues>
            -1.0813471674919128e-01 3.5833758115768433e-01</leafValues></_>
        <_>
          <internalNodes>
            0 -1 201 1.0991157963871956e-02</internalNodes>
          <leafValues>
            8.3909660577774048e-02 -4.7778806090354919e-01</leafValues></_>
        <_>
          <internalNodes>
            0 -1 148 1.8395278602838516e-02</internalNodes>
          <leafValues>
            -1.8373100459575653e-01 2.0350548624992371e-01</leafValues></_>
        <_>
          <internalNodes>
            0 -1 227 -1.2786040315404534e-04</internalNodes>
          <leafValues>
            1.4808064699172974e-01 -2.5942716002464294e-01</leafValues></_>
        <_>
          <internalNodes>
            0 -1 290 2.3413203656673431e-02</internalNodes>
          <leafValues>
            7.3843583464622498e-02 -4.6857598423957825e-01</leafValues></_>
        <_>
          <internalNodes>
            0 -1 17 2.7855619788169861e-02</internalNodes>
          <leafValues>
            6.1899945139884949e-02 -4.9252128601074219e-01</leafValues></_>
        <_>
          <internalNodes>
            0 -1 8 -3.6156378686428070e-02</internalNodes>
          <leafValues>
            3.1377911567687988e-01 -1.1923319101333618e-01</leafValues></_>
        <_>
          <internalNodes>
            0 -1 103 7.7477497979998589e-03</internalNodes>
          <leafValues>
            -1.5832114219665527e-01 2.6954016089439392e-01</leafValues></_>
        <_>
          <internalNodes>
            0 -1 145 2.4276774376630783e-02</internalNodes>
          <leafValues>
            5.8225914835929871e-02 -6.7267030477523804e-01</leafValues></_>
        <_>
          <internalNodes>
            0 -1 155 -2.4900340940803289e-03</internalNodes>
          <leafValues>
            2.7179422974586487e-01 -1.3121445477008820e-01</leafValues></_>
        <_>
          <internalNodes>
            0 -1 142 -7.9838735982775688e-03</internalNodes>
          <leafValues>
            -6.6288441419601440e-01 6.0290675610303879e-02</leafValues></_>
        <_>
          <internalNodes>
            0 -1 96 -3.3987066708505154e-03</internalNodes>
          <leafValues>
            2.2471435368061066e-01 -1.5994761884212494e-01</leafValues></_>
        <_>
          <internalNodes>
            0 -1 116 6.9297432899475098e-02</internalNodes>
          <leafValues>
            9.2158958315849304e-02 -3.5526743531227112e-01</leafValues></_>
        <_>
          <internalNodes>
            0 -1 131 1.0239212773740292e-02</internalNodes>
          <leafValues>
            4.6062957495450974e-02 -6.9642150402069092e-01</leafValues></_>
        <_>
          <internalNodes>
            0 -1 88 3.6840655375272036e-03</internalNodes>
          <leafValues>
            -1.1134111881256104e-01 3.0214595794677734e-01</leafValues></_>
        <_>
          <internalNodes>
            0 -1 89 3.5219090059399605e-03</internalNodes>
          <leafValues>
            -8.9224427938461304e-02 3.6550423502922058e-01</leafValues></_>
        <_>
          <internalNodes>
            0 -1 114 1.3040727935731411e-03</internalNodes>
          <leafValues>
            -1.3032674789428711e-01 2.3842692375183105e-01</leafValues></_>
        <_>
          <internalNodes>
            0 -1 192 1.5894260257482529e-02</internalNodes>
          <leafValues>
            4.5894589275121689e-02 -6.7235028743743896e-01</leafValues></_>
        <_>
          <internalNodes>
            0 -1 4 -3.7648741155862808e-02</internalNodes>
          <leafValues>
            3.5197898745536804e-01 -9.1519422829151154e-02</leafValues></_></weakClassifiers></_>
    <!-- stage 5 -->
    <_>
      <maxWeakCount>33</maxWeakCount>
      <stageThreshold>-1.2982043027877808e+00</stageThreshold>
      <weakClassifiers>
        <_>
          <internalNodes>
            0 -1 160 1.4225643128156662e-02</internalNodes>
          <leafValues>
            -5.7228195667266846e-01 4.1619796305894852e-02</leafValues></_>
        <_>
          <internalNodes>
            0 -1 177 8.4735583513975143e-03</internalNodes>
          <leafValues>
            -2.3058536648750305e-01 2.4667562544345856e-01</leafValues></_>
        <_>
          <internalNodes>
            0 -1 169 -1.4528261963278055e-03</internalNodes>
          <leafValues>
            1.8948528170585632e-01 -1.9157719612121582e-01</leafValues></_>
        <_>
          <internalNodes>
            0 -1 39 4.1418982436880469e-04</internalNodes>
          <leafValues>
            -2.0707513391971588e-01 1.6212539374828339e-01</leafValues></_>
        <_>
          <internalNodes>
            0 -1 104 8.4128062007948756e-04</internalNodes>
          <leafValues>
            -1.8291716277599335e-01 2.0055583119392395e-01</leafValues></_>
        <_>
          <internalNodes>
            0 -1 269 -1.8342701718211174e-02</internalNodes>
          <leafValues>
            -8.2530337572097778e-01 6.8272128701210022e-02</leafValues></_>
        <_>
          <internalNodes>
            0 -1 288 1.2969080358743668e-02</internalNodes>
          <leafValues>
            -1.0941737890243530e-01 3.2008105516433716e-01</leafValues></_>
        <_>
          <internalNodes>
            0 -1 264 -1.4847040176391602e-02</internalNodes>
          <leafValues>
            3.1283140182495117e-01 -1.0910392552614212e-01</leafValues></_>
        <_>
          <internalNodes>
            0 -1 176 3.4367185086011887e-02</internalNodes>
          <leafValues>
            5.9672929346561432e-02 -7.1437042951583862e-01</leafValues></_>
        <_>
          <internalNodes>
            0 -1 135 7.7003352344036102e-03</internalNodes>
          <leafValues>
            -1.1041714251041412e-01 3.7303096055984497e-01</leafValues></_>
        <_>
          <internalNodes>
            0 -1 58 -1.3642418198287487e-03</internalNodes>
          <leafValues>
            2.6002320647239685e-01 -1.1689318716526031e-01</leafValues></_>
        <_>
          <internalNodes>
            0 -1 12 2.0693749189376831e-02</internalNodes>
          <leafValues>
            -1.1140595376491547e-01 2.9310634732246399e-01</leafValues></_>
        <_>
          <internalNodes>
            0 -1 253 -3.9270608685910702e-03</internalNodes>
          <leafValues>
            -2.5648182630538940e-01 1.3729418814182281e-01</leafValues></_>
        <_>
          <internalNodes>
            0 -1 41 -2.3043989203870296e-03</internalNodes>
          <leafValues>
            2.4258691072463989e-01 -1.3731469213962555e-01</leafValues></_>
        <_>
          <internalNodes>
            0 -1 244 -1.4105256646871567e-02</internalNodes>
          <leafValues>
            -5.8891206979751587e-01 6.2614664435386658e-02</leafValues></_>
        <_>
          <internalNodes>
            0 -1 78 1.6101901419460773e-03</internalNodes>
          <leafValues>
            -1.4101304113864899e-01 2.7854037284851074e-01</leafValues></_>
        <_>
          <internalNodes>
            0 -1 116 -5.6743554770946503e-02</internalNodes>
          <leafValues>
            -3.9967647194862366e-01 8.0845825374126434e-02</leafValues></_>
        <_>
          <internalNodes>
            0 -1 50 -3.2834741286933422e-03</internalNodes>
          <leafValues>
            2.7001920342445374e-01 -1.2363185733556747e-01</leafValues></_>
        <_>
          <internalNodes>
            0 -1 215 2.3473994806408882e-03</internalNodes>
          <leafValues>
            -1.0828790068626404e-01 3.2159048318862915e-01</leafValues></_>
        <_>
          <internalNodes>
            0 -1 140 -1.1632431298494339e-02</internalNodes>
          <leafValues>
            -4.0194988250732422e-01 8.3875253796577454e-02</leafValues></_>
        <_>
          <internalNodes>
            0 -1 211 -1.5735939145088196e-02</internalNodes>
          <leafValues>
            -5.0263768434524536e-01 6.7007496953010559e-02</leafValues></_>
        <_>
          <internalNodes>
            0 -1 273 8.3620429039001465e-02</internalNodes>
          <leafValues>
            2.8845960274338722e-02 -7.9362815618515015e-01</leafValues></_>
        <_>
          <internalNodes>
            0 -1 75 -1.7595227807760239e-02</internalNodes>
          <leafValues>
            -9.0899342298507690e-01 2.4534557014703751e-02</leafValues></_>
        <_>
          <internalNodes>
            0 -1 237 -5.3888648748397827e-02</internalNodes>
          <leafValues>
            -7.0591497421264648e-01 3.4675780683755875e-02</leafValues></_>
        <_>
          <internalNodes>
            0 -1 19 -3.9528004825115204e-02</internalNodes>
          <leafValues>
            2.5999939441680908e-01 -1.3167586922645569e-01</leafValues></_>
        <_>
          <internalNodes>
            0 -1 37 -2.0570270717144012e-02</internalNodes>
          <leafValues>
            2.3474171757698059e-01 -1.5843608975410461e-01</leafValues></_>
        <_>
          <internalNodes>
            0 -1 198 1.0877016466110945e-03</internalNodes>
          <leafValues>
            -1.7256589233875275e-01 1.9146426022052765e-01</leafValues></_>
        <_>
          <internalNodes>
            0 -1 196 -4.3791029602289200e-03</internalNodes>
          <leafValues>
            2.8360542654991150e-01 -1.3474401831626892e-01</leafValues></_>
        <_>
          <internalNodes>
            0 -1 186 -1.7235150560736656e-02</internalNodes>
          <leafValues>
            -6.7252892255783081e-01 4.7644596546888351e-02</leafValues></_>
        <_>
          <internalNodes>
            0 -1 281 -1.9712653011083603e-02</internalNodes>
          <leafValues>
            3.3215034008026123e-01 -9.8700933158397675e-02</leafValues></_>
        <_>
          <internalNodes>
            0 -1 27 3.1545296311378479e-02</internalNodes>
          <leafValues>
            4.3597433716058731e-02 -7.3390185832977295e-01</leafValues></_>
        <_>
          <internalNodes>
            0 -1 231 1.0904712975025177e-01</internalNodes>
          <leafValues>
            2.8022419661283493e-02 -7.5167161226272583e-01</leafValues></_>
        <_>
          <internalNodes>
            0 -1 277 1.1419539805501699e-03</internalNodes>
          <leafValues>
            -1.3324038684368134e-01 2.2442016005516052e-01</leafValues></_></weakClassifiers></_>
    <!-- stage 6 -->
    <_>
      <maxWeakCount>38</maxWeakCount>
      <stageThreshold>-1.2793381214141846e+00</stageThreshold>
      <weakClassifiers>
        <_>
          <internalNodes>
            0 -1 99 6.5716370940208435e-02</internalNodes>
          <leafValues>
            -5.2673995494842529e-01 5.6716419756412506e-02</leafValues></_>
        <_>
          <internalNodes>
            0 -1 188 1.0664464207366109e-03</internalNodes>
          <leafValues>
            -2.3867927491664886e-01 1.6096979379653931e-01</leafValues></_>
        <_>
          <internalNodes>
            0 -1 245 -4.9489754019305110e-04</internalNodes>
          <leafValues>
            1.7631345987319946e-01 -1.9294606149196625e-01</leafValues></_>
        <_>
          <internalNodes>
            0 -1 43 1.9746392965316772e-02</internalNodes>
          <leafValues>
            5.4989568889141083e-02 -6.3047170639038086e-01</leafValues></_>
        <_>
          <internalNodes>
            0 -1 24 -1.0614048689603806e-02</internalNodes>
          <leafValues>
            -7.5250327587127686e-01 5.5569887161254883e-02</leafValues></_>
        <_>
          <internalNodes>
            0 -1 212 2.2880109027028084e-03</internalNodes>
          <leafValues>
            -1.2811107933521271e-01 2.2718216478824615e-01</leafValues></_>
        <_>
          <internalNodes>
            0 -1 45 -1.1953216046094894e-02</internalNodes>
          <leafValues>
            1.1568195372819901e-01 -2.3569218814373016e-01</leafValues></_>
        <_>
          <internalNodes>
            0 -1 174 -1.2519524432718754e-02</internalNodes>
          <leafValues>
            2.7321097254753113e-01 -1.1021154373884201e-01</leafValues></_>
        <_>
          <internalNodes>
            0 -1 136 2.7594886720180511e-02</internalNodes>
          <leafValues>
            -1.0313807427883148e-01 3.5328564047813416e-01</leafValues></_>
        <_>
          <internalNodes>
            0 -1 144 -1.0335275903344154e-02</internalNodes>
          <leafValues>
            2.1012189984321594e-01 -1.4693236351013184e-01</leafValues></_>
        <_>
          <internalNodes>
            0 -1 21 5.4391339421272278e-02</internalNodes>
          <leafValues>
            7.8446753323078156e-02 -4.0249824523925781e-01</leafValues></_>
        <_>
          <internalNodes>
            0 -1 235 -1.2331735342741013e-02</internalNodes>
          <leafValues>
            -5.3976207971572876e-01 4.6837221831083298e-02</leafValues></_>
        <_>
          <internalNodes>
            0 -1 235 -1.5020986320450902e-03</internalNodes>
          <leafValues>
            1.5998566150665283e-01 -1.9390706717967987e-01</leafValues></_>
        <_>
          <internalNodes>
            0 -1 243 -5.4278168827295303e-03</internalNodes>
          <leafValues>
            2.4411614239215851e-01 -1.2111330777406693e-01</leafValues></_>
        <_>
          <internalNodes>
            0 -1 145 2.8989069163799286e-02</internalNodes>
          <leafValues>
            3.2204646617174149e-02 -8.3943098783493042e-01</leafValues></_>
        <_>
          <internalNodes>
            0 -1 293 5.1330775022506714e-02</internalNodes>
          <leafValues>
            -5.2379492670297623e-02 6.5052473545074463e-01</leafValues></_>
        <_>
          <internalNodes>
            0 -1 236 7.3982947506010532e-03</internalNodes>
          <leafValues>
            3.3280517905950546e-02 -7.8312826156616211e-01</leafValues></_>
        <_>
          <internalNodes>
            0 -1 87 -5.9113334864377975e-03</internalNodes>
          <leafValues>
            3.4692588448524475e-01 -8.6040794849395752e-02</leafValues></_>
        <_>
          <internalNodes>
            0 -1 72 6.2991239130496979e-02</internalNodes>
          <leafValues>
            5.3981307893991470e-02 -5.7065647840499878e-01</leafValues></_>
        <_>
          <internalNodes>
            0 -1 239 4.4979760423302650e-04</internalNodes>
          <leafValues>
            -1.5504281222820282e-01 1.6857966780662537e-01</leafValues></_>
        <_>
          <internalNodes>
            0 -1 117 -5.4048389196395874e-02</internalNodes>
          <leafValues>
            -9.5788377523422241e-01 3.1741090118885040e-02</leafValues></_>
        <_>
          <internalNodes>
            0 -1 173 9.3326354399323463e-03</internalNodes>
          <leafValues>
            4.2894046753644943e-02 -5.0749748945236206e-01</leafValues></_>
        <_>
          <internalNodes>
            0 -1 141 -1.1598174460232258e-03</internalNodes>
          <leafValues>
            1.8354368209838867e-01 -1.4922817051410675e-01</leafValues></_>
        <_>
          <internalNodes>
            0 -1 191 -5.9721618890762329e-03</internalNodes>
          <leafValues>
            1.1443088203668594e-01 -2.3622529208660126e-01</leafValues></_>
        <_>
          <internalNodes>
            0 -1 94 -1.3033596798777580e-02</internalNodes>
          <leafValues>
            2.1411818265914917e-01 -1.3070833683013916e-01</leafValues></_>
        <_>
          <internalNodes>
            0 -1 278 1.9974838942289352e-02</internalNodes>
          <leafValues>
            3.8161419332027435e-02 -6.4105582237243652e-01</leafValues></_>
        <_>
          <internalNodes>
            0 -1 225 1.3025175780057907e-02</internalNodes>
          <leafValues>
            -1.0472032427787781e-01 2.6103347539901733e-01</leafValues></_>
        <_>
          <internalNodes>
            0 -1 147 -1.4851979911327362e-02</internalNodes>
          <leafValues>
            2.7330926060676575e-01 -1.2462118268013000e-01</leafValues></_>
        <_>
          <internalNodes>
            0 -1 84 1.8369823694229126e-02</internalNodes>
          <leafValues>
            6.2165949493646622e-02 -4.0030822157859802e-01</leafValues></_>
        <_>
          <internalNodes>
            0 -1 6 4.7678608447313309e-02</internalNodes>
          <leafValues>
            -9.7303330898284912e-02 2.9289582371711731e-01</leafValues></_>
        <_>
          <internalNodes>
            0 -1 30 3.5940930247306824e-02</internalNodes>
          <leafValues>
            6.5666005015373230e-02 -3.9574339985847473e-01</leafValues></_>
        <_>
          <internalNodes>
            0 -1 152 8.6195357143878937e-03</internalNodes>
          <leafValues>
            -9.2310301959514618e-02 3.0813729763031006e-01</leafValues></_>
        <_>
          <internalNodes>
            0 -1 164 -5.7467386126518250e-02</internalNodes>
          <leafValues>
            -4.6467739343643188e-01 6.9135949015617371e-02</leafValues></_>
        <_>
          <internalNodes>
            0 -1 32 8.9444350451231003e-03</internalNodes>
          <leafValues>
            -1.0930109769105911e-01 2.5115734338760376e-01</leafValues></_>
        <_>
          <internalNodes>
            0 -1 64 -4.3001584708690643e-03</internalNodes>
          <leafValues>
            2.5127539038658142e-01 -1.2160558998584747e-01</leafValues></_>
        <_>
          <internalNodes>
            0 -1 191 3.7306323647499084e-02</internalNodes>
          <leafValues>
            2.9832078143954277e-02 -9.6172881126403809e-01</leafValues></_>
        <_>
          <internalNodes>
            0 -1 255 3.9656944572925568e-03</internalNodes>
          <leafValues>
            -1.2609501183032990e-01 2.1738322079181671e-01</leafValues></_>
        <_>
          <internalNodes>
            0 -1 137 -8.6420942097902298e-03</internalNodes>
          <leafValues>
            -4.4766533374786377e-01 6.5271452069282532e-02</leafValues></_></weakClassifiers></_>
    <!-- stage 7 -->
    <_>
      <maxWeakCount>44</maxWeakCount>
      <stageThreshold>-1.2886292934417725e+00</stageThreshold>
      <weakClassifiers>
        <_>
          <internalNodes>
            0 -1 86 3.8510628044605255e-02</internalNodes>
          <leafValues>
            -5.3695327043533325e-01 3.2085560262203217e-02</leafValues></_>
        <_>
          <internalNodes>
            0 -1 265 -7.8473724424839020e-03</internalNodes>
          <leafValues>
            1.8993613123893738e-01 -2.0129717886447906e-01</leafValues></_>
        <_>
          <internalNodes>
            0 -1 38 2.9920504894107580e-03</internalNodes>
          <leafValues>
            -1.6340506076812744e-01 1.6790756583213806e-01</leafValues></_>
        <_>
          <internalNodes>
            0 -1 263 1.5588762238621712e-02</internalNodes>
          <leafValues>
            4.3816663324832916e-02 -6.5162062644958496e-01</leafValues></_>
        <_>
          <internalNodes>
            0 -1 222 3.4033656120300293e-02</internalNodes>
          <leafValues>
            -6.9938443601131439e-02 3.9297008514404297e-01</leafValues></_>
        <_>
          <internalNodes>
            0 -1 230 -4.0684361010789871e-03</internalNodes>
          <leafValues>
            1.4371900260448456e-01 -2.0252768695354462e-01</leafValues></_>
        <_>
          <internalNodes>
            0 -1 139 2.4401620030403137e-03</internalNodes>
          <leafValues>
            -1.1759615689516068e-01 2.3397426307201385e-01</leafValues></_>
        <_>
          <internalNodes>
            0 -1 284 1.5637192875146866e-02</internalNodes>
          <leafValues>
            -8.4448143839836121e-02 3.5283601284027100e-01</leafValues></_>
        <_>
          <internalNodes>
            0 -1 90 -7.3092177510261536e-02</internalNodes>
          <leafValues>
            2.3641029000282288e-01 -1.2269829213619232e-01</leafValues></_>
        <_>
          <internalNodes>
            0 -1 262 -1.1047266423702240e-02</internalNodes>
          <leafValues>
            -6.0894465446472168e-01 5.1967360079288483e-02</leafValues></_>
        <_>
          <internalNodes>
            0 -1 207 4.7253996133804321e-02</internalNodes>
          <leafValues>
            -7.9156659543514252e-02 4.5636954903602600e-01</leafValues></_>
        <_>
          <internalNodes>
            0 -1 193 1.2659355998039246e-02</internalNodes>
          <leafValues>
            -1.0659945756196976e-01 2.5286591053009033e-01</leafValues></_>
        <_>
          <internalNodes>
            0 -1 204 1.7550915479660034e-02</internalNodes>
          <leafValues>
            4.2538817971944809e-02 -7.4492520093917847e-01</leafValues></_>
        <_>
          <internalNodes>
            0 -1 194 1.6118086874485016e-02</internalNodes>
          <leafValues>
            5.0983626395463943e-02 -4.3545913696289062e-01</leafValues></_>
        <_>
          <internalNodes>
            0 -1 182 1.6730917617678642e-02</internalNodes>
          <leafValues>
            7.2020329535007477e-02 -3.5363456606864929e-01</leafValues></_>
        <_>
          <internalNodes>
            0 -1 276 -1.6608424484729767e-03</internalNodes>
          <leafValues>
            2.4313852190971375e-01 -1.1723961681127548e-01</leafValues></_>
        <_>
          <internalNodes>
            0 -1 68 8.1499312072992325e-03</internalNodes>
          <leafValues>
            -1.0524252057075500e-01 2.2015403211116791e-01</leafValues></_>
        <_>
          <internalNodes>
            0 -1 261 -2.4349542800337076e-03</internalNodes>
          <leafValues>
            -3.0111986398696899e-01 7.5675472617149353e-02</leafValues></_>
        <_>
          <internalNodes>
            0 -1 195 3.1935699284076691e-02</internalNodes>
          <leafValues>
            3.9036091417074203e-02 -6.7462414503097534e-01</leafValues></_>
        <_>
          <internalNodes>
            0 -1 50 8.2826679572463036e-03</internalNodes>
          <leafValues>
            -7.8008122742176056e-02 3.2550668716430664e-01</leafValues></_>
        <_>
          <internalNodes>
            0 -1 217 1.5183864161372185e-03</internalNodes>
          <leafValues>
            -1.1679208278656006e-01 2.4409748613834381e-01</leafValues></_>
        <_>
          <internalNodes>
            0 -1 20 1.4844071120023727e-02</internalNodes>
          <leafValues>
            -7.7343307435512543e-02 3.3243599534034729e-01</leafValues></_>
        <_>
          <internalNodes>
            0 -1 189 -2.0028501749038696e-02</internalNodes>
          <leafValues>
            -7.4227362871170044e-01 3.4103404730558395e-02</leafValues></_>
        <_>
          <internalNodes>
            0 -1 13 -2.3046093061566353e-02</internalNodes>
          <leafValues>
            2.3232249915599823e-01 -1.1311300843954086e-01</leafValues></_>
        <_>
          <internalNodes>
            0 -1 40 -2.1313522011041641e-02</internalNodes>
          <leafValues>
            -4.8551031947135925e-01 5.2331607788801193e-02</leafValues></_>
        <_>
          <internalNodes>
            0 -1 55 2.6638777926564217e-03</internalNodes>
          <leafValues>
            -1.4758385717868805e-01 1.5765489637851715e-01</leafValues></_>
        <_>
          <internalNodes>
            0 -1 213 -1.6370359808206558e-02</internalNodes>
          <leafValues>
            -6.9352400302886963e-01 3.4380592405796051e-02</leafValues></_>
        <_>
          <internalNodes>
            0 -1 125 4.6319060027599335e-02</internalNodes>
          <leafValues>
            4.5878987759351730e-02 -4.8356696963310242e-01</leafValues></_>
        <_>
          <internalNodes>
            0 -1 240 -2.2197067737579346e-03</internalNodes>
          <leafValues>
            1.9814495742321014e-01 -1.2911215424537659e-01</leafValues></_>
        <_>
          <internalNodes>
            0 -1 9 3.0693253502249718e-03</internalNodes>
          <leafValues>
            -1.0344648361206055e-01 2.4080501496791840e-01</leafValues></_>
        <_>
          <internalNodes>
            0 -1 59 1.6034003347158432e-02</internalNodes>
          <leafValues>
            -1.1439578980207443e-01 2.0774008333683014e-01</leafValues></_>
        <_>
          <internalNodes>
            0 -1 54 6.3351658172905445e-04</internalNodes>
          <leafValues>
            -1.2220194935798645e-01 1.8475405871868134e-01</leafValues></_>
        <_>
          <internalNodes>
            0 -1 223 1.0953872697427869e-04</internalNodes>
          <leafValues>
            -1.5560469031333923e-01 1.4698140323162079e-01</leafValues></_>
        <_>
          <internalNodes>
            0 -1 84 -3.9886925369501114e-03</internalNodes>
          <leafValues>
            -2.5861835479736328e-01 9.7361259162425995e-02</leafValues></_>
        <_>
          <internalNodes>
            0 -1 272 -2.0630866289138794e-02</internalNodes>
          <leafValues>
            -4.2181107401847839e-01 5.5267784744501114e-02</leafValues></_>
        <_>
          <internalNodes>
            0 -1 165 -3.1022469047456980e-03</internalNodes>
          <leafValues>
            3.2008928060531616e-01 -8.3900459110736847e-02</leafValues></_>
        <_>
          <internalNodes>
            0 -1 154 6.4338766969740391e-04</internalNodes>
          <leafValues>
            -1.8506513535976410e-01 1.5175975859165192e-01</leafValues></_>
        <_>
          <internalNodes>
            0 -1 97 5.1353648304939270e-03</internalNodes>
          <leafValues>
            -8.1650212407112122e-02 3.3591404557228088e-01</leafValues></_>
        <_>
          <internalNodes>
            0 -1 271 1.3200486078858376e-02</internalNodes>
          <leafValues>
            4.7468282282352448e-02 -5.5610245466232300e-01</leafValues></_>
        <_>
          <internalNodes>
            0 -1 274 1.6108129639178514e-03</internalNodes>
          <leafValues>
            -1.2971094250679016e-01 2.2199001908302307e-01</leafValues></_>
        <_>
          <internalNodes>
            0 -1 11 1.6693571815267205e-03</internalNodes>
          <leafValues>
            9.5612332224845886e-02 -2.6311442255973816e-01</leafValues></_>
        <_>
          <internalNodes>
            0 -1 62 -3.3137351274490356e-02</internalNodes>
          <leafValues>
            -6.8013972043991089e-01 3.4905184060335159e-02</leafValues></_>
        <_>
          <internalNodes>
            0 -1 111 -2.3091151379048824e-03</internalNodes>
          <leafValues>
            2.5181376934051514e-01 -1.1026138067245483e-01</leafValues></_>
        <_>
          <internalNodes>
            0 -1 0 8.1377193331718445e-02</internalNodes>
          <leafValues>
            -5.2937518805265427e-02 4.6635633707046509e-01</leafValues></_></weakClassifiers></_>
    <!-- stage 8 -->
    <_>
      <maxWeakCount>54</maxWeakCount>
      <stageThreshold>-1.2595069408416748e+00</stageThreshold>
      <weakClassifiers>
        <_>
          <internalNodes>
            0 -1 295 2.9719632118940353e-02</internalNodes>
          <leafValues>
            -4.7773686051368713e-01 6.5375305712223053e-02</leafValues></_>
        <_>
          <internalNodes>
            0 -1 63 -6.4454793930053711e-02</internalNodes>
          <leafValues>
            2.1855302155017853e-01 -1.6432218253612518e-01</leafValues></_>
        <_>
          <internalNodes>
            0 -1 74 1.6936793923377991e-02</internalNodes>
          <leafValues>
            3.9683189243078232e-02 -6.9611811637878418e-01</leafValues></_>
        <_>
          <internalNodes>
            0 -1 113 -5.3598419763147831e-03</internalNodes>
          <leafValues>
            2.5108325481414795e-01 -1.1147731542587280e-01</leafValues></_>
        <_>
          <internalNodes>
            0 -1 132 -1.3338427990674973e-02</internalNodes>
          <leafValues>
            -5.3681385517120361e-01 4.1631594300270081e-02</leafValues></_>
        <_>
          <internalNodes>
            0 -1 247 -1.2230083346366882e-02</internalNodes>
          <leafValues>
            3.2862386107444763e-01 -6.9896481931209564e-02</leafValues></_>
        <_>
          <internalNodes>
            0 -1 248 -5.3007144480943680e-02</internalNodes>
          <leafValues>
            2.4987223744392395e-01 -1.3738453388214111e-01</leafValues></_>
        <_>
          <internalNodes>
            0 -1 163 -1.2083131819963455e-02</internalNodes>
          <leafValues>
            1.8583075702190399e-01 -1.2451342493295670e-01</leafValues></_>
        <_>
          <internalNodes>
            0 -1 101 1.1489251628518105e-02</internalNodes>
          <leafValues>
            -8.3790488541126251e-02 2.8672111034393311e-01</leafValues></_>
        <_>
          <internalNodes>
            0 -1 137 -2.1977689117193222e-02</internalNodes>
          <leafValues>
            -8.9662468433380127e-01 2.2009802982211113e-02</leafValues></_>
        <_>
          <internalNodes>
            0 -1 171 1.5532781835645437e-03</internalNodes>
          <leafValues>
            -1.5534080564975739e-01 1.4649064838886261e-01</leafValues></_>
        <_>
          <internalNodes>
            0 -1 119 2.0503546111285686e-03</internalNodes>
          <leafValues>
            -9.5501236617565155e-02 2.0945471525192261e-01</leafValues></_>
        <_>
          <internalNodes>
            0 -1 115 -1.3369280844926834e-02</internalNodes>
          <leafValues>
            -6.5066552162170410e-01 2.3012693971395493e-02</leafValues></_>
        <_>
          <internalNodes>
            0 -1 259 2.2208947688341141e-02</internalNodes>
          <leafValues>
            2.5481736287474632e-02 -8.8322383165359497e-01</leafValues></_>
        <_>
          <internalNodes>
            0 -1 105 -4.0075808763504028e-02</internalNodes>
          <leafValues>
            -8.1550037860870361e-01 2.7345100417733192e-02</leafValues></_>
        <_>
          <internalNodes>
            0 -1 269 1.5007773414254189e-02</internalNodes>
          <leafValues>
            3.1299952417612076e-02 -6.0196655988693237e-01</leafValues></_>
        <_>
          <internalNodes>
            0 -1 209 -1.5372000634670258e-03</internalNodes>
          <leafValues>
            1.5043602883815765e-01 -1.5388180315494537e-01</leafValues></_>
        <_>
          <internalNodes>
            0 -1 214 3.8924808613955975e-03</internalNodes>
          <leafValues>
            -8.2733049988746643e-02 4.8485970497131348e-01</leafValues></_>
        <_>
          <internalNodes>
            0 -1 126 7.8137703239917755e-03</internalNodes>
          <leafValues>
            6.1485532671213150e-02 -3.4927147626876831e-01</leafValues></_>
        <_>
          <internalNodes>
            0 -1 229 -3.8144242716953158e-04</internalNodes>
          <leafValues>
            1.0237806290388107e-01 -1.9531033933162689e-01</leafValues></_>
        <_>
          <internalNodes>
            0 -1 71 -1.1511967750266194e-03</internalNodes>
          <leafValues>
            1.7728373408317566e-01 -1.2814968824386597e-01</leafValues></_>
        <_>
          <internalNodes>
            0 -1 283 9.7757019102573395e-03</internalNodes>
          <leafValues>
            4.9099139869213104e-02 -4.1393247246742249e-01</leafValues></_>
        <_>
          <internalNodes>
            0 -1 22 -7.3482189327478409e-04</internalNodes>
          <leafValues>
            1.4624693989753723e-01 -1.5327769517898560e-01</leafValues></_>
        <_>
          <internalNodes>
            0 -1 37 -1.1139254085719585e-02</internalNodes>
          <leafValues>
            1.1987416446208954e-01 -1.7789766192436218e-01</leafValues></_>
        <_>
          <internalNodes>
            0 -1 18 5.6999279186129570e-03</internalNodes>
          <leafValues>
            -1.0200714319944382e-01 2.1512603759765625e-01</leafValues></_>
        <_>
          <internalNodes>
            0 -1 77 -2.3250710964202881e-01</internalNodes>
          <leafValues>
            -7.6422232389450073e-01 2.6903828606009483e-02</leafValues></_>
        <_>
          <internalNodes>
            0 -1 226 2.1131392568349838e-02</internalNodes>
          <leafValues>
            2.2393934428691864e-02 -7.1583068370819092e-01</leafValues></_>
        <_>
          <internalNodes>
            0 -1 217 -2.6109386235475540e-03</internalNodes>
          <leafValues>
            2.4288892745971680e-01 -9.9425829946994781e-02</leafValues></_>
        <_>
          <internalNodes>
            0 -1 200 1.2640431523323059e-02</internalNodes>
          <leafValues>
            4.5566424727439880e-02 -5.0429475307464600e-01</leafValues></_>
        <_>
          <internalNodes>
            0 -1 179 -2.8897698968648911e-02</internalNodes>
          <leafValues>
            3.8189089298248291e-01 -6.9139502942562103e-02</leafValues></_>
        <_>
          <internalNodes>
            0 -1 60 -2.2754478268325329e-03</internalNodes>
          <leafValues>
            2.5456565618515015e-01 -8.6959213018417358e-02</leafValues></_>
        <_>
          <internalNodes>
            0 -1 109 -8.7593924254179001e-03</internalNodes>
          <leafValues>
            -5.6760495901107788e-01 4.1700609028339386e-02</leafValues></_>
        <_>
          <internalNodes>
            0 -1 257 4.6187890693545341e-03</internalNodes>
          <leafValues>
            -7.6498702168464661e-02 2.8267773985862732e-01</leafValues></_>
        <_>
          <internalNodes>
            0 -1 249 -6.0419795772759244e-05</internalNodes>
          <leafValues>
            1.4907263219356537e-01 -1.7327283322811127e-01</leafValues></_>
        <_>
          <internalNodes>
            0 -1 291 3.2597836107015610e-02</internalNodes>
          <leafValues>
            3.4456733614206314e-02 -5.7381868362426758e-01</leafValues></_>
        <_>
          <internalNodes>
            0 -1 156 -1.4680202584713697e-03</internalNodes>
          <leafValues>
            1.5491990745067596e-01 -1.2924584746360779e-01</leafValues></_>
        <_>
          <internalNodes>
            0 -1 118 2.1991882473230362e-02</internalNodes>
          <leafValues>
            3.2433964312076569e-02 -6.1740440130233765e-01</leafValues></_>
        <_>
          <internalNodes>
            0 -1 61 1.4233766123652458e-03</internalNodes>
          <leafValues>
            -1.2275349348783493e-01 1.5940886735916138e-01</leafValues></_>
        <_>
          <internalNodes>
            0 -1 14 2.2140066139400005e-03</internalNodes>
          <leafValues>
            7.5443074107170105e-02 -2.5557127594947815e-01</leafValues></_>
        <_>
          <internalNodes>
            0 -1 147 3.2215613871812820e-02</internalNodes>
          <leafValues>
            -4.4715046882629395e-02 4.3884199857711792e-01</leafValues></_>
        <_>
          <internalNodes>
            0 -1 175 2.1758847869932652e-03</internalNodes>
          <leafValues>
            -1.3527098298072815e-01 1.3455551862716675e-01</leafValues></_>
        <_>
          <internalNodes>
            0 -1 65 1.8357116729021072e-02</internalNodes>
          <leafValues>
            2.3435261100530624e-02 -6.8878346681594849e-01</leafValues></_>
        <_>
          <internalNodes>
            0 -1 153 -1.2442953884601593e-02</internalNodes>
          <leafValues>
            1.5706999599933624e-01 -1.2132642418146133e-01</leafValues></_>
        <_>
          <internalNodes>
            0 -1 289 6.5709628164768219e-02</internalNodes>
          <leafValues>
            2.3736275732517242e-02 -8.0340403318405151e-01</leafValues></_>
        <_>
          <internalNodes>
            0 -1 100 7.1239620447158813e-02</internalNodes>
          <leafValues>
            2.9349947348237038e-02 -5.1790881156921387e-01</leafValues></_>
        <_>
          <internalNodes>
            0 -1 275 6.4157822635024786e-04</internalNodes>
          <leafValues>
            -1.1050823330879211e-01 1.8593014776706696e-01</leafValues></_>
        <_>
          <internalNodes>
            0 -1 210 -1.3111626729369164e-02</internalNodes>
          <leafValues>
            -6.6712003946304321e-01 2.9282355681061745e-02</leafValues></_>
        <_>
          <internalNodes>
            0 -1 172 -1.0558560024946928e-03</internalNodes>
          <leafValues>
            1.2845140695571899e-01 -1.4490322768688202e-01</leafValues></_>
        <_>
          <internalNodes>
            0 -1 286 -4.4906325638294220e-02</internalNodes>
          <leafValues>
            3.0663672089576721e-01 -6.0286480933427811e-02</leafValues></_>
        <_>
          <internalNodes>
            0 -1 51 -4.9749016761779785e-03</internalNodes>
          <leafValues>
            2.6987716555595398e-01 -7.2310350835323334e-02</leafValues></_>
        <_>
          <internalNodes>
            0 -1 218 -3.6553405225276947e-02</internalNodes>
          <leafValues>
            -7.2456949949264526e-01 2.7666335925459862e-02</leafValues></_>
        <_>
          <internalNodes>
            0 -1 256 3.3787407446652651e-03</internalNodes>
          <leafValues>
            -1.0139235854148865e-01 1.8621501326560974e-01</leafValues></_>
        <_>
          <internalNodes>
            0 -1 92 -5.3791804239153862e-03</internalNodes>
          <leafValues>
            2.6701620221138000e-01 -7.9187378287315369e-02</leafValues></_>
        <_>
          <internalNodes>
            0 -1 292 6.4111249521374702e-03</internalNodes>
          <leafValues>
            3.6589320749044418e-02 -5.3776633739471436e-01</leafValues></_></weakClassifiers></_>
    <!-- stage 9 -->
    <_>
      <maxWeakCount>63</maxWeakCount>
      <stageThreshold>-1.3329759836196899e+00</stageThreshold>
      <weakClassifiers>
        <_>
          <internalNodes>
            0 -1 287 3.1874675303697586e-02</internalNodes>
          <leafValues>
            -4.9662616848945618e-01 1.6513761878013611e-01</leafValues></_>
        <_>
          <internalNodes>
            0 -1 167 1.7436947673559189e-02</internalNodes>
          <leafValues>
            -1.8073065578937531e-01 1.9098232686519623e-01</leafValues></_>
        <_>
          <internalNodes>
            0 -1 268 -8.7494570761919022e-03</internalNodes>
          <leafValues>
            -4.7699555754661560e-01 5.0525326281785965e-02</leafValues></_>
        <_>
          <internalNodes>
            0 -1 241 -2.5886416435241699e-02</internalNodes>
          <leafValues>
            2.7713537216186523e-01 -6.6914997994899750e-02</leafValues></_>
        <_>
          <internalNodes>
            0 -1 296 3.0328890308737755e-02</internalNodes>
          <leafValues>
            -6.2015082687139511e-02 4.2780867218971252e-01</leafValues></_>
        <_>
          <internalNodes>
            0 -1 79 -6.9360164925456047e-03</internalNodes>
          <leafValues>
            4.2887035012245178e-01 -5.4721690714359283e-02</leafValues></_>
        <_>
          <internalNodes>
            0 -1 81 -4.8324242234230042e-03</internalNodes>
          <leafValues>
            3.0305579304695129e-01 -7.9292148351669312e-02</leafValues></_>
        <_>
          <internalNodes>
            0 -1 70 -2.9152319766581059e-03</internalNodes>
          <leafValues>
            -3.0507123470306396e-01 8.0096133053302765e-02</leafValues></_>
        <_>
          <internalNodes>
            0 -1 123 -8.6591308936476707e-03</internalNodes>
          <leafValues>
            -4.6941632032394409e-01 7.9148612916469574e-02</leafValues></_>
        <_>
          <internalNodes>
            0 -1 267 1.1634642258286476e-02</internalNodes>
          <leafValues>
            5.3036227822303772e-02 -4.3922191858291626e-01</leafValues></_>
        <_>
          <internalNodes>
            0 -1 220 2.0153587684035301e-02</internalNodes>
          <leafValues>
            -8.5388146340847015e-02 3.5231786966323853e-01</leafValues></_>
        <_>
          <internalNodes>
            0 -1 162 -6.5064290538430214e-03</internalNodes>
          <leafValues>
            1.9879122078418732e-01 -1.2137761712074280e-01</leafValues></_>
        <_>
          <internalNodes>
            0 -1 7 8.4368005394935608e-02</internalNodes>
          <leafValues>
            -9.4225011765956879e-02 2.4818196892738342e-01</leafValues></_>
        <_>
          <internalNodes>
            0 -1 30 5.6257776916027069e-02</internalNodes>
          <leafValues>
            3.7696719169616699e-02 -5.9208822250366211e-01</leafValues></_>
        <_>
          <internalNodes>
            0 -1 285 -3.3512122929096222e-02</internalNodes>
          <leafValues>
            3.3925977349281311e-01 -7.0447675883769989e-02</leafValues></_>
        <_>
          <internalNodes>
            0 -1 25 -1.6084318980574608e-02</internalNodes>
          <leafValues>
            2.1784369647502899e-01 -1.0302007198333740e-01</leafValues></_>
        <_>
          <internalNodes>
            0 -1 122 -1.8755769357085228e-02</internalNodes>
          <leafValues>
            -7.8789734840393066e-01 2.8845211490988731e-02</leafValues></_>
        <_>
          <internalNodes>
            0 -1 16 1.6882168129086494e-03</internalNodes>
          <leafValues>
            -1.4080488681793213e-01 1.4130099117755890e-01</leafValues></_>
        <_>
          <internalNodes>
            0 -1 234 -6.2052153050899506e-02</internalNodes>
          <leafValues>
            -7.4406391382217407e-01 2.4178199470043182e-02</leafValues></_>
        <_>
          <internalNodes>
            0 -1 80 1.1295998410787433e-04</internalNodes>
          <leafValues>
            -1.3009881973266602e-01 1.4228518307209015e-01</leafValues></_>
        <_>
          <internalNodes>
            0 -1 47 1.3929173350334167e-02</internalNodes>
          <leafValues>
            6.1155878007411957e-02 -3.6686122417449951e-01</leafValues></_>
        <_>
          <internalNodes>
            0 -1 187 -2.0323093980550766e-02</internalNodes>
          <leafValues>
            -4.6798869967460632e-01 4.2732883244752884e-02</leafValues></_>
        <_>
          <internalNodes>
            0 -1 49 -2.6008670683950186e-03</internalNodes>
          <leafValues>
            1.9294427335262299e-01 -1.1230044811964035e-01</leafValues></_>
        <_>
          <internalNodes>
            0 -1 15 -9.2903235927224159e-03</internalNodes>
          <leafValues>
            2.1693100035190582e-01 -8.8568963110446930e-02</leafValues></_>
        <_>
          <internalNodes>
            0 -1 110 -5.0957761704921722e-03</internalNodes>
          <leafValues>
            1.7608828842639923e-01 -9.9921673536300659e-02</leafValues></_>
        <_>
          <internalNodes>
            0 -1 108 1.3311518356204033e-02</internalNodes>
          <leafValues>
            -8.3851568400859833e-02 2.6694720983505249e-01</leafValues></_>
        <_>
          <internalNodes>
            0 -1 280 -3.3643472124822438e-04</internalNodes>
          <leafValues>
            1.3784652948379517e-01 -1.4234128594398499e-01</leafValues></_>
        <_>
          <internalNodes>
            0 -1 297 2.0172984804958105e-03</internalNodes>
          <leafValues>
            7.3388256132602692e-02 -2.4032314121723175e-01</leafValues></_>
        <_>
          <internalNodes>
            0 -1 31 4.7483708709478378e-02</internalNodes>
          <leafValues>
            -7.4481725692749023e-02 2.4885424971580505e-01</leafValues></_>
        <_>
          <internalNodes>
            0 -1 67 -2.7838090900331736e-03</internalNodes>
          <leafValues>
            1.7635706067085266e-01 -1.3026614487171173e-01</leafValues></_>
        <_>
          <internalNodes>
            0 -1 197 2.9518101364374161e-03</internalNodes>
          <leafValues>
            -1.0568037629127502e-01 1.9758841395378113e-01</leafValues></_>
        <_>
          <internalNodes>
            0 -1 254 2.2917729802429676e-03</internalNodes>
          <leafValues>
            5.8964367955923080e-02 -3.3642619848251343e-01</leafValues></_>
        <_>
          <internalNodes>
            0 -1 127 1.2341321446001530e-02</internalNodes>
          <leafValues>
            3.1251333653926849e-02 -4.8436561226844788e-01</leafValues></_>
        <_>
          <internalNodes>
            0 -1 260 5.9264451265335083e-03</internalNodes>
          <leafValues>
            -9.7962938249111176e-02 2.1788403391838074e-01</leafValues></_>
        <_>
          <internalNodes>
            0 -1 266 -3.8929027505218983e-03</internalNodes>
          <leafValues>
            2.0915520191192627e-01 -9.3099199235439301e-02</leafValues></_>
        <_>
          <internalNodes>
            0 -1 251 -1.2655226886272430e-01</internalNodes>
          <leafValues>
            -7.1050846576690674e-01 2.5017298758029938e-02</leafValues></_>
        <_>
          <internalNodes>
            0 -1 233 -3.9699651300907135e-02</internalNodes>
          <leafValues>
            -6.5653544664382935e-01 2.3087350651621819e-02</leafValues></_>
        <_>
          <internalNodes>
            0 -1 221 -2.4767057038843632e-03</internalNodes>
          <leafValues>
            7.4703931808471680e-02 -2.1870911121368408e-01</leafValues></_>
        <_>
          <internalNodes>
            0 -1 232 -4.7840401530265808e-02</internalNodes>
          <leafValues>
            -8.0758124589920044e-01 2.1807130426168442e-02</leafValues></_>
        <_>
          <internalNodes>
            0 -1 50 -5.5585158988833427e-03</internalNodes>
          <leafValues>
            2.5149023532867432e-01 -8.0935098230838776e-02</leafValues></_>
        <_>
          <internalNodes>
            0 -1 5 5.0442432984709740e-03</internalNodes>
          <leafValues>
            4.0925625711679459e-02 -4.2166912555694580e-01</leafValues></_>
        <_>
          <internalNodes>
            0 -1 224 6.9224706385284662e-04</internalNodes>
          <leafValues>
            -1.3907963037490845e-01 1.2055101245641708e-01</leafValues></_>
        <_>
          <internalNodes>
            0 -1 56 -1.2988098897039890e-03</internalNodes>
          <leafValues>
            1.3761906325817108e-01 -1.2136506289243698e-01</leafValues></_>
        <_>
          <internalNodes>
            0 -1 133 -1.5669360756874084e-02</internalNodes>
          <leafValues>
            -5.2224183082580566e-01 3.3255878835916519e-02</leafValues></_>
        <_>
          <internalNodes>
            0 -1 83 -3.9852242916822433e-03</internalNodes>
          <leafValues>
            2.7004522085189819e-01 -7.9627610743045807e-02</leafValues></_>
        <_>
          <internalNodes>
            0 -1 252 -1.6660461202263832e-02</internalNodes>
          <leafValues>
            2.6276096701622009e-01 -6.0765501111745834e-02</leafValues></_>
        <_>
          <internalNodes>
            0 -1 205 -5.3156856447458267e-03</internalNodes>
          <leafValues>
            8.9079700410366058e-02 -2.0649957656860352e-01</leafValues></_>
        <_>
          <internalNodes>
            0 -1 190 -2.0790230482816696e-02</internalNodes>
          <leafValues>
            -4.2374560236930847e-01 5.9969104826450348e-02</leafValues></_>
        <_>
          <internalNodes>
            0 -1 1 -2.3947285953909159e-03</internalNodes>
          <leafValues>
            -2.2227944433689117e-01 7.6941654086112976e-02</leafValues></_>
        <_>
          <internalNodes>
            0 -1 121 -2.9862459748983383e-02</internalNodes>
          <leafValues>
            1.8354843556880951e-01 -9.6062272787094116e-02</leafValues></_>
        <_>
          <internalNodes>
            0 -1 95 5.5996045470237732e-02</internalNodes>
          <leafValues>
            -9.6067562699317932e-02 2.2589714825153351e-01</leafValues></_>
        <_>
          <internalNodes>
            0 -1 129 9.4713404774665833e-02</internalNodes>
          <leafValues>
            -4.8491124063730240e-02 3.5536503791809082e-01</leafValues></_>
        <_>
          <internalNodes>
            0 -1 228 -5.0330031663179398e-03</internalNodes>
          <leafValues>
            -4.4715687632560730e-01 4.3259795755147934e-02</leafValues></_>
        <_>
          <internalNodes>
            0 -1 227 -1.0719245299696922e-02</internalNodes>
          <leafValues>
            -9.2474347352981567e-01 1.4224151149392128e-02</leafValues></_>
        <_>
          <internalNodes>
            0 -1 107 4.6228710561990738e-03</internalNodes>
          <leafValues>
            -1.0971414297819138e-01 1.5685284137725830e-01</leafValues></_>
        <_>
          <internalNodes>
            0 -1 115 -6.9522304693236947e-04</internalNodes>
          <leafValues>
            1.4611448347568512e-01 -1.2778875231742859e-01</leafValues></_>
        <_>
          <internalNodes>
            0 -1 42 8.2909711636602879e-04</internalNodes>
          <leafValues>
            -1.0600326210260391e-01 1.7908488214015961e-01</leafValues></_>
        <_>
          <internalNodes>
            0 -1 238 1.0766662657260895e-02</internalNodes>
          <leafValues>
            2.5014802813529968e-02 -7.9717230796813965e-01</leafValues></_>
        <_>
          <internalNodes>
            0 -1 46 -2.6948861777782440e-02</internalNodes>
          <leafValues>
            1.7622365057468414e-01 -1.0941035300493240e-01</leafValues></_>
        <_>
          <internalNodes>
            0 -1 33 4.3935768306255341e-02</internalNodes>
          <leafValues>
            -4.4171221554279327e-02 4.1267058253288269e-01</leafValues></_>
        <_>
          <internalNodes>
            0 -1 57 2.4164030328392982e-03</internalNodes>
          <leafValues>
            -8.8993892073631287e-02 2.0801416039466858e-01</leafValues></_>
        <_>
          <internalNodes>
            0 -1 28 6.4840707927942276e-03</internalNodes>
          <leafValues>
            -1.0188706964254379e-01 1.8356315791606903e-01</leafValues></_>
        <_>
          <internalNodes>
            0 -1 170 3.3353455364704132e-02</internalNodes>
          <leafValues>
            -9.9386423826217651e-02 1.7384649813175201e-01</leafValues></_></weakClassifiers></_></stages>
  <features>
    <_>
      <rects>
        <_>
          0 2 2 16 -1.</_>
        <_>
          0 6 2 8 2.</_></rects>
      <tilted>0</tilted></_>
    <_>
      <rects>
        <_>
          0 3 2 2 -1.</_>
        <_>
          0 4 2 1 2.</_></rects>
      <tilted>0</tilted></_>
    <_>
      <rects>
        <_>
          0 3 4 4 -1.</_>
        <_>
          2 3 2 4 2.</_></rects>
      <tilted>0</tilted></_>
    <_>
      <rects>
        <_>
          0 3 4 5 -1.</_>
        <_>
          2 3 2 5 2.</_></rects>
      <tilted>0</tilted></_>
    <_>
      <rects>
        <_>
          0 3 6 4 -1.</_>
        <_>
          3 3 3 4 2.</_></rects>
      <tilted>0</tilted></_>
    <_>
      <rects>
        <_>
          0 4 2 2 -1.</_>
        <_>
          0 4 1 1 2.</_>
        <_>
          1 5 1 1 2.</_></rects>
      <tilted>0</tilted></_>
    <_>
      <rects>
        <_>
          0 4 4 4 -1.</_>
        <_>
          2 4 2 4 2.</_></rects>
      <tilted>0</tilted></_>
    <_>
      <rects>
        <_>
          0 4 6 5 -1.</_>
        <_>
          3 4 3 5 2.</_></rects>
      <tilted>0</tilted></_>
    <_>
      <rects>
        <_>
          0 5 6 6 -1.</_>
        <_>
          0 5 3 3 2.</_>
        <_>
          3 8 3 3 2.</_></rects>
      <tilted>0</tilted></_>
    <_>
      <rects>
        <_>
          0 6 4 2 -1.</_>
        <_>
          0 6 2 1 2.</_>
        <_>
          2 7 2 1 2.</_></rects>
      <tilted>0</tilted></_>
    <_>
      <rects>
        <_>
          0 6 4 8 -1.</_>
        <_>
          0 6 2 4 2.</_>
        <_>
          2 10 2 4 2.</_></rects>
      <tilted>0</tilted></_>
    <_>
      <rects>
        <_>
          0 17 1 3 -1.</_>
        <_>
          0 18 1 1 3.</_></rects>
      <tilted>0</tilted></_>
    <_>
      <rects>
        <_>
          1 0 2 8 -1.</_>
        <_>
          2 0 1 8 2.</_></rects>
      <tilted>0</tilted></_>
    <_>
      <rects>
        <_>
          1 3 2 14 -1.</_>
        <_>
          1 3 1 7 2.</_>
        <_>
          2 10 1 7 2.</_></rects>
      <tilted>0</tilted></_>
    <_>
      <rects>
        <_>
          1 8 1 3 -1.</_>
        <_>
          1 9 1 1 3.</_></rects>
      <tilted>0</tilted></_>
    <_>
      <rects>
        <_>
          1 14 3 3 -1.</_>
        <_>
          2 14 1 3 3.</_></rects>
      <tilted>0</tilted></_>
    <_>
      <rects>
        <_>
          1 14 6 2 -1.</_>
        <_>
          1 15 6 1 2.</_></rects>
      <tilted>0</tilted></_>
    <_>
      <rects>
        <_>
          1 15 8 4 -1.</_>
        <_>
          1 16 8 2 2.</_></rects>
      <tilted>0</tilted></_>
    <_>
      <rects>
        <_>
          2 0 4 1 -1.</_>
        <_>
          4 0 2 1 2.</_></rects>
      <tilted>0</tilted></_>
    <_>
      <rects>
        <_>
          2 0 4 16 -1.</_>
        <_>
          2 0 2 8 2.</_>
        <_>
          4 8 2 8 2.</_></rects>
      <tilted>0</tilted></_>
    <_>
      <rects>
        <_>
          2 1 4 1 -1.</_>
        <_>
          2 1 2 1 2.</_></rects>
      <tilted>1</tilted></_>
    <_>
      <rects>
        <_>
          2 2 3 6 -1.</_>
        <_>
          3 4 1 2 9.</_></rects>
      <tilted>0</tilted></_>
    <_>
      <rects>
        <_>
          2 2 4 3 -1.</_>
        <_>
          3 2 2 3 2.</_></rects>
      <tilted>0</tilted></_>
    <_>
      <rects>
        <_>
          2 2 6 6 -1.</_>
        <_>
          2 4 6 2 3.</_></rects>
      <tilted>0</tilted></_>
    <_>
      <rects>
        <_>
          2 4 4 1 -1.</_>
        <_>
          3 4 2 1 2.</_></rects>
      <tilted>0</tilted></_>
    <_>
      <rects>
        <_>
          2 6 2 11 -1.</_>
        <_>
          3 6 1 11 2.</_></rects>
      <tilted>0</tilted></_>
    <_>
      <rects>
        <_>
          2 11 4 4 -1.</_>
        <_>
          2 11 2 2 2.</_>
        <_>
          4 13 2 2 2.</_></rects>
      <tilted>0</tilted></_>
    <_>
      <rects>
        <_>
          2 13 6 4 -1.</_>
        <_>
          2 14 6 2 2.</_></rects>
      <tilted>0</tilted></_>
    <_>
      <rects>
        <_>
          2 16 3 4 -1.</_>
        <_>
          3 16 1 4 3.</_></rects>
      <tilted>0</tilted></_>
    <_>
      <rects>
        <_>
          2 18 4 1 -1.</_>
        <_>
          3 18 2 1 2.</_></rects>
      <tilted>0</tilted></_>
    <_>
      <rects>
        <_>
          3 0 3 6 -1.</_>
        <_>
          4 2 1 2 9.</_></rects>
      <tilted>0</tilted></_>
    <_>
      <rects>
        <_>
          3 0 6 4 -1.</_>
        <_>
          5 0 2 4 3.</_></rects>
      <tilted>0</tilted></_>
    <_>
      <rects>
        <_>
          3 0 6 2 -1.</_>
        <_>
          3 1 6 1 2.</_></rects>
      <tilted>0</tilted></_>
    <_>
      <rects>
        <_>
          3 1 4 2 -1.</_>
        <_>
          3 1 2 2 2.</_></rects>
      <tilted>1</tilted></_>
    <_>
      <rects>
        <_>
          3 1 8 4 -1.</_>
        <_>
          5 1 4 4 2.</_></rects>
      <tilted>0</tilted></_>
    <_>
      <rects>
        <_>
          3 2 3 7 -1.</_>
        <_>
          4 2 1 7 3.</_></rects>
      <tilted>0</tilted></_>
    <_>
      <rects>
        <_>
          3 3 1 9 -1.</_>
        <_>
          3 6 1 3 3.</_></rects>
      <tilted>0</tilted></_>
    <_>
      <rects>
        <_>
          3 3 1 10 -1.</_>
        <_>
          3 8 1 5 2.</_></rects>
      <tilted>0</tilted></_>
    <_>
      <rects>
        <_>
          3 3 4 1 -1.</_>
        <_>
          5 3 2 1 2.</_></rects>
      <tilted>0</tilted></_>
    <_>
      <rects>
        <_>
          3 3 2 4 -1.</_>
        <_>
          3 5 2 2 2.</_></rects>
      <tilted>0</tilted></_>
    <_>
      <rects>
        <_>
          3 3 4 4 -1.</_>
        <_>
          3 5 4 2 2.</_></rects>
      <tilted>0</tilted></_>
    <_>
      <rects>
        <_>
          3 4 2 3 -1.</_>
        <_>
          3 5 2 1 3.</_></rects>
      <tilted>0</tilted></_>
    <_>
      <rects>
        <_>
          3 5 1 4 -1.</_>
        <_>
          3 7 1 2 2.</_></rects>
      <tilted>0</tilted></_>
    <_>
      <rects>
        <_>
          3 5 3 3 -1.</_>
        <_>
          4 5 1 3 3.</_></rects>
      <tilted>0</tilted></_>
    <_>
      <rects>
        <_>
          3 5 2 10 -1.</_>
        <_>
          3 10 2 5 2.</_></rects>
      <tilted>0</tilted></_>
    <_>
      <rects>
        <_>
          3 5 2 15 -1.</_>
        <_>
          3 10 2 5 3.</_></rects>
      <tilted>0</tilted></_>
    <_>
      <rects>
        <_>
          3 5 3 9 -1.</_>
        <_>
          3 8 3 3 3.</_></rects>
      <tilted>0</tilted></_>
    <_>
      <rects>
        <_>
          3 6 3 3 -1.</_>
        <_>
          4 6 1 3 3.</_></rects>
      <tilted>0</tilted></_>
    <_>
      <rects>
        <_>
          3 6 1 12 -1.</_>
        <_>
          3 10 1 4 3.</_></rects>
      <tilted>0</tilted></_>
    <_>
      <rects>
        <_>
          3 6 2 3 -1.</_>
        <_>
          3 7 2 1 3.</_></rects>
      <tilted>0</tilted></_>
    <_>
      <rects>
        <_>
          3 6 4 2 -1.</_>
        <_>
          3 6 2 1 2.</_>
        <_>
          5 7 2 1 2.</_></rects>
      <tilted>0</tilted></_>
    <_>
      <rects>
        <_>
          3 7 4 2 -1.</_>
        <_>
          3 7 2 1 2.</_>
        <_>
          5 8 2 1 2.</_></rects>
      <tilted>0</tilted></_>
    <_>
      <rects>
        <_>
          3 11 4 3 -1.</_>
        <_>
          5 11 2 3 2.</_></rects>
      <tilted>0</tilted></_>
    <_>
      <rects>
        <_>
          3 12 4 2 -1.</_>
        <_>
          5 12 2 2 2.</_></rects>
      <tilted>0</tilted></_>
    <_>
      <rects>
        <_>
          3 13 1 2 -1.</_>
        <_>
          3 14 1 1 2.</_></rects>
      <tilted>0</tilted></_>
    <_>
      <rects>
        <_>
          3 14 2 4 -1.</_>
        <_>
          3 16 2 2 2.</_></rects>
      <tilted>0</tilted></_>
    <_>
      <rects>
        <_>
          3 15 3 1 -1.</_>
        <_>
          4 15 1 1 3.</_></rects>
      <tilted>0</tilted></_>
    <_>
      <rects>
        <_>
          3 17 2 1 -1.</_>
        <_>
          4 17 1 1 2.</_></rects>
      <tilted>0</tilted></_>
    <_>
      <rects>
        <_>
          3 17 2 2 -1.</_>
        <_>
          3 17 1 1 2.</_>
        <_>
          4 18 1 1 2.</_></rects>
      <tilted>0</tilted></_>
    <_>
      <rects>
        <_>
          3 17 6 3 -1.</_>
        <_>
          5 17 2 3 3.</_></rects>
      <tilted>0</tilted></_>
    <_>
      <rects>
        <_>
          4 0 2 1 -1.</_>
        <_>
          5 0 1 1 2.</_></rects>
      <tilted>0</tilted></_>
    <_>
      <rects>
        <_>
          4 0 4 1 -1.</_>
        <_>
          5 0 2 1 2.</_></rects>
      <tilted>0</tilted></_>
    <_>
      <rects>
        <_>
          4 0 2 6 -1.</_>
        <_>
          4 2 2 2 3.</_></rects>
      <tilted>0</tilted></_>
    <_>
      <rects>
        <_>
          4 0 4 4 -1.</_>
        <_>
          4 0 2 4 2.</_></rects>
      <tilted>1</tilted></_>
    <_>
      <rects>
        <_>
          4 0 4 2 -1.</_>
        <_>
          4 1 4 1 2.</_></rects>
      <tilted>0</tilted></_>
    <_>
      <rects>
        <_>
          4 1 1 4 -1.</_>
        <_>
          4 3 1 2 2.</_></rects>
      <tilted>0</tilted></_>
    <_>
      <rects>
        <_>
          4 1 3 6 -1.</_>
        <_>
          5 3 1 2 9.</_></rects>
      <tilted>0</tilted></_>
    <_>
      <rects>
        <_>
          4 1 4 4 -1.</_>
        <_>
          5 1 2 4 2.</_></rects>
      <tilted>0</tilted></_>
    <_>
      <rects>
        <_>
          4 1 2 4 -1.</_>
        <_>
          4 3 2 2 2.</_></rects>
      <tilted>0</tilted></_>
    <_>
      <rects>
        <_>
          4 2 5 2 -1.</_>
        <_>
          4 3 5 1 2.</_></rects>
      <tilted>0</tilted></_>
    <_>
      <rects>
        <_>
          4 3 1 4 -1.</_>
        <_>
          4 5 1 2 2.</_></rects>
      <tilted>0</tilted></_>
    <_>
      <rects>
        <_>
          4 3 4 2 -1.</_>
        <_>
          5 3 2 2 2.</_></rects>
      <tilted>0</tilted></_>
    <_>
      <rects>
        <_>
          4 3 3 6 -1.</_>
        <_>
          5 5 1 2 9.</_></rects>
      <tilted>0</tilted></_>
    <_>
      <rects>
        <_>
          4 3 4 1 -1.</_>
        <_>
          4 3 2 1 2.</_></rects>
      <tilted>1</tilted></_>
    <_>
      <rects>
        <_>
          4 3 2 4 -1.</_>
        <_>
          4 5 2 2 2.</_></rects>
      <tilted>0</tilted></_>
    <_>
      <rects>
        <_>
          4 3 6 2 -1.</_>
        <_>
          4 3 3 1 2.</_>
        <_>
          7 4 3 1 2.</_></rects>
      <tilted>0</tilted></_>
    <_>
      <rects>
        <_>
          4 3 3 4 -1.</_>
        <_>
          4 5 3 2 2.</_></rects>
      <tilted>0</tilted></_>
    <_>
      <rects>
        <_>
          4 3 4 14 -1.</_>
        <_>
          4 10 4 7 2.</_></rects>
      <tilted>0</tilted></_>
    <_>
      <rects>
        <_>
          4 4 1 2 -1.</_>
        <_>
          4 5 1 1 2.</_></rects>
      <tilted>0</tilted></_>
    <_>
      <rects>
        <_>
          4 4 1 3 -1.</_>
        <_>
          4 5 1 1 3.</_></rects>
      <tilted>0</tilted></_>
    <_>
      <rects>
        <_>
          4 4 1 4 -1.</_>
        <_>
          4 6 1 2 2.</_></rects>
      <tilted>0</tilted></_>
    <_>
      <rects>
        <_>
          4 5 1 3 -1.</_>
        <_>
          4 6 1 1 3.</_></rects>
      <tilted>0</tilted></_>
    <_>
      <rects>
        <_>
          4 5 1 4 -1.</_>
        <_>
          4 6 1 2 2.</_></rects>
      <tilted>0</tilted></_>
    <_>
      <rects>
        <_>
          4 5 2 2 -1.</_>
        <_>
          4 5 1 1 2.</_>
        <_>
          5 6 1 1 2.</_></rects>
      <tilted>0</tilted></_>
    <_>
      <rects>
        <_>
          4 5 4 1 -1.</_>
        <_>
          4 5 2 1 2.</_></rects>
      <tilted>1</tilted></_>
    <_>
      <rects>
        <_>
          4 5 4 6 -1.</_>
        <_>
          4 5 2 3 2.</_>
        <_>
          6 8 2 3 2.</_></rects>
      <tilted>0</tilted></_>
    <_>
      <rects>
        <_>
          4 5 4 8 -1.</_>
        <_>
          4 5 2 4 2.</_>
        <_>
          6 9 2 4 2.</_></rects>
      <tilted>0</tilted></_>
    <_>
      <rects>
        <_>
          4 6 1 3 -1.</_>
        <_>
          4 7 1 1 3.</_></rects>
      <tilted>0</tilted></_>
    <_>
      <rects>
        <_>
          4 6 1 4 -1.</_>
        <_>
          4 7 1 2 2.</_></rects>
      <tilted>0</tilted></_>
    <_>
      <rects>
        <_>
          4 6 2 2 -1.</_>
        <_>
          4 6 1 1 2.</_>
        <_>
          5 7 1 1 2.</_></rects>
      <tilted>0</tilted></_>
    <_>
      <rects>
        <_>
          4 6 3 9 -1.</_>
        <_>
          5 9 1 3 9.</_></rects>
      <tilted>0</tilted></_>
    <_>
      <rects>
        <_>
          4 6 2 3 -1.</_>
        <_>
          4 7 2 1 3.</_></rects>
      <tilted>0</tilted></_>
    <_>
      <rects>
        <_>
          4 6 4 2 -1.</_>
        <_>
          4 6 2 1 2.</_>
        <_>
          6 7 2 1 2.</_></rects>
      <tilted>0</tilted></_>
    <_>
      <rects>
        <_>
          4 6 2 6 -1.</_>
        <_>
          4 8 2 2 3.</_></rects>
      <tilted>0</tilted></_>
    <_>
      <rects>
        <_>
          4 6 3 6 -1.</_>
        <_>
          4 8 3 2 3.</_></rects>
      <tilted>0</tilted></_>
    <_>
      <rects>
        <_>
          4 7 3 9 -1.</_>
        <_>
          5 10 1 3 9.</_></rects>
      <tilted>0</tilted></_>
    <_>
      <rects>
        <_>
          4 7 2 3 -1.</_>
        <_>
          4 8 2 1 3.</_></rects>
      <tilted>0</tilted></_>
    <_>
      <rects>
        <_>
          4 8 3 1 -1.</_>
        <_>
          5 8 1 1 3.</_></rects>
      <tilted>0</tilted></_>
    <_>
      <rects>
        <_>
          4 8 2 2 -1.</_>
        <_>
          4 8 1 1 2.</_>
        <_>
          5 9 1 1 2.</_></rects>
      <tilted>0</tilted></_>
    <_>
      <rects>
        <_>
          4 9 6 3 -1.</_>
        <_>
          6 9 2 3 3.</_></rects>
      <tilted>0</tilted></_>
    <_>
      <rects>
        <_>
          4 9 3 10 -1.</_>
        <_>
          4 14 3 5 2.</_></rects>
      <tilted>0</tilted></_>
    <_>
      <rects>
        <_>
          4 10 3 2 -1.</_>
        <_>
          5 10 1 2 3.</_></rects>
      <tilted>0</tilted></_>
    <_>
      <rects>
        <_>
          4 10 3 3 -1.</_>
        <_>
          5 10 1 3 3.</_></rects>
      <tilted>0</tilted></_>
    <_>
      <rects>
        <_>
          4 10 4 6 -1.</_>
        <_>
          4 10 2 3 2.</_>
        <_>
          6 13 2 3 2.</_></rects>
      <tilted>0</tilted></_>
    <_>
      <rects>
        <_>
          4 13 2 1 -1.</_>
        <_>
          5 13 1 1 2.</_></rects>
      <tilted>0</tilted></_>
    <_>
      <rects>
        <_>
          4 13 4 1 -1.</_>
        <_>
          4 13 2 1 2.</_></rects>
      <tilted>1</tilted></_>
    <_>
      <rects>
        <_>
          4 15 1 2 -1.</_>
        <_>
          4 16 1 1 2.</_></rects>
      <tilted>0</tilted></_>
    <_>
      <rects>
        <_>
          4 16 4 3 -1.</_>
        <_>
          5 16 2 3 2.</_></rects>
      <tilted>0</tilted></_>
    <_>
      <rects>
        <_>
          4 16 3 4 -1.</_>
        <_>
          4 18 3 2 2.</_></rects>
      <tilted>0</tilted></_>
    <_>
      <rects>
        <_>
          4 17 1 3 -1.</_>
        <_>
          4 18 1 1 3.</_></rects>
      <tilted>0</tilted></_>
    <_>
      <rects>
        <_>
          4 18 6 2 -1.</_>
        <_>
          4 19 6 1 2.</_></rects>
      <tilted>0</tilted></_>
    <_>
      <rects>
        <_>
          4 19 2 1 -1.</_>
        <_>
          5 19 1 1 2.</_></rects>
      <tilted>0</tilted></_>
    <_>
      <rects>
        <_>
          5 0 2 2 -1.</_>
        <_>
          5 0 1 1 2.</_>
        <_>
          6 1 1 1 2.</_></rects>
      <tilted>0</tilted></_>
    <_>
      <rects>
        <_>
          5 0 4 2 -1.</_>
        <_>
          6 1 2 2 2.</_></rects>
      <tilted>1</tilted></_>
    <_>
      <rects>
        <_>
          5 1 1 3 -1.</_>
        <_>
          5 2 1 1 3.</_></rects>
      <tilted>0</tilted></_>
    <_>
      <rects>
        <_>
          5 1 2 4 -1.</_>
        <_>
          5 1 1 2 2.</_>
        <_>
          6 3 1 2 2.</_></rects>
      <tilted>0</tilted></_>
    <_>
      <rects>
        <_>
          5 1 3 12 -1.</_>
        <_>
          6 5 1 4 9.</_></rects>
      <tilted>0</tilted></_>
    <_>
      <rects>
        <_>
          5 1 2 8 -1.</_>
        <_>
          5 5 2 4 2.</_></rects>
      <tilted>0</tilted></_>
    <_>
      <rects>
        <_>
          5 1 3 2 -1.</_>
        <_>
          5 1 3 1 2.</_></rects>
      <tilted>1</tilted></_>
    <_>
      <rects>
        <_>
          5 2 1 3 -1.</_>
        <_>
          5 3 1 1 3.</_></rects>
      <tilted>0</tilted></_>
    <_>
      <rects>
        <_>
          5 2 2 2 -1.</_>
        <_>
          5 2 1 1 2.</_>
        <_>
          6 3 1 1 2.</_></rects>
      <tilted>0</tilted></_>
    <_>
      <rects>
        <_>
          5 2 1 12 -1.</_>
        <_>
          5 8 1 6 2.</_></rects>
      <tilted>0</tilted></_>
    <_>
      <rects>
        <_>
          5 2 3 3 -1.</_>
        <_>
          5 3 3 1 3.</_></rects>
      <tilted>0</tilted></_>
    <_>
      <rects>
        <_>
          5 3 2 1 -1.</_>
        <_>
          5 3 1 1 2.</_></rects>
      <tilted>1</tilted></_>
    <_>
      <rects>
        <_>
          5 3 3 1 -1.</_>
        <_>
          6 4 1 1 3.</_></rects>
      <tilted>1</tilted></_>
    <_>
      <rects>
        <_>
          5 3 3 6 -1.</_>
        <_>
          6 5 1 2 9.</_></rects>
      <tilted>0</tilted></_>
    <_>
      <rects>
        <_>
          5 3 2 2 -1.</_>
        <_>
          5 3 1 2 2.</_></rects>
      <tilted>1</tilted></_>
    <_>
      <rects>
        <_>
          5 3 4 1 -1.</_>
        <_>
          7 3 2 1 2.</_></rects>
      <tilted>0</tilted></_>
    <_>
      <rects>
        <_>
          5 3 6 10 -1.</_>
        <_>
          8 3 3 10 2.</_></rects>
      <tilted>0</tilted></_>
    <_>
      <rects>
        <_>
          5 3 6 9 -1.</_>
        <_>
          5 6 6 3 3.</_></rects>
      <tilted>0</tilted></_>
    <_>
      <rects>
        <_>
          5 4 1 3 -1.</_>
        <_>
          5 5 1 1 3.</_></rects>
      <tilted>0</tilted></_>
    <_>
      <rects>
        <_>
          5 4 2 1 -1.</_>
        <_>
          5 4 1 1 2.</_></rects>
      <tilted>1</tilted></_>
    <_>
      <rects>
        <_>
          5 4 4 1 -1.</_>
        <_>
          6 5 2 1 2.</_></rects>
      <tilted>1</tilted></_>
    <_>
      <rects>
        <_>
          5 4 2 2 -1.</_>
        <_>
          5 4 1 2 2.</_></rects>
      <tilted>1</tilted></_>
    <_>
      <rects>
        <_>
          5 4 2 8 -1.</_>
        <_>
          5 4 1 4 2.</_>
        <_>
          6 8 1 4 2.</_></rects>
      <tilted>0</tilted></_>
    <_>
      <rects>
        <_>
          5 4 1 10 -1.</_>
        <_>
          5 9 1 5 2.</_></rects>
      <tilted>0</tilted></_>
    <_>
      <rects>
        <_>
          5 4 1 15 -1.</_>
        <_>
          5 9 1 5 3.</_></rects>
      <tilted>0</tilted></_>
    <_>
      <rects>
        <_>
          5 4 4 1 -1.</_>
        <_>
          5 4 2 1 2.</_></rects>
      <tilted>1</tilted></_>
    <_>
      <rects>
        <_>
          5 4 2 2 -1.</_>
        <_>
          5 4 2 1 2.</_></rects>
      <tilted>1</tilted></_>
    <_>
      <rects>
        <_>
          5 4 4 2 -1.</_>
        <_>
          7 4 2 2 2.</_></rects>
      <tilted>0</tilted></_>
    <_>
      <rects>
        <_>
          5 4 4 2 -1.</_>
        <_>
          5 4 2 2 2.</_></rects>
      <tilted>1</tilted></_>
    <_>
      <rects>
        <_>
          5 5 1 2 -1.</_>
        <_>
          5 6 1 1 2.</_></rects>
      <tilted>0</tilted></_>
    <_>
      <rects>
        <_>
          5 5 2 1 -1.</_>
        <_>
          5 5 1 1 2.</_></rects>
      <tilted>1</tilted></_>
    <_>
      <rects>
        <_>
          5 5 4 1 -1.</_>
        <_>
          6 6 2 1 2.</_></rects>
      <tilted>1</tilted></_>
    <_>
      <rects>
        <_>
          5 5 1 6 -1.</_>
        <_>
          5 8 1 3 2.</_></rects>
      <tilted>0</tilted></_>
    <_>
      <rects>
        <_>
          5 5 4 1 -1.</_>
        <_>
          5 5 2 1 2.</_></rects>
      <tilted>1</tilted></_>
    <_>
      <rects>
        <_>
          5 5 4 2 -1.</_>
        <_>
          5 5 2 2 2.</_></rects>
      <tilted>1</tilted></_>
    <_>
      <rects>
        <_>
          5 6 1 9 -1.</_>
        <_>
          5 9 1 3 3.</_></rects>
      <tilted>0</tilted></_>
    <_>
      <rects>
        <_>
          5 6 4 10 -1.</_>
        <_>
          6 6 2 10 2.</_></rects>
      <tilted>0</tilted></_>
    <_>
      <rects>
        <_>
          5 6 3 12 -1.</_>
        <_>
          5 9 3 6 2.</_></rects>
      <tilted>0</tilted></_>
    <_>
      <rects>
        <_>
          5 7 1 2 -1.</_>
        <_>
          5 8 1 1 2.</_></rects>
      <tilted>0</tilted></_>
    <_>
      <rects>
        <_>
          5 7 2 2 -1.</_>
        <_>
          5 7 1 1 2.</_>
        <_>
          6 8 1 1 2.</_></rects>
      <tilted>0</tilted></_>
    <_>
      <rects>
        <_>
          5 7 1 6 -1.</_>
        <_>
          5 9 1 2 3.</_></rects>
      <tilted>0</tilted></_>
    <_>
      <rects>
        <_>
          5 7 4 3 -1.</_>
        <_>
          6 8 2 3 2.</_></rects>
      <tilted>1</tilted></_>
    <_>
      <rects>
        <_>
          5 8 2 1 -1.</_>
        <_>
          6 8 1 1 2.</_></rects>
      <tilted>0</tilted></_>
    <_>
      <rects>
        <_>
          5 8 1 2 -1.</_>
        <_>
          5 9 1 1 2.</_></rects>
      <tilted>0</tilted></_>
    <_>
      <rects>
        <_>
          5 8 1 3 -1.</_>
        <_>
          5 9 1 1 3.</_></rects>
      <tilted>0</tilted></_>
    <_>
      <rects>
        <_>
          5 8 4 4 -1.</_>
        <_>
          6 8 2 4 2.</_></rects>
      <tilted>0</tilted></_>
    <_>
      <rects>
        <_>
          5 8 2 10 -1.</_>
        <_>
          5 13 2 5 2.</_></rects>
      <tilted>0</tilted></_>
    <_>
      <rects>
        <_>
          5 9 3 2 -1.</_>
        <_>
          6 9 1 2 3.</_></rects>
      <tilted>0</tilted></_>
    <_>
      <rects>
        <_>
          5 9 2 3 -1.</_>
        <_>
          6 9 1 3 2.</_></rects>
      <tilted>0</tilted></_>
    <_>
      <rects>
        <_>
          5 9 3 3 -1.</_>
        <_>
          6 9 1 3 3.</_></rects>
      <tilted>0</tilted></_>
    <_>
      <rects>
        <_>
          5 9 2 6 -1.</_>
        <_>
          5 9 1 3 2.</_>
        <_>
          6 12 1 3 2.</_></rects>
      <tilted>0</tilted></_>
    <_>
      <rects>
        <_>
          5 9 2 8 -1.</_>
        <_>
          5 9 1 4 2.</_>
        <_>
          6 13 1 4 2.</_></rects>
      <tilted>0</tilted></_>
    <_>
      <rects>
        <_>
          5 9 3 8 -1.</_>
        <_>
          5 13 3 4 2.</_></rects>
      <tilted>0</tilted></_>
    <_>
      <rects>
        <_>
          5 10 2 1 -1.</_>
        <_>
          6 10 1 1 2.</_></rects>
      <tilted>0</tilted></_>
    <_>
      <rects>
        <_>
          5 10 2 2 -1.</_>
        <_>
          6 10 1 2 2.</_></rects>
      <tilted>0</tilted></_>
    <_>
      <rects>
        <_>
          5 10 3 6 -1.</_>
        <_>
          6 10 1 6 3.</_></rects>
      <tilted>0</tilted></_>
    <_>
      <rects>
        <_>
          5 11 2 4 -1.</_>
        <_>
          5 11 1 2 2.</_>
        <_>
          6 13 1 2 2.</_></rects>
      <tilted>0</tilted></_>
    <_>
      <rects>
        <_>
          5 12 2 4 -1.</_>
        <_>
          5 13 2 2 2.</_></rects>
      <tilted>0</tilted></_>
    <_>
      <rects>
        <_>
          5 13 6 5 -1.</_>
        <_>
          7 13 2 5 3.</_></rects>
      <tilted>0</tilted></_>
    <_>
      <rects>
        <_>
          5 14 2 3 -1.</_>
        <_>
          6 14 1 3 2.</_></rects>
      <tilted>0</tilted></_>
    <_>
      <rects>
        <_>
          5 14 6 2 -1.</_>
        <_>
          5 14 3 1 2.</_>
        <_>
          8 15 3 1 2.</_></rects>
      <tilted>0</tilted></_>
    <_>
      <rects>
        <_>
          5 15 2 1 -1.</_>
        <_>
          5 15 1 1 2.</_></rects>
      <tilted>1</tilted></_>
    <_>
      <rects>
        <_>
          5 16 3 4 -1.</_>
        <_>
          5 18 3 2 2.</_></rects>
      <tilted>0</tilted></_>
    <_>
      <rects>
        <_>
          6 0 1 4 -1.</_>
        <_>
          6 2 1 2 2.</_></rects>
      <tilted>0</tilted></_>
    <_>
      <rects>
        <_>
          6 0 1 18 -1.</_>
        <_>
          6 9 1 9 2.</_></rects>
      <tilted>0</tilted></_>
    <_>
      <rects>
        <_>
          6 0 2 4 -1.</_>
        <_>
          6 2 2 2 2.</_></rects>
      <tilted>0</tilted></_>
    <_>
      <rects>
        <_>
          6 0 3 4 -1.</_>
        <_>
          6 2 3 2 2.</_></rects>
      <tilted>0</tilted></_>
    <_>
      <rects>
        <_>
          6 0 3 9 -1.</_>
        <_>
          6 3 3 3 3.</_></rects>
      <tilted>0</tilted></_>
    <_>
      <rects>
        <_>
          6 1 2 2 -1.</_>
        <_>
          6 1 1 1 2.</_>
        <_>
          7 2 1 1 2.</_></rects>
      <tilted>0</tilted></_>
    <_>
      <rects>
        <_>
          6 1 3 3 -1.</_>
        <_>
          7 1 1 3 3.</_></rects>
      <tilted>0</tilted></_>
    <_>
      <rects>
        <_>
          6 1 1 12 -1.</_>
        <_>
          6 5 1 4 3.</_></rects>
      <tilted>0</tilted></_>
    <_>
      <rects>
        <_>
          6 1 1 16 -1.</_>
        <_>
          6 5 1 8 2.</_></rects>
      <tilted>0</tilted></_>
    <_>
      <rects>
        <_>
          6 1 1 12 -1.</_>
        <_>
          6 7 1 6 2.</_></rects>
      <tilted>0</tilted></_>
    <_>
      <rects>
        <_>
          6 1 1 16 -1.</_>
        <_>
          6 9 1 8 2.</_></rects>
      <tilted>0</tilted></_>
    <_>
      <rects>
        <_>
          6 1 2 2 -1.</_>
        <_>
          6 1 2 1 2.</_></rects>
      <tilted>1</tilted></_>
    <_>
      <rects>
        <_>
          6 1 2 4 -1.</_>
        <_>
          5 2 2 2 2.</_></rects>
      <tilted>1</tilted></_>
    <_>
      <rects>
        <_>
          6 2 1 3 -1.</_>
        <_>
          6 3 1 1 3.</_></rects>
      <tilted>0</tilted></_>
    <_>
      <rects>
        <_>
          6 2 1 4 -1.</_>
        <_>
          5 3 1 2 2.</_></rects>
      <tilted>1</tilted></_>
    <_>
      <rects>
        <_>
          6 2 1 10 -1.</_>
        <_>
          6 7 1 5 2.</_></rects>
      <tilted>0</tilted></_>
    <_>
      <rects>
        <_>
          6 2 1 16 -1.</_>
        <_>
          6 10 1 8 2.</_></rects>
      <tilted>0</tilted></_>
    <_>
      <rects>
        <_>
          6 2 2 2 -1.</_>
        <_>
          6 2 2 1 2.</_></rects>
      <tilted>1</tilted></_>
    <_>
      <rects>
        <_>
          6 2 2 6 -1.</_>
        <_>
          6 4 2 2 3.</_></rects>
      <tilted>0</tilted></_>
    <_>
      <rects>
        <_>
          6 2 2 14 -1.</_>
        <_>
          6 9 2 7 2.</_></rects>
      <tilted>0</tilted></_>
    <_>
      <rects>
        <_>
          6 2 5 3 -1.</_>
        <_>
          6 3 5 1 3.</_></rects>
      <tilted>0</tilted></_>
    <_>
      <rects>
        <_>
          6 3 4 2 -1.</_>
        <_>
          7 3 2 2 2.</_></rects>
      <tilted>0</tilted></_>
    <_>
      <rects>
        <_>
          6 3 2 4 -1.</_>
        <_>
          6 3 1 2 2.</_>
        <_>
          7 5 1 2 2.</_></rects>
      <tilted>0</tilted></_>
    <_>
      <rects>
        <_>
          6 3 2 3 -1.</_>
        <_>
          7 3 1 3 2.</_></rects>
      <tilted>0</tilted></_>
    <_>
      <rects>
        <_>
          6 3 2 4 -1.</_>
        <_>
          7 3 1 4 2.</_></rects>
      <tilted>0</tilted></_>
    <_>
      <rects>
        <_>
          6 3 1 8 -1.</_>
        <_>
          6 7 1 4 2.</_></rects>
      <tilted>0</tilted></_>
    <_>
      <rects>
        <_>
          6 3 1 10 -1.</_>
        <_>
          6 8 1 5 2.</_></rects>
      <tilted>0</tilted></_>
    <_>
      <rects>
        <_>
          6 3 1 15 -1.</_>
        <_>
          6 8 1 5 3.</_></rects>
      <tilted>0</tilted></_>
    <_>
      <rects>
        <_>
          6 3 1 12 -1.</_>
        <_>
          6 9 1 6 2.</_></rects>
      <tilted>0</tilted></_>
    <_>
      <rects>
        <_>
          6 3 2 4 -1.</_>
        <_>
          6 4 2 2 2.</_></rects>
      <tilted>0</tilted></_>
    <_>
      <rects>
        <_>
          6 3 2 10 -1.</_>
        <_>
          6 8 2 5 2.</_></rects>
      <tilted>0</tilted></_>
    <_>
      <rects>
        <_>
          6 3 2 12 -1.</_>
        <_>
          6 9 2 6 2.</_></rects>
      <tilted>0</tilted></_>
    <_>
      <rects>
        <_>
          6 3 3 9 -1.</_>
        <_>
          6 6 3 3 3.</_></rects>
      <tilted>0</tilted></_>
    <_>
      <rects>
        <_>
          6 4 3 1 -1.</_>
        <_>
          7 4 1 1 3.</_></rects>
      <tilted>0</tilted></_>
    <_>
      <rects>
        <_>
          6 4 1 8 -1.</_>
        <_>
          6 6 1 4 2.</_></rects>
      <tilted>0</tilted></_>
    <_>
      <rects>
        <_>
          6 4 2 2 -1.</_>
        <_>
          6 4 1 2 2.</_></rects>
      <tilted>1</tilted></_>
    <_>
      <rects>
        <_>
          6 4 1 8 -1.</_>
        <_>
          6 8 1 4 2.</_></rects>
      <tilted>0</tilted></_>
    <_>
      <rects>
        <_>
          6 4 4 2 -1.</_>
        <_>
          6 4 2 1 2.</_>
        <_>
          8 5 2 1 2.</_></rects>
      <tilted>0</tilted></_>
    <_>
      <rects>
        <_>
          6 4 2 2 -1.</_>
        <_>
          6 4 2 1 2.</_></rects>
      <tilted>1</tilted></_>
    <_>
      <rects>
        <_>
          6 5 1 2 -1.</_>
        <_>
          6 6 1 1 2.</_></rects>
      <tilted>0</tilted></_>
    <_>
      <rects>
        <_>
          6 5 2 2 -1.</_>
        <_>
          6 5 1 1 2.</_>
        <_>
          7 6 1 1 2.</_></rects>
      <tilted>0</tilted></_>
    <_>
      <rects>
        <_>
          6 5 2 8 -1.</_>
        <_>
          6 5 1 4 2.</_>
        <_>
          7 9 1 4 2.</_></rects>
      <tilted>0</tilted></_>
    <_>
      <rects>
        <_>
          6 6 2 2 -1.</_>
        <_>
          6 6 1 1 2.</_>
        <_>
          7 7 1 1 2.</_></rects>
      <tilted>0</tilted></_>
    <_>
      <rects>
        <_>
          6 6 2 6 -1.</_>
        <_>
          6 9 2 3 2.</_></rects>
      <tilted>0</tilted></_>
    <_>
      <rects>
        <_>
          6 6 2 10 -1.</_>
        <_>
