<?xml version="1.0"?>
<opencv_storage>
<stage14>
  <maxWeakCount>77</maxWeakCount>
  <stageThreshold>-1.1631342172622681e+00</stageThreshold>
  <weakClassifiers>
    <_>
      <internalNodes>
        0 -1 22000 9.5177747309207916e-02</internalNodes>
      <leafValues>
        -4.6919748187065125e-01 2.2670025005936623e-02</leafValues></_>
    <_>
      <internalNodes>
        0 -1 16802 1.6990706324577332e-02</internalNodes>
      <leafValues>
        -1.2555244565010071e-01 1.9821646809577942e-01</leafValues></_>
    <_>
      <internalNodes>
        0 -1 27322 2.0899283699691296e-03</internalNodes>
      <leafValues>
        -1.2408269941806793e-01 1.5725089609622955e-01</leafValues></_>
    <_>
      <internalNodes>
        0 -1 22134 -1.8198192119598389e-02</internalNodes>
      <leafValues>
        2.2539407014846802e-01 -6.4388714730739594e-02</leafValues></_>
    <_>
      <internalNodes>
        0 -1 15640 1.5953756868839264e-02</internalNodes>
      <leafValues>
        2.5586366653442383e-02 -5.9512597322463989e-01</leafValues></_>
    <_>
      <internalNodes>
        0 -1 15738 8.6116436868906021e-03</internalNodes>
      <leafValues>
        -9.5458991825580597e-02 1.7502392828464508e-01</leafValues></_>
    <_>
      <internalNodes>
        0 -1 30137 -5.9753365814685822e-02</internalNodes>
      <leafValues>
        3.5527461767196655e-01 -6.2833078205585480e-02</leafValues></_>
    <_>
      <internalNodes>
        0 -1 32697 3.8378573954105377e-02</internalNodes>
      <leafValues>
        -3.9205439388751984e-02 4.3685293197631836e-01</leafValues></_>
    <_>
      <internalNodes>
        0 -1 29109 -1.0090805590152740e-02</internalNodes>
      <leafValues>
        -6.1477637290954590e-01 2.3156639188528061e-02</leafValues></_>
    <_>
      <internalNodes>
        0 -1 16713 -5.5417241528630257e-03</internalNodes>
      <leafValues>
        2.9057973623275757e-01 -4.2074531316757202e-02</leafValues></_>
    <_>
      <internalNodes>
        0 -1 28891 -9.8837375640869141e-02</internalNodes>
      <leafValues>
        -5.8111983537673950e-01 2.1453067660331726e-02</leafValues></_>
    <_>
      <internalNodes>
        0 -1 20885 1.1331981047987938e-02</internalNodes>
      <leafValues>
        -3.3222179859876633e-02 3.8939207792282104e-01</leafValues></_>
    <_>
      <internalNodes>
        0 -1 16370 4.6266621211543679e-04</internalNodes>
      <leafValues>
        -1.1967036128044128e-01 1.2729714810848236e-01</leafValues></_>
    <_>
      <internalNodes>
        0 -1 20287 9.5889559015631676e-03</internalNodes>
      <leafValues>
        6.0497317463159561e-02 -4.3365362286567688e-01</leafValues></_>
    <_>
      <internalNodes>
        0 -1 11478 2.4341300013475120e-04</internalNodes>
      <leafValues>
        -1.4456316828727722e-01 1.1210516840219498e-01</leafValues></_>
    <_>
      <internalNodes>
        0 -1 19262 2.7627865783870220e-03</internalNodes>
      <leafValues>
        1.1789456754922867e-01 -1.3565303385257721e-01</leafValues></_>
    <_>
      <internalNodes>
        0 -1 23833 2.1671049296855927e-02</internalNodes>
      <leafValues>
        4.3099429458379745e-02 -5.5480730533599854e-01</leafValues></_>
    <_>
      <internalNodes>
        0 -1 25216 -1.3569447211921215e-02</internalNodes>
      <leafValues>
        2.6236435770988464e-01 -5.9156615287065506e-02</leafValues></_>
    <_>
      <internalNodes>
        0 -1 33594 1.5893967822194099e-02</internalNodes>
      <leafValues>
        -1.1522388458251953e-01 1.6810411214828491e-01</leafValues></_>
    <_>
      <internalNodes>
        0 -1 4773 -9.3103833496570587e-03</internalNodes>
      <leafValues>
        -6.8936872482299805e-01 1.6972983255982399e-02</leafValues></_>
    <_>
      <internalNodes>
        0 -1 6022 2.1164575591683388e-03</internalNodes>
      <leafValues>
        -9.8975658416748047e-02 1.4803342521190643e-01</leafValues></_>
    <_>
      <internalNodes>
        0 -1 30586 -1.3825466856360435e-02</internalNodes>
      <leafValues>
        -2.3220503330230713e-01 5.8273822069168091e-02</leafValues></_>
    <_>
      <internalNodes>
        0 -1 11133 -1.0406665503978729e-01</internalNodes>
      <leafValues>
        -2.5574451684951782e-01 5.2933655679225922e-02</leafValues></_>
    <_>
      <internalNodes>
        0 -1 11078 1.2413671240210533e-02</internalNodes>
      <leafValues>
        -7.0568703114986420e-02 1.9841021299362183e-01</leafValues></_>
    <_>
      <internalNodes>
        0 -1 10217 2.7505829930305481e-02</internalNodes>
      <leafValues>
        -9.0429440140724182e-02 1.7944246530532837e-01</leafValues></_>
    <_>
      <internalNodes>
        0 -1 6519 8.6706494912505150e-03</internalNodes>
      <leafValues>
        -1.0537111014127731e-01 1.3157893717288971e-01</leafValues></_>
    <_>
      <internalNodes>
        0 -1 31417 -4.6349838376045227e-02</internalNodes>
      <leafValues>
        4.4368740916252136e-01 -2.9773011803627014e-02</leafValues></_>
    <_>
      <internalNodes>
        0 -1 30296 -2.0037282258272171e-02</internalNodes>
      <leafValues>
        -3.9735603332519531e-01 3.8808010518550873e-02</leafValues></_>
    <_>
      <internalNodes>
        0 -1 20396 -4.1267797350883484e-02</internalNodes>
      <leafValues>
        5.3537404537200928e-01 -3.1719885766506195e-02</leafValues></_>
    <_>
      <internalNodes>
        0 -1 31683 -3.6014586687088013e-02</internalNodes>
      <leafValues>
        -9.0026313066482544e-01 1.7845308408141136e-02</leafValues></_>
    <_>
      <internalNodes>
        0 -1 27584 -1.0947505012154579e-02</internalNodes>
      <leafValues>
        -3.7150946259498596e-01 3.2827936112880707e-02</leafValues></_>
    <_>
      <internalNodes>
        0 -1 28791 1.0705862950999290e-04</internalNodes>
      <leafValues>
        -1.1601349711418152e-01 1.3448154926300049e-01</leafValues></_>
    <_>
      <internalNodes>
        0 -1 19795 2.9197942931205034e-03</internalNodes>
      <leafValues>
        -9.0332612395286560e-02 1.7253607511520386e-01</leafValues></_>
    <_>
      <internalNodes>
        0 -1 14834 4.3750066310167313e-02</internalNodes>
      <leafValues>
        4.5061163604259491e-02 -4.1331821680068970e-01</leafValues></_>
    <_>
      <internalNodes>
        0 -1 28793 1.2676056474447250e-02</internalNodes>
      <leafValues>
        1.5800645574927330e-02 -8.5091674327850342e-01</leafValues></_>
    <_>
      <internalNodes>
        0 -1 20275 -5.1262238994240761e-03</internalNodes>
      <leafValues>
        2.7790382504463196e-01 -5.8454979211091995e-02</leafValues></_>
    <_>
      <internalNodes>
        0 -1 19445 4.4643059372901917e-03</internalNodes>
      <leafValues>
        -8.6436681449413300e-02 1.8982805311679840e-01</leafValues></_>
    <_>
      <internalNodes>
        0 -1 23115 -4.7081735101528466e-04</internalNodes>
      <leafValues>
        1.2928453087806702e-01 -1.3415426015853882e-01</leafValues></_>
    <_>
      <internalNodes>
        0 -1 34817 -1.1165842879563570e-03</internalNodes>
      <leafValues>
        -1.8383540213108063e-01 8.5015587508678436e-02</leafValues></_>
    <_>
      <internalNodes>
        0 -1 34817 7.3803251143544912e-04</internalNodes>
      <leafValues>
        9.7184777259826660e-02 -1.7472228407859802e-01</leafValues></_>
    <_>
      <internalNodes>
        0 -1 16456 -1.9502852810546756e-03</internalNodes>
      <leafValues>
        1.5317343175411224e-01 -1.0586062818765640e-01</leafValues></_>
    <_>
      <internalNodes>
        0 -1 26854 -3.2406061887741089e-02</internalNodes>
      <leafValues>
        -7.7484732866287231e-01 1.7952585592865944e-02</leafValues></_>
    <_>
      <internalNodes>
        0 -1 20594 6.1689782887697220e-03</internalNodes>
      <leafValues>
        4.0799465030431747e-02 -3.0739066004753113e-01</leafValues></_>
    <_>
      <internalNodes>
        0 -1 29182 -2.9275817796587944e-02</internalNodes>
      <leafValues>
        -1. 1.2275496497750282e-02</leafValues></_>
    <_>
      <internalNodes>
        0 -1 20886 -5.7454640045762062e-03</internalNodes>
      <leafValues>
        2.6379385590553284e-01 -5.7245962321758270e-02</leafValues></_>
    <_>
      <internalNodes>
        0 -1 23780 -6.8510379642248154e-03</internalNodes>
      <leafValues>
        -4.9356290698051453e-01 3.0287066474556923e-02</leafValues></_>
    <_>
      <internalNodes>
        0 -1 30607 -1.3191758189350367e-03</internalNodes>
      <leafValues>
        -1.7959547042846680e-01 7.9161323606967926e-02</leafValues></_>
    <_>
      <internalNodes>
        0 -1 27729 -2.9111772775650024e-02</internalNodes>
      <leafValues>
        2.9308778047561646e-01 -5.7041477411985397e-02</leafValues></_>
    <_>
      <internalNodes>
        0 -1 30840 9.6788918599486351e-03</internalNodes>
      <leafValues>
        -9.8670192062854767e-02 1.8516968190670013e-01</leafValues></_>
    <_>
      <internalNodes>
        0 -1 30647 3.4278530627489090e-02</internalNodes>
      <leafValues>
        4.4677671045064926e-02 -3.7562525272369385e-01</leafValues></_>
    <_>
      <internalNodes>
        0 -1 1828 7.4860203312709928e-04</internalNodes>
      <leafValues>
        8.8830992579460144e-02 -1.5774983167648315e-01</leafValues></_>
    <_>
      <internalNodes>
        0 -1 28790 -2.8269959148019552e-04</internalNodes>
      <leafValues>
        9.0979054570198059e-02 -1.5376617014408112e-01</leafValues></_>
    <_>
      <internalNodes>
        0 -1 28790 -4.8729879781603813e-03</internalNodes>
      <leafValues>
        -3.0886498093605042e-01 5.2250567823648453e-02</leafValues></_>
    <_>
      <internalNodes>
        0 -1 17064 -1.3564189895987511e-02</internalNodes>
      <leafValues>
        1.1729212850332260e-01 -1.1744800955057144e-01</leafValues></_>
    <_>
      <internalNodes>
        0 -1 16851 7.3910489678382874e-02</internalNodes>
      <leafValues>
        3.6699648946523666e-02 -4.8749983310699463e-01</leafValues></_>
    <_>
      <internalNodes>
        0 -1 16454 2.1087648347020149e-03</internalNodes>
      <leafValues>
        -9.4551146030426025e-02 1.5310589969158173e-01</leafValues></_>
    <_>
      <internalNodes>
        0 -1 30529 3.0491936951875687e-02</internalNodes>
      <leafValues>
        -5.5822212249040604e-02 2.5818577408790588e-01</leafValues></_>
    <_>
      <internalNodes>
        0 -1 26688 -6.6959667019546032e-03</internalNodes>
      <leafValues>
        1.7805321514606476e-01 -7.8293368220329285e-02</leafValues></_>
    <_>
      <internalNodes>
        0 -1 15300 -1.5871196985244751e-02</internalNodes>
      <leafValues>
        1.8964205682277679e-01 -7.7055864036083221e-02</leafValues></_>
    <_>
      <internalNodes>
        0 -1 24114 3.1460739672183990e-02</internalNodes>
      <leafValues>
        2.7782177552580833e-02 -5.0883501768112183e-01</leafValues></_>
    <_>
      <internalNodes>
        0 -1 24322 4.3406154960393906e-02</internalNodes>
      <leafValues>
        -2.0798066630959511e-02 7.2725772857666016e-01</leafValues></_>
    <_>
      <internalNodes>
        0 -1 7496 1.1296540498733521e-01</internalNodes>
      <leafValues>
        -4.4788017868995667e-02 3.0131003260612488e-01</leafValues></_>
    <_>
      <internalNodes>
        0 -1 25185 -4.1386396624147892e-03</internalNodes>
      <leafValues>
        1.9860762357711792e-01 -7.3671340942382812e-02</leafValues></_>
    <_>
      <internalNodes>
        0 -1 17186 -4.4621005654335022e-03</internalNodes>
      <leafValues>
        1.7007370293140411e-01 -8.7970048189163208e-02</leafValues></_>
    <_>
      <internalNodes>
        0 -1 25026 -1.0647661983966827e-03</internalNodes>
      <leafValues>
        -1.5505214035511017e-01 1.0029859095811844e-01</leafValues></_>
    <_>
      <internalNodes>
        0 -1 24766 9.8402313888072968e-03</internalNodes>
      <leafValues>
        9.3404076993465424e-02 -2.1045090258121490e-01</leafValues></_>
    <_>
      <internalNodes>
        0 -1 32800 -1.5333564952015877e-02</internalNodes>
      <leafValues>
        1.6577410697937012e-01 -8.7965041399002075e-02</leafValues></_>
    <_>
      <internalNodes>
        0 -1 20290 -1.1606391490204260e-04</internalNodes>
      <leafValues>
        1.3365440070629120e-01 -1.2011387199163437e-01</leafValues></_>
    <_>
      <internalNodes>
        0 -1 30419 -1.2226341292262077e-02</internalNodes>
      <leafValues>
        -4.1732037067413330e-01 3.5446718335151672e-02</leafValues></_>
    <_>
      <internalNodes>
        0 -1 22740 1.8878636881709099e-02</internalNodes>
      <leafValues>
        1.9248781725764275e-02 -7.3172682523727417e-01</leafValues></_>
    <_>
      <internalNodes>
        0 -1 18896 -5.7454109191894531e-03</internalNodes>
      <leafValues>
        2.4427585303783417e-01 -7.5498923659324646e-02</leafValues></_>
    <_>
      <internalNodes>
        0 -1 14464 2.0968592725694180e-03</internalNodes>
      <leafValues>
        -1.1150903254747391e-01 1.5564781427383423e-01</leafValues></_>
    <_>
      <internalNodes>
        0 -1 18769 4.0663778781890869e-02</internalNodes>
      <leafValues>
        2.4014290422201157e-02 -5.8989697694778442e-01</leafValues></_>
    <_>
      <internalNodes>
        0 -1 35565 -4.4657355174422264e-03</internalNodes>
      <leafValues>
        -2.9245886206626892e-01 4.4556673616170883e-02</leafValues></_>
    <_>
      <internalNodes>
        0 -1 24318 -5.3651404380798340e-01</internalNodes>
      <leafValues>
        -7.2767472267150879e-01 1.8951360136270523e-02</leafValues></_>
    <_>
      <internalNodes>
        0 -1 27334 -1.8696596845984459e-02</internalNodes>
      <leafValues>
        5.0098687410354614e-01 -3.1703107059001923e-02</leafValues></_>
    <_>
      <internalNodes>
        0 -1 24504 -4.4162468984723091e-03</internalNodes>
      <leafValues>
        1.1569742113351822e-01 -1.1772424727678299e-01</leafValues></_></weakClassifiers></stage14>
</opencv_storage>
