<?xml version="1.0"?>
<opencv_storage>
<stage4>
  <maxWeakCount>43</maxWeakCount>
  <stageThreshold>-1.1798766851425171e+00</stageThreshold>
  <weakClassifiers>
    <_>
      <internalNodes>
        0 -1 49171 3.1913283746689558e-03</internalNodes>
      <leafValues>
        -4.7732695937156677e-01 -1.5105740725994110e-01</leafValues></_>
    <_>
      <internalNodes>
        0 -1 54986 -4.1846176609396935e-03</internalNodes>
      <leafValues>
        2.5669762492179871e-01 -1.3347887992858887e-01</leafValues></_>
    <_>
      <internalNodes>
        0 -1 43361 5.5709742009639740e-02</internalNodes>
      <leafValues>
        -8.0451682209968567e-02 3.5019913315773010e-01</leafValues></_>
    <_>
      <internalNodes>
        0 -1 37233 5.4265633225440979e-03</internalNodes>
      <leafValues>
        -9.6972383558750153e-02 3.0895009636878967e-01</leafValues></_>
    <_>
      <internalNodes>
        0 -1 37382 -9.5774400979280472e-03</internalNodes>
      <leafValues>
        3.5375034809112549e-01 -8.3615377545356750e-02</leafValues></_>
    <_>
      <internalNodes>
        0 -1 956 6.5807148814201355e-02</internalNodes>
      <leafValues>
        -8.1761047244071960e-02 3.4205564856529236e-01</leafValues></_>
    <_>
      <internalNodes>
        0 -1 59689 -6.3518481329083443e-03</internalNodes>
      <leafValues>
        1.9758650660514832e-01 -1.2832725048065186e-01</leafValues></_>
    <_>
      <internalNodes>
        0 -1 68841 1.2551592662930489e-03</internalNodes>
      <leafValues>
        -5.2664540708065033e-02 3.1995430588722229e-01</leafValues></_>
    <_>
      <internalNodes>
        0 -1 44401 -1.2722356244921684e-02</internalNodes>
      <leafValues>
        2.6510164141654968e-01 -9.8711013793945312e-02</leafValues></_>
    <_>
      <internalNodes>
        0 -1 29212 1.3378793373703957e-02</internalNodes>
      <leafValues>
        5.2912306040525436e-02 -6.0702878236770630e-01</leafValues></_>
    <_>
      <internalNodes>
        0 -1 36212 -6.2689352780580521e-03</internalNodes>
      <leafValues>
        -4.0025445818901062e-01 5.1099512726068497e-02</leafValues></_>
    <_>
      <internalNodes>
        0 -1 42177 7.4083536863327026e-02</internalNodes>
      <leafValues>
        4.0901657193899155e-02 -8.0285829305648804e-01</leafValues></_>
    <_>
      <internalNodes>
        0 -1 13235 -8.5466355085372925e-04</internalNodes>
      <leafValues>
        1.7529515922069550e-01 -1.3973626494407654e-01</leafValues></_>
    <_>
      <internalNodes>
        0 -1 71945 1.3824788853526115e-02</internalNodes>
      <leafValues>
        3.1489640474319458e-02 -6.5429437160491943e-01</leafValues></_>
    <_>
      <internalNodes>
        0 -1 64521 -2.4093503598123789e-03</internalNodes>
      <leafValues>
        2.3153539001941681e-01 -1.2228697538375854e-01</leafValues></_>
    <_>
      <internalNodes>
        0 -1 68508 -1.3063875958323479e-02</internalNodes>
      <leafValues>
        -6.6959106922149658e-01 3.3769559115171432e-02</leafValues></_>
    <_>
      <internalNodes>
        0 -1 75705 -2.4575889110565186e-03</internalNodes>
      <leafValues>
        -2.6180323958396912e-01 8.7671428918838501e-02</leafValues></_>
    <_>
      <internalNodes>
        0 -1 75746 -3.4058861434459686e-02</internalNodes>
      <leafValues>
        3.5325253009796143e-01 -7.9211153090000153e-02</leafValues></_>
    <_>
      <internalNodes>
        0 -1 69520 9.0062627568840981e-03</internalNodes>
      <leafValues>
        -1.2068849802017212e-01 2.9390397667884827e-01</leafValues></_>
    <_>
      <internalNodes>
        0 -1 7391 2.4823967367410660e-02</internalNodes>
      <leafValues>
        -1.2174451351165771e-01 2.0959995687007904e-01</leafValues></_>
    <_>
      <internalNodes>
        0 -1 14100 -4.8188313841819763e-02</internalNodes>
      <leafValues>
        3.0961823463439941e-01 -8.3737313747406006e-02</leafValues></_>
    <_>
      <internalNodes>
        0 -1 49991 1.3241646811366081e-02</internalNodes>
      <leafValues>
        3.4087412059307098e-02 -6.9449675083160400e-01</leafValues></_>
    <_>
      <internalNodes>
        0 -1 59264 5.3311432711780071e-03</internalNodes>
      <leafValues>
        -8.8307291269302368e-02 2.7193552255630493e-01</leafValues></_>
    <_>
      <internalNodes>
        0 -1 66867 -1.9686788320541382e-02</internalNodes>
      <leafValues>
        -8.9742571115493774e-01 2.4541506543755531e-02</leafValues></_>
    <_>
      <internalNodes>
        0 -1 63417 3.8914293982088566e-03</internalNodes>
      <leafValues>
        -8.8668420910835266e-02 2.8683233261108398e-01</leafValues></_>
    <_>
      <internalNodes>
        0 -1 58628 -3.7309969775378704e-03</internalNodes>
      <leafValues>
        2.5563260912895203e-01 -9.8133988678455353e-02</leafValues></_>
    <_>
      <internalNodes>
        0 -1 42573 -2.8001882135868073e-02</internalNodes>
      <leafValues>
        -6.7056703567504883e-01 3.6517035216093063e-02</leafValues></_>
    <_>
      <internalNodes>
        0 -1 76994 9.2663485556840897e-03</internalNodes>
      <leafValues>
        4.9261033535003662e-02 -4.1989758610725403e-01</leafValues></_>
    <_>
      <internalNodes>
        0 -1 63699 -5.2743209525942802e-03</internalNodes>
      <leafValues>
        2.6063871383666992e-01 -9.2146769165992737e-02</leafValues></_>
    <_>
      <internalNodes>
        0 -1 59071 -3.0364409089088440e-02</internalNodes>
      <leafValues>
        -4.5414304733276367e-01 5.9034142643213272e-02</leafValues></_>
    <_>
      <internalNodes>
        0 -1 42937 -9.2833004891872406e-03</internalNodes>
      <leafValues>
        3.4022912383079529e-01 -7.1501232683658600e-02</leafValues></_>
    <_>
      <internalNodes>
        0 -1 54894 -1.7124928534030914e-02</internalNodes>
      <leafValues>
        -9.4232201576232910e-01 2.4498937651515007e-02</leafValues></_>
    <_>
      <internalNodes>
        0 -1 42861 1.3498753542080522e-03</internalNodes>
      <leafValues>
        -1.1350680142641068e-01 2.1702314913272858e-01</leafValues></_>
    <_>
      <internalNodes>
        0 -1 15321 -5.2704233676195145e-03</internalNodes>
      <leafValues>
        -5.4006254673004150e-01 4.5431550592184067e-02</leafValues></_>
    <_>
      <internalNodes>
        0 -1 64353 8.6601456860080361e-04</internalNodes>
      <leafValues>
        -1.1596930772066116e-01 1.9625760614871979e-01</leafValues></_>
    <_>
      <internalNodes>
        0 -1 53833 1.2623437680304050e-02</internalNodes>
      <leafValues>
        5.5031772702932358e-02 -4.0836337208747864e-01</leafValues></_>
    <_>
      <internalNodes>
        0 -1 49441 1.9873321056365967e-02</internalNodes>
      <leafValues>
        2.9001472517848015e-02 -7.9339623451232910e-01</leafValues></_>
    <_>
      <internalNodes>
        0 -1 42503 9.7110867500305176e-04</internalNodes>
      <leafValues>
        -1.2118510901927948e-01 2.0182062685489655e-01</leafValues></_>
    <_>
      <internalNodes>
        0 -1 71943 6.2083359807729721e-03</internalNodes>
      <leafValues>
        5.8610320091247559e-02 -4.3761610984802246e-01</leafValues></_>
    <_>
      <internalNodes>
        0 -1 59568 -1.3099324423819780e-03</internalNodes>
      <leafValues>
        1.9132497906684875e-01 -1.2956131994724274e-01</leafValues></_>
    <_>
      <internalNodes>
        0 -1 76892 -6.8836957216262817e-03</internalNodes>
      <leafValues>
        3.1894829869270325e-01 -6.8654932081699371e-02</leafValues></_>
    <_>
      <internalNodes>
        0 -1 74449 -3.8202051073312759e-03</internalNodes>
      <leafValues>
        2.0031374692916870e-01 -1.3438946008682251e-01</leafValues></_>
    <_>
      <internalNodes>
        0 -1 74891 -7.0000143023207784e-04</internalNodes>
      <leafValues>
        2.1539811789989471e-01 -1.2032666057348251e-01</leafValues></_></weakClassifiers></stage4>
</opencv_storage>
